<?xml version="1.0"?>
<opencv_storage>
<opencv_ml_svm>
  <format>3</format>
  <svmType>C_SVC</svmType>
  <kernel>
    <type>RBF</type>
    <gamma>1.0000000000000000e-03</gamma></kernel>
  <C>100.</C>
  <term_criteria><epsilon>1.1920928955078125e-07</epsilon>
    <iterations>1000</iterations></term_criteria>
  <var_count>2</var_count>
  <class_count>2</class_count>
  <class_labels type_id="opencv-matrix">
    <rows>2</rows>
    <cols>1</cols>
    <dt>i</dt>
    <data>
      0 1</data></class_labels>
  <class_weights type_id="opencv-matrix">
    <rows>2</rows>
    <cols>1</cols>
    <dt>d</dt>
    <data>
      8.4297520661157022e-01 1.5702479338842976e-01</data></class_weights>
  <sv_total>373</sv_total>
  <support_vectors>
    <_>
      8.11901321e+01 7.77864227e+01</_>
    <_>
      8.24939041e+01 8.11418610e+01</_>
    <_>
      1.31090240e+02 1.62410980e+02</_>
    <_>
      5.61642342e+01 9.86489029e+01</_>
    <_>
      6.87328033e+01 4.16619949e+01</_>
    <_>
      5.34775734e+01 9.56169815e+01</_>
    <_>
      5.22343102e+01 7.00383224e+01</_>
    <_>
      5.87380486e+01 6.28607178e+01</_>
    <_>
      5.52784004e+01 1.24950745e+02</_>
    <_>
      9.55063858e+01 7.81245651e+01</_>
    <_>
      6.77875443e+01 7.18015289e+01</_>
    <_>
      8.56630554e+01 8.42966003e+01</_>
    <_>
      9.59561234e+01 1.30119751e+02</_>
    <_>
      9.11835938e+01 1.01919220e+02</_>
    <_>
      4.51501389e+01 5.44520760e+01</_>
    <_>
      5.03890152e+01 9.42094040e+01</_>
    <_>
      5.75728569e+01 7.19937134e+01</_>
    <_>
      9.75924149e+01 3.14864864e+01</_>
    <_>
      6.20713310e+01 6.69429169e+01</_>
    <_>
      6.37516022e+01 5.46100082e+01</_>
    <_>
      1.05356140e+02 9.33758774e+01</_>
    <_>
      7.29453049e+01 4.56532249e+01</_>
    <_>
      4.03977966e+01 8.76032639e+01</_>
    <_>
      7.91174393e+01 8.22163925e+01</_>
    <_>
      4.04000168e+01 2.97489872e+01</_>
    <_>
      1.24574280e+02 1.07073997e+02</_>
    <_>
      3.95071144e+01 6.58475494e+01</_>
    <_>
      6.09124565e+01 5.09232216e+01</_>
    <_>
      1.94976616e+01 2.28781948e+01</_>
    <_>
      8.40237045e+01 4.67766418e+01</_>
    <_>
      6.20618324e+01 8.93624649e+01</_>
    <_>
      1.02993942e+02 8.25441742e+01</_>
    <_>
      5.27663536e+01 6.89589996e+01</_>
    <_>
      7.91444473e+01 9.09547272e+01</_>
    <_>
      6.17364693e+01 1.09635475e+02</_>
    <_>
      7.38779373e+01 8.87261429e+01</_>
    <_>
      3.18685741e+01 2.13624821e+01</_>
    <_>
      8.91616898e+01 1.05747314e+02</_>
    <_>
      3.28340950e+01 4.03906670e+01</_>
    <_>
      9.68153381e+01 1.08392326e+02</_>
    <_>
      8.35315247e+01 7.39225235e+01</_>
    <_>
      6.70188675e+01 1.07401665e+02</_>
    <_>
      5.99923325e+01 5.70569801e+01</_>
    <_>
      4.64716644e+01 4.36685600e+01</_>
    <_>
      7.27122726e+01 9.45470352e+01</_>
    <_>
      1.44699997e+02 1.22273232e+02</_>
    <_>
      9.04141922e+01 5.67511978e+01</_>
    <_>
      8.96079330e+01 6.54241714e+01</_>
    <_>
      7.26897659e+01 1.06387375e+02</_>
    <_>
      3.53549805e+01 1.11631287e+02</_>
    <_>
      9.84786530e+01 1.19196526e+02</_>
    <_>
      2.98236523e+01 3.56514359e+01</_>
    <_>
      9.26731110e+01 7.58693085e+01</_>
    <_>
      6.44546890e+01 8.28011475e+01</_>
    <_>
      1.24647583e+02 8.72646332e+01</_>
    <_>
      1.41649399e+02 6.32272720e+01</_>
    <_>
      5.61142082e+01 9.58314896e+01</_>
    <_>
      5.98304749e+01 6.60019531e+01</_>
    <_>
      2.77777596e+01 3.61954384e+01</_>
    <_>
      1.86111832e+02 1.76923416e+02</_>
    <_>
      8.09110031e+01 2.17228146e+01</_>
    <_>
      2.49529419e+01 9.23067017e+01</_>
    <_>
      3.50548286e+01 7.13071136e+01</_>
    <_>
      4.46611061e+01 7.79535370e+01</_>
    <_>
      4.07195015e+01 3.68423157e+01</_>
    <_>
      5.71545410e+01 5.51908798e+01</_>
    <_>
      1.36647476e+02 9.34716339e+01</_>
    <_>
      5.64183464e+01 8.13767700e+01</_>
    <_>
      6.28832169e+01 9.88489227e+01</_>
    <_>
      5.48601151e+01 6.94610825e+01</_>
    <_>
      4.98486404e+01 8.90645981e+01</_>
    <_>
      9.45358810e+01 1.14048363e+02</_>
    <_>
      5.97478943e+01 9.55682220e+01</_>
    <_>
      5.38863525e+01 7.47883835e+01</_>
    <_>
      1.25597366e+02 1.06133232e+02</_>
    <_>
      5.76002579e+01 1.67243137e+01</_>
    <_>
      7.39499969e+01 5.20300827e+01</_>
    <_>
      9.14224701e+01 7.44213638e+01</_>
    <_>
      1.05350960e+02 7.32048721e+01</_>
    <_>
      9.04566193e+01 7.55931778e+01</_>
    <_>
      7.11271515e+01 1.07932274e+02</_>
    <_>
      5.23503914e+01 7.76442642e+01</_>
    <_>
      8.40581741e+01 1.01128426e+02</_>
    <_>
      4.64290657e+01 7.38305740e+01</_>
    <_>
      9.30919037e+01 2.68472137e+01</_>
    <_>
      6.54924088e+01 4.52221451e+01</_>
    <_>
      4.65061646e+01 9.44162674e+01</_>
    <_>
      5.87138901e+01 9.92221069e+01</_>
    <_>
      5.85597610e+01 9.01968460e+01</_>
    <_>
      1.94976616e+01 2.28781948e+01</_>
    <_>
      8.50164795e+01 7.75835037e+01</_>
    <_>
      8.01495285e+01 8.83396149e+01</_>
    <_>
      6.00468979e+01 7.53033142e+01</_>
    <_>
      7.61004562e+01 5.97000008e+01</_>
    <_>
      8.99351501e+01 8.07731476e+01</_>
    <_>
      7.34628677e+01 8.22766647e+01</_>
    <_>
      9.78528671e+01 6.40355988e+01</_>
    <_>
      8.31615067e+01 4.30214081e+01</_>
    <_>
      1.11919212e+02 4.02957497e+01</_>
    <_>
      4.55741730e+01 5.30757027e+01</_>
    <_>
      2.92193890e+01 8.25615463e+01</_>
    <_>
      6.71057281e+01 5.32370911e+01</_>
    <_>
      1.04077858e+02 3.62849541e+01</_>
    <_>
      8.77286072e+01 6.19947090e+01</_>
    <_>
      4.22339363e+01 4.49947319e+01</_>
    <_>
      5.38672676e+01 7.80921326e+01</_>
    <_>
      6.64753036e+01 9.12058563e+01</_>
    <_>
      1.46779068e+02 4.30696754e+01</_>
    <_>
      9.16964645e+01 6.16872177e+01</_>
    <_>
      9.30447083e+01 9.50311508e+01</_>
    <_>
      5.73695450e+01 5.48803024e+01</_>
    <_>
      3.74145966e+01 8.18681641e+01</_>
    <_>
      8.86617966e+01 1.16576622e+02</_>
    <_>
      9.26582260e+01 6.89347839e+01</_>
    <_>
      9.01819763e+01 8.63047314e+00</_>
    <_>
      4.14557686e+01 9.22868500e+01</_>
    <_>
      1.09228333e+02 1.22295876e+02</_>
    <_>
      1.04663620e+02 9.11828537e+01</_>
    <_>
      6.30828209e+01 4.51993675e+01</_>
    <_>
      5.41715012e+01 9.22567368e+01</_>
    <_>
      2.47937813e+01 3.28258438e+01</_>
    <_>
      6.72073441e+01 9.61479568e+01</_>
    <_>
      6.08404160e+01 7.43993988e+01</_>
    <_>
      5.75460091e+01 1.01829552e+02</_>
    <_>
      3.00780296e+01 4.35014038e+01</_>
    <_>
      6.91824722e+01 7.02453003e+01</_>
    <_>
      9.26731110e+01 7.58693085e+01</_>
    <_>
      5.22212944e+01 7.42467270e+01</_>
    <_>
      4.28686256e+01 4.38109665e+01</_>
    <_>
      9.66768951e+01 5.32705841e+01</_>
    <_>
      1.06773613e+02 9.82386169e+01</_>
    <_>
      1.83742462e+02 8.17279663e+01</_>
    <_>
      8.99232254e+01 1.07086220e+02</_>
    <_>
      7.58870544e+01 8.02915115e+01</_>
    <_>
      7.70251465e+01 9.15487366e+01</_>
    <_>
      6.89916687e+01 9.56616974e+01</_>
    <_>
      8.25947647e+01 8.54956207e+01</_>
    <_>
      9.75031281e+01 1.20212975e+02</_>
    <_>
      7.34415665e+01 5.58357468e+01</_>
    <_>
      5.84593163e+01 7.19932785e+01</_>
    <_>
      4.24797325e+01 4.05780220e+01</_>
    <_>
      1.29493607e+02 9.29778290e+01</_>
    <_>
      3.00416660e+01 3.65478973e+01</_>
    <_>
      8.01937103e+01 7.89225922e+01</_>
    <_>
      9.28777161e+01 5.42919769e+01</_>
    <_>
      7.15574875e+01 5.48072891e+01</_>
    <_>
      1.04872002e+02 1.26460342e+02</_>
    <_>
      1.07195908e+02 9.91328812e+01</_>
    <_>
      7.64502106e+01 8.74395599e+01</_>
    <_>
      6.11981125e+01 6.86844101e+01</_>
    <_>
      9.29589462e+01 7.23710327e+01</_>
    <_>
      7.32834167e+01 9.41837540e+01</_>
    <_>
      9.49311981e+01 1.12819954e+02</_>
    <_>
      7.58086929e+01 9.09930344e+01</_>
    <_>
      1.06127151e+02 9.64604645e+01</_>
    <_>
      6.42666168e+01 6.74787598e+01</_>
    <_>
      1.86365860e+02 1.80924393e+02</_>
    <_>
      5.91487808e+01 9.65328674e+01</_>
    <_>
      1.22937851e+02 4.63883057e+01</_>
    <_>
      9.52126465e+01 5.85016708e+01</_>
    <_>
      7.05449982e+01 6.88038177e+01</_>
    <_>
      7.98012543e+01 7.66853790e+01</_>
    <_>
      6.63974609e+01 1.08341965e+02</_>
    <_>
      9.88029556e+01 4.34210815e+01</_>
    <_>
      5.51057205e+01 1.04104233e+02</_>
    <_>
      6.97618713e+01 6.54500122e+01</_>
    <_>
      5.95750504e+01 1.16640610e+02</_>
    <_>
      6.74832458e+01 1.30304245e+02</_>
    <_>
      5.06687889e+01 6.61992645e+01</_>
    <_>
      9.34087296e+01 6.25393867e+01</_>
    <_>
      7.06758118e+01 4.59605331e+01</_>
    <_>
      1.06261276e+02 9.26744919e+01</_>
    <_>
      1.04239685e+02 7.37495193e+01</_>
    <_>
      1.30163864e+02 1.59868546e+02</_>
    <_>
      6.07393532e+01 1.05180626e+02</_>
    <_>
      9.37727432e+01 5.26214561e+01</_>
    <_>
      1.43709732e+02 1.29171783e+02</_>
    <_>
      7.09376678e+01 8.49411774e+01</_>
    <_>
      7.48574066e+01 1.04637024e+02</_>
    <_>
      7.49199677e+01 7.97517319e+01</_>
    <_>
      1.24348175e+02 8.43038406e+01</_>
    <_>
      1.38631638e+02 6.77179489e+01</_>
    <_>
      5.64027519e+01 8.64738693e+01</_>
    <_>
      1.38904617e+02 9.36664200e+01</_>
    <_>
      9.68881378e+01 1.07379395e+02</_>
    <_>
      1.29175369e+02 1.61763763e+02</_>
    <_>
      1.34262177e+02 9.40888367e+01</_>
    <_>
      7.41830521e+01 5.60073395e+01</_>
    <_>
      9.29758530e+01 9.44355164e+01</_>
    <_>
      8.75759125e+01 1.10709244e+02</_>
    <_>
      6.18315926e+01 8.78599701e+01</_>
    <_>
      6.45173264e+01 7.81005325e+01</_>
    <_>
      6.21931801e+01 1.04207619e+02</_>
    <_>
      9.20809937e+01 1.06860382e+02</_>
    <_>
      9.58400345e+01 7.22584915e+01</_>
    <_>
      6.40623093e+01 7.60573349e+01</_>
    <_>
      5.96005592e+01 4.56761055e+01</_>
    <_>
      1.44629196e+02 1.19133751e+02</_>
    <_>
      1.05526733e+02 9.84471207e+01</_>
    <_>
      9.41828384e+01 1.14613449e+02</_>
    <_>
      9.86607132e+01 1.20678253e+02</_>
    <_>
      1.37930649e+02 8.61182938e+01</_>
    <_>
      1.23015518e+02 1.02412910e+02</_>
    <_>
      8.84353561e+01 7.47686081e+01</_>
    <_>
      6.94285507e+01 9.11353455e+01</_>
    <_>
      4.33789215e+01 8.71428909e+01</_>
    <_>
      1.21937363e+02 8.48957291e+01</_>
    <_>
      9.39774628e+01 8.35182648e+01</_>
    <_>
      9.50031815e+01 5.62827110e+01</_>
    <_>
      9.17821579e+01 6.46406403e+01</_>
    <_>
      7.18126602e+01 8.91660004e+01</_>
    <_>
      9.54212952e+01 1.27998161e+02</_>
    <_>
      7.51158371e+01 8.49878693e+01</_>
    <_>
      7.35405960e+01 4.83621445e+01</_>
    <_>
      2.22579300e+02 2.36618805e+02</_>
    <_>
      4.57650452e+01 1.08745979e+02</_>
    <_>
      1.35573669e+02 9.50932617e+01</_>
    <_>
      6.18556824e+01 4.49367332e+01</_>
    <_>
      1.03252106e+02 3.61205597e+01</_>
    <_>
      6.84434662e+01 7.76766357e+01</_>
    <_>
      1.70817322e+02 1.05659973e+02</_>
    <_>
      1.54161713e+02 6.47965393e+01</_>
    <_>
      5.12954216e+01 9.70759048e+01</_>
    <_>
      8.99311905e+01 1.04647453e+02</_>
    <_>
      1.06635849e+02 1.19202843e+02</_>
    <_>
      9.84306335e+01 9.22766190e+01</_>
    <_>
      6.86656570e+01 4.45837440e+01</_>
    <_>
      1.10483215e+02 1.19620651e+02</_>
    <_>
      9.27162552e+01 5.19754257e+01</_>
    <_>
      1.09218201e+02 3.96144638e+01</_>
    <_>
      1.10678001e+02 1.23275734e+02</_>
    <_>
      1.31105469e+02 1.69653976e+02</_>
    <_>
      7.66220016e+01 8.73866043e+01</_>
    <_>
      8.65654144e+01 7.48553162e+01</_>
    <_>
      9.05229874e+01 1.04110153e+02</_>
    <_>
      7.91968613e+01 9.24447250e+01</_>
    <_>
      6.92076569e+01 4.80568771e+01</_>
    <_>
      3.89031601e+01 8.02537155e+01</_>
    <_>
      9.90246887e+01 5.80706749e+01</_>
    <_>
      5.51541405e+01 8.51266327e+01</_>
    <_>
      6.23271294e+01 7.66670914e+01</_>
    <_>
      9.12041321e+01 8.37282257e+01</_>
    <_>
      9.14613113e+01 1.22475319e+02</_>
    <_>
      1.01705246e+02 8.81745605e+01</_>
    <_>
      9.63723679e+01 8.15492172e+01</_>
    <_>
      8.82067795e+01 8.51965179e+01</_>
    <_>
      4.34338989e+01 8.77108383e+01</_>
    <_>
      1.05664536e+02 9.22928848e+01</_>
    <_>
      6.41913147e+01 6.15067101e+01</_>
    <_>
      9.06852951e+01 1.01087997e+02</_>
    <_>
      5.93876114e+01 7.61996231e+01</_>
    <_>
      5.43764496e+01 7.62612076e+01</_>
    <_>
      1.03513687e+02 9.03855362e+01</_>
    <_>
      7.16841812e+01 7.11955338e+01</_>
    <_>
      9.10377502e+01 7.88787155e+01</_>
    <_>
      5.75257607e+01 5.93575859e+01</_>
    <_>
      1.30581680e+02 1.08650963e+02</_>
    <_>
      6.80407333e+01 1.09827995e+02</_>
    <_>
      1.21335663e+02 8.84374390e+01</_>
    <_>
      5.65797501e+01 3.12449322e+01</_>
    <_>
      8.55599670e+01 1.05713760e+02</_>
    <_>
      1.85287811e+02 1.66770340e+02</_>
    <_>
      7.49445801e+01 8.41464615e+01</_>
    <_>
      9.95791931e+01 1.18715340e+02</_>
    <_>
      9.33443604e+01 6.79038696e+01</_>
    <_>
      1.27797348e+02 1.12273155e+02</_>
    <_>
      1.02323273e+02 9.38781738e+01</_>
    <_>
      1.29684769e+02 1.04733528e+02</_>
    <_>
      8.00676346e+01 1.10600777e+02</_>
    <_>
      1.06795731e+02 8.79938126e+01</_>
    <_>
      7.60092316e+01 9.60266876e+01</_>
    <_>
      4.88353424e+01 6.72971573e+01</_>
    <_>
      1.23017609e+02 1.06825249e+02</_>
    <_>
      1.27552086e+02 8.34036331e+01</_>
    <_>
      6.32460556e+01 9.57683487e+01</_>
    <_>
      4.76991882e+01 9.56978912e+01</_>
    <_>
      7.78377609e+01 1.10860001e+02</_>
    <_>
      6.81191788e+01 7.96476517e+01</_>
    <_>
      5.52226105e+01 5.02903938e+01</_>
    <_>
      9.14073486e+01 8.97628784e+01</_>
    <_>
      5.33086052e+01 1.12156128e+02</_>
    <_>
      1.27180023e+02 9.31627884e+01</_>
    <_>
      9.98441315e+01 7.19152145e+01</_>
    <_>
      1.10493256e+02 7.59571533e+01</_>
    <_>
      6.99135971e+01 9.92454376e+01</_>
    <_>
      5.40826836e+01 9.62530594e+01</_>
    <_>
      1.02029625e+02 6.67708359e+01</_>
    <_>
      7.76020203e+01 8.61194611e+01</_>
    <_>
      1.07789482e+02 9.24196091e+01</_>
    <_>
      1.44214035e+02 6.86855316e+01</_>
    <_>
      5.42096291e+01 6.94933243e+01</_>
    <_>
      4.77924995e+01 1.84073975e+02</_>
    <_>
      5.26512337e+01 6.22379150e+01</_>
    <_>
      9.23273468e+01 9.91479568e+01</_>
    <_>
      1.47628494e+02 1.27873520e+02</_>
    <_>
      9.77487411e+01 7.36111145e+01</_>
    <_>
      9.06084900e+01 4.11666260e+01</_>
    <_>
      4.67724342e+01 7.38960571e+01</_>
    <_>
      1.24074287e+02 3.43374100e+01</_>
    <_>
      1.42554611e+02 1.21799957e+02</_>
    <_>
      5.53606224e+01 9.72039261e+01</_>
    <_>
      7.44489670e+01 8.22989197e+01</_>
    <_>
      5.34087143e+01 8.41422653e+01</_>
    <_>
      8.83924866e+01 7.41549530e+01</_>
    <_>
      7.67216492e+01 5.34103699e+01</_>
    <_>
      8.27956543e+01 8.74866257e+01</_>
    <_>
      5.75443039e+01 5.05777740e+01</_>
    <_>
      8.56420593e+01 1.02921097e+02</_>
    <_>
      1.07415146e+02 9.55337677e+01</_>
    <_>
      1.10535713e+02 7.08333359e+01</_>
    <_>
      9.35586700e+01 2.30134220e+01</_>
    <_>
      7.69429092e+01 7.90774002e+01</_>
    <_>
      1.03136635e+02 9.94829102e+01</_>
    <_>
      5.90152855e+01 7.55887299e+01</_>
    <_>
      7.01442184e+01 6.84019775e+01</_>
    <_>
      7.98700104e+01 7.40620728e+01</_>
    <_>
      2.76294460e+01 8.52369919e+01</_>
    <_>
      9.14912643e+01 1.11155121e+02</_>
    <_>
      5.24828987e+01 4.98394432e+01</_>
    <_>
      8.76483994e+01 8.02101440e+01</_>
    <_>
      8.82385101e+01 7.65900650e+01</_>
    <_>
      6.88487244e+01 7.78863525e+01</_>
    <_>
      9.95536346e+01 1.94177460e+02</_>
    <_>
      4.72672768e+01 7.28941498e+01</_>
    <_>
      8.33264694e+01 7.37757492e+01</_>
    <_>
      9.63655396e+01 1.32037064e+02</_>
    <_>
      1.22162331e+02 1.05019341e+02</_>
    <_>
      8.55018616e+01 5.85996666e+01</_>
    <_>
      1.32408478e+02 1.64245026e+02</_>
    <_>
      8.22141266e+01 9.89871750e+01</_>
    <_>
      2.61163177e+01 2.62152462e+01</_>
    <_>
      7.51837158e+01 1.13556190e+02</_>
    <_>
      7.72291794e+01 7.08875046e+01</_>
    <_>
      9.13731995e+01 1.16872536e+02</_>
    <_>
      9.21853256e+01 1.02501610e+02</_>
    <_>
      9.53277283e+01 1.10014793e+02</_>
    <_>
      6.53366318e+01 8.70821457e+01</_>
    <_>
      1.06564758e+02 1.01637733e+02</_>
    <_>
      1.02834129e+02 8.30339279e+01</_>
    <_>
      8.28631668e+01 8.38929443e+01</_>
    <_>
      9.75000000e+01 1.17706352e+02</_>
    <_>
      7.83865891e+01 8.72123489e+01</_>
    <_>
      6.10309105e+01 5.17287979e+01</_>
    <_>
      8.59314728e+01 5.29035492e+01</_>
    <_>
      5.90896530e+01 5.92427521e+01</_>
    <_>
      6.33929329e+01 9.66034164e+01</_>
    <_>
      6.08592148e+01 5.51911316e+01</_>
    <_>
      8.78963928e+01 4.78536530e+01</_>
    <_>
      9.02279663e+01 1.03876144e+02</_>
    <_>
      7.18837738e+01 8.84419250e+01</_>
    <_>
      1.00920105e+02 7.89418182e+01</_>
    <_>
      9.13423843e+01 1.09997780e+02</_>
    <_>
      8.58036575e+01 1.17267723e+02</_>
    <_>
      9.60010910e+01 1.13436409e+02</_>
    <_>
      1.43354950e+02 1.20478088e+02</_>
    <_>
      9.34079361e+01 1.10827301e+02</_>
    <_>
      7.45600281e+01 8.69824677e+01</_>
    <_>
      8.26764450e+01 1.03998604e+02</_>
    <_>
      9.22569885e+01 8.84584198e+01</_>
    <_>
      5.03462410e+01 6.38832359e+01</_>
    <_>
      6.58980255e+01 1.00731491e+02</_>
    <_>
      1.05970528e+02 8.21271362e+01</_>
    <_>
      8.60695343e+01 8.50879822e+01</_>
    <_>
      8.10358887e+01 8.33954849e+01</_>
    <_>
      8.12246170e+01 7.86783676e+01</_>
    <_>
      1.09847397e+02 1.22972466e+02</_>
    <_>
      8.99447861e+01 1.02014236e+02</_>
    <_>
      9.85284119e+01 1.12555878e+02</_>
    <_>
      1.03169548e+02 9.51414642e+01</_>
    <_>
      8.03039856e+01 8.84031906e+01</_>
    <_>
      1.35046036e+02 5.78089561e+01</_>
    <_>
      6.66038132e+01 8.72494736e+01</_>
    <_>
      1.33339539e+02 9.93398819e+01</_></support_vectors>
  <decision_functions>
    <_>
      <sv_count>373</sv_count>
      <rho>-2.4198089567760697e-01</rho>
      <alpha>
        5.3289595022409495e+00 1.9630118327567432e+00
        6.5123191658862840e+00 9.5072882447548661e+00
        1.3955914033088419e+01 4.0716195158216202e+00
        2.0214550682336880e+00 3.5597711934454619e+00
        3.9960379701782829e+00 6.7956602667971584e+00
        5.4957142319030847e+00 5.5395119375124509e+00
        1.9657041615318678e+00 8.8957812972234791e+00
        4.1176202577798719e+01 1.8410939450419599e+00
        3.9946947470717928e+00 1.7196687063933531e+00
        2.0434628095328211e+00 4.0250396901857517e+00
        4.0631410345221326e+00 5.4339159938417705e+00
        2.0079682496703355e+00 2.0385814368422657e+00
        3.2190691555086022e+00 1.5046484251328724e+00
        1.1925857768742054e+01 2.2190621430008438e+01
        9.9284368409343156e+00 4.0458558541243814e+00
        2.0072520986347513e+00 1.7556086725233875e+01
        9.1916981445624835e-01 3.9992831196372167e+00
        3.8494498028909687e+00 8.1184255919009143e+00
        2.0713633547764077e+00 4.0211767138329577e+00
        3.4737608667051161e+00 1.9921270461305141e+00
        4.4989886769495406e+00 2.9718430002780210e+00
        2.0171426590292958e+00 6.0083384798179409e+01
        6.0127336996254988e+00 5.9950549644702988e+00
        9.0771981033626972e+00 2.0780974114771329e+00
        2.0113404095404892e+00 2.0054770168285727e+00
        6.0421485645293522e+00 5.5179933947614231e+01
        2.0824399327555398e+00 7.1782613572674791e+01
        3.0928432667203705e+00 4.0445104767003004e+00
        1.0854429645233457e+01 2.0379549725115154e+00
        4.0293700503841858e+00 2.0420876718299645e+00
        8.2099889016532366e+00 2.2594125997463834e+01
        1.0263111437771146e+01 2.0546662552140802e+00
        9.9389097209767705e+00 4.0144154469885214e+00
        1.9954701804020911e+00 1.2161682335900061e+01
        1.8910217044360078e+01 2.0326566691571317e+00
        4.0116084313531024e+00 4.3284087420016935e+00
        3.4045108378309288e+00 1.5949868207265201e+01
        3.8434999950069675e+00 1.4631231100014325e+01
        7.3855564824268995e+00 5.7577979571828504e+00
        5.6589848079879737e+00 3.6830332391911060e+00
        1.6287891482412164e+01 1.1930124734053386e+01
        4.0065718976385707e+00 9.7587270747572212e+00
        6.0176851937025777e+00 1.1053304403940448e+01
        6.1016008477292054e+00 2.0233483983257337e+00
        1.9856766515278663e+00 8.3761301296071373e+00
        4.2674809929295421e+00 5.9985452801281669e+00
        2.0008316250985718e+00 2.0861345544322717e+01
        4.0086362824074842e+00 8.3902833821577865e+00
        2.0104599236398482e+00 4.0231459439497224e+00
        5.6439075642885417e+00 2.7493863001320786e+00
        3.8190656011128095e+00 1.9212516948871077e+01
        7.5369436821325513e+00 3.0018238533774850e+00
        6.1541776517104392e+00 6.5980797753027556e+00
        1.2341655877805742e+00 1.7033142254332714e+00
        2.0113609468987068e+00 2.0345059386342412e+00
        7.6375540598869947e+00 4.0214896034335617e+00
        1.9837091128521540e+00 2.0206311750979213e+00
        6.4137732045647020e+00 8.1149324766978097e+00
        6.1423989953738660e+00 2.0242002561253041e+00
        2.5713163628885942e+00 2.0864882236729598e+00
        2.1566400961945984e+01 3.7123145929085677e+00
        7.7808383081716732e+00 7.6434016139274163e+00
        2.0044056866309692e+01 1.4376119884732554e+00
        2.5359233547402866e+01 2.0144843735735707e+00
        1.3319224492256508e+01 2.5820956190179984e+01
        2.0848608582540313e+00 1.6857259422357123e+00
        6.9591069303280619e+00 1.1735646161171516e+01
        1.1680744701133040e+01 4.0168385839609773e+00
        2.1733750039187032e+00 2.9964339344619511e+01
        1.7924373737894463e+00 5.7036319939336551e+00
        4.0124192973493980e+00 2.0299637252057443e+00
        1.8050062029291871e+00 9.3352136873270410e+00
        7.1128802782219882e+00 1.2577903936064804e+01
        7.6504866706310057e+00 2.8255734696496138e+01
        2.1172616043743644e+00 1.0767847395003439e+01
        6.1260637818214985e+00 9.5253405687142436e+00
        2.0549964116952752e+00 2.1232644220009149e+00
        4.3483947210544498e+00 2.7038316900642734e+00
        2.4761723805779344e+01 8.2083813074319600e+00
        1.0662827518717865e+01 7.8015616333883173e+00
        4.0778251488406934e+00 2.0392206978804278e+01
        7.6058542942929783e+00 3.6723874398580589e+00
        1.9982028180666902e+01 8.0730126914727922e+00
        3.8856933276048418e+00 1.5883312419815848e+01
        2.0236625157473003e+00 1.0202359297046947e+01
        4.1749821850755895e+00 4.6119381762470031e+00
        3.4923668219987176e+00 5.7028709935286912e+00
        1.3000588581232957e+01 1.9871339567066437e+00
        1.6501171314812904e+00 6.0660871348632668e+00
        2.1406175646342835e+00 1.9019963299481155e+00
        2.2494986599896434e+00 5.0050077110538339e+01
        1.6005520054223410e+01 6.5471631793978236e-01
        1.6983564816934564e+01 2.7460370261840009e+01
        1.4836074882153074e+00 1.3739386116909749e+00
        2.0043827044541827e+00 2.0797433409551997e+00
        2.1932914613658152e+00 4.0138343179216358e+00
        2.1797166867701634e+00 2.0876430396853705e+00
        4.2960364690619386e+00 2.5507058864625161e+01
        5.9052243114294187e+00 2.4487821230609645e+00
        5.4463218419313844e+00 1.9708920190708659e+00
        1.7223081692461911e+01 1.4258435155578471e+00
        1.5429858447734992e+01 4.4716872491127866e+00
        2.0102849534375427e+00 4.4627651018770322e+00
        1.1225400815195801e+01 2.6132811404406823e+01
        3.1429363441398759e+00 5.5478512408178347e+00
        9.5572795224566960e+00 1.4743214219087442e+00
        8.9098084717645456e+00 1.7463522625962980e+01
        1.0416848994067745e+01 4.8475816810361376e+00
        7.1339955133369113e+00 7.6577146881265357e+00
        2.0326313795418636e+00 2.0762348730919595e+00
        2.8732582321882610e+01 1.6586778793760177e+00
        1.9964956884223812e+00 1.3921021162845401e+01
        1.8687187150763953e+00 8.3554739388097072e+00
        4.2774130690784304e+01 2.0475900272469780e+00
        2.4244674124890050e+01 1.6803891612543023e+01
        1.1138463247691746e+01 4.0337022152156816e+00
        1.4286621008060114e+00 5.9600789574295661e+00
        1.3232493584406896e+01 8.0791636382030951e+00
        2.0123815138815013e+00 1.9006141964891551e+01
        -1.5702479338842975e+01 -2.1971741605860946e+00
        -1.5702479338842975e+01 -3.1478546502641391e+00
        -1.5702479338842975e+01 -1.5702479338842975e+01
        -1.5702479338842975e+01 -1.5702479338842975e+01
        -1.5702479338842975e+01 -1.4069757538677973e+01
        -1.5507281661519315e+01 -1.5702479338842975e+01
        -7.5594103018171817e+00 -1.5702479338842975e+01
        -1.5702479338842975e+01 -1.5702479338842975e+01
        -1.5702479338842975e+01 -1.5702479338842975e+01
        -1.5702479338842975e+01 -1.5702479338842975e+01
        -5.5309528807744837e+00 -1.5702479338842975e+01
        -1.5702479338842975e+01 -1.5702479338842975e+01
        -1.5702479338842975e+01 -1.5702479338842975e+01
        -1.5702479338842975e+01 -3.4994686629333751e+00
        -8.5505596510143995e+00 -1.5702479338842975e+01
        -1.5702479338842975e+01 -1.5702479338842975e+01
        -1.5702479338842975e+01 -1.5702479338842975e+01
        -1.5702479338842975e+01 -1.5702479338842975e+01
        -1.5702479338842975e+01 -1.5702479338842975e+01
        -1.5702479338842975e+01 -5.5833983404929652e+00
        -1.5702479338842975e+01 -1.5702479338842975e+01
        -1.4217174083654813e+01 -1.5702479338842975e+01
        -1.5702479338842975e+01 -1.5702479338842975e+01
        -1.5702479338842975e+01 -1.5702479338842975e+01
        -1.5702479338842975e+01 -1.5702479338842975e+01
        -1.5702479338842975e+01 -1.5702479338842975e+01
        -1.5702479338842975e+01 -1.5702479338842975e+01
        -1.5702479338842975e+01 -1.5702479338842975e+01
        -1.5702479338842975e+01 -1.5702479338842975e+01
        -1.5702479338842975e+01 -3.4931234507374818e+00
        -1.5702479338842975e+01 -1.5702479338842975e+01
        -1.5702479338842975e+01 -1.5702479338842975e+01
        -1.5702479338842975e+01 -1.5702479338842975e+01
        -1.5702479338842975e+01 -6.9929433394188463e+00
        -1.5702479338842975e+01 -1.5702479338842975e+01
        -1.5702479338842975e+01 -1.5702479338842975e+01
        -1.5702479338842975e+01 -1.5702479338842975e+01
        -3.3827625413978204e+00 -1.5702479338842975e+01
        -1.5702479338842975e+01 -1.5702479338842975e+01
        -1.5702479338842975e+01 -1.5702479338842975e+01
        -1.5702479338842975e+01 -6.0392711733202677e+00
        -1.5702479338842975e+01 -1.5702479338842975e+01
        -1.5702479338842975e+01 -1.0600575450404117e+01
        -1.5702479338842975e+01 -1.5702479338842975e+01
        -1.5702479338842975e+01 -1.5702479338842975e+01
        -1.5702479338842975e+01 -1.5702479338842975e+01
        -1.5702479338842975e+01 -1.5702479338842975e+01
        -1.5702479338842975e+01 -1.5702479338842975e+01
        -1.5702479338842975e+01 -1.5702479338842975e+01
        -1.5702479338842975e+01 -1.5702479338842975e+01
        -1.5702479338842975e+01 -1.5702479338842975e+01
        -1.5702479338842975e+01 -1.5702479338842975e+01
        -4.0132532255096649e+00 -1.5702479338842975e+01
        -1.5702479338842975e+01 -1.5702479338842975e+01
        -6.0986208993676954e+00 -1.5702479338842975e+01
        -1.5702479338842975e+01 -1.5702479338842975e+01
        -1.5702479338842975e+01 -1.5702479338842975e+01
        -1.5702479338842975e+01 -1.5702479338842975e+01
        -1.5702479338842975e+01 -1.5702479338842975e+01
        -1.4727226820793067e+01 -1.5702479338842975e+01
        -1.5702479338842975e+01 -1.5702479338842975e+01
        -1.5702479338842975e+01 -1.5702479338842975e+01
        -1.9979562226714835e+00 -1.5702479338842975e+01
        -1.5702479338842975e+01 -1.5702479338842975e+01
        -1.5702479338842975e+01 -1.5702479338842975e+01
        -1.5702479338842975e+01 -1.5702479338842975e+01
        -1.5702479338842975e+01 -1.5702479338842975e+01
        -1.5702479338842975e+01</alpha>
      <index>
        228 372 371 370 369 368 367 366 365 364 363 362 361 360 359 358
        357 356 355 354 353 352 351 350 349 348 347 346 345 344 343 342
        341 340 339 338 337 336 335 334 333 332 331 330 329 328 135 136
        137 138 139 140 141 142 143 144 145 146 147 148 149 150 151 152
        153 154 155 156 157 158 159 160 161 162 163 164 165 166 167 168
        169 170 171 172 173 174 175 176 177 178 179 180 181 182 183 184
        185 186 187 188 189 190 191 192 193 194 195 196 197 198 199 200
        201 202 203 204 205 206 207 208 209 210 211 212 213 214 215 216
        217 218 219 220 221 222 223 224 225 226 227 229 230 231 232 233
        234 235 236 237 238 239 240 241 242 243 244 245 246 247 248 249
        250 251 252 253 254 255 256 257 258 259 260 261 262 263 264 265
        266 267 268 269 270 271 272 273 274 275 276 277 278 279 280 281
        282 283 284 285 286 287 288 289 290 291 292 293 294 295 296 297
        298 299 300 301 302 303 304 305 306 307 308 309 310 311 312 313
        314 315 316 317 318 319 320 321 322 323 324 325 326 327 134 133
        132 131 130 129 128 127 126 125 124 123 122 121 120 119 118 117
        116 115 114 113 112 111 110 109 108 107 106 105 104 103 102 101
        100 99 98 97 96 95 94 93 92 91 90 89 88 87 86 85 84 83 82 81 80
        79 78 77 76 75 74 73 72 71 70 69 68 67 66 65 64 63 62 61 60 59
        58 57 56 55 54 53 52 51 50 49 48 47 46 45 44 43 42 41 40 39 38
        37 36 35 34 33 32 31 30 29 28 27 26 25 24 23 22 21 20 19 18 17
        16 15 14 13 12 11 10 9 8 7 6 5 4 3 2 1 0</index></_></decision_functions></opencv_ml_svm>
</opencv_storage>
