<?xml version="1.0"?>
<opencv_storage>
<opencv_ml_svm>
  <format>3</format>
  <svmType>C_SVC</svmType>
  <kernel>
    <type>LINEAR</type></kernel>
  <C>1.0000000000000000e-02</C>
  <term_criteria><epsilon>1.1920928955078125e-07</epsilon>
    <iterations>1000</iterations></term_criteria>
  <var_count>2</var_count>
  <class_count>2</class_count>
  <class_labels type_id="opencv-matrix">
    <rows>2</rows>
    <cols>1</cols>
    <dt>i</dt>
    <data>
      0 1</data></class_labels>
  <class_weights type_id="opencv-matrix">
    <rows>2</rows>
    <cols>1</cols>
    <dt>d</dt>
    <data>
      8.4297520661157022e-01 1.5702479338842976e-01</data></class_weights>
  <sv_total>1</sv_total>
  <support_vectors>
    <_>
      4.66920203e-03 5.70204621e-03</_></support_vectors>
  <uncompressed_sv_total>143</uncompressed_sv_total>
  <uncompressed_support_vectors>
    <_>
      8.11901321e+01 7.77864227e+01</_>
    <_>
      8.24939041e+01 8.11418610e+01</_>
    <_>
      1.31090240e+02 1.62410980e+02</_>
    <_>
      5.61642342e+01 9.86489029e+01</_>
    <_>
      6.87328033e+01 4.16619949e+01</_>
    <_>
      5.34775734e+01 9.56169815e+01</_>
    <_>
      5.52784004e+01 1.24950745e+02</_>
    <_>
      9.55063858e+01 7.81245651e+01</_>
    <_>
      8.56630554e+01 8.42966003e+01</_>
    <_>
      2.79124069e+01 6.33850746e+01</_>
    <_>
      9.59561234e+01 1.30119751e+02</_>
    <_>
      9.11835938e+01 1.01919220e+02</_>
    <_>
      5.03890152e+01 9.42094040e+01</_>
    <_>
      1.31758451e+01 5.10303421e+01</_>
    <_>
      9.75924149e+01 3.14864864e+01</_>
    <_>
      4.28465004e+01 1.25609909e+02</_>
    <_>
      1.05356140e+02 9.33758774e+01</_>
    <_>
      7.29453049e+01 4.56532249e+01</_>
    <_>
      4.03977966e+01 8.76032639e+01</_>
    <_>
      7.91174393e+01 8.22163925e+01</_>
    <_>
      4.04000168e+01 2.97489872e+01</_>
    <_>
      1.24574280e+02 1.07073997e+02</_>
    <_>
      3.53549805e+01 1.11631287e+02</_>
    <_>
      6.09124565e+01 5.09232216e+01</_>
    <_>
      1.94976616e+01 2.28781948e+01</_>
    <_>
      8.40237045e+01 4.67766418e+01</_>
    <_>
      2.58775787e+01 5.97164230e+01</_>
    <_>
      1.02993942e+02 8.25441742e+01</_>
    <_>
      7.91444473e+01 9.09547272e+01</_>
    <_>
      6.17364693e+01 1.09635475e+02</_>
    <_>
      7.38779373e+01 8.87261429e+01</_>
    <_>
      3.18685741e+01 2.13624821e+01</_>
    <_>
      8.91616898e+01 1.05747314e+02</_>
    <_>
      3.28340950e+01 4.03906670e+01</_>
    <_>
      2.20259140e+02 7.98490982e+01</_>
    <_>
      9.68153381e+01 1.08392326e+02</_>
    <_>
      8.35315247e+01 7.39225235e+01</_>
    <_>
      6.70188675e+01 1.07401665e+02</_>
    <_>
      7.27122726e+01 9.45470352e+01</_>
    <_>
      1.44699997e+02 1.22273232e+02</_>
    <_>
      9.04141922e+01 5.67511978e+01</_>
    <_>
      8.96079330e+01 6.54241714e+01</_>
    <_>
      2.05075574e+00 4.03394661e+01</_>
    <_>
      7.26897659e+01 1.06387375e+02</_>
    <_>
      3.53549805e+01 1.11631287e+02</_>
    <_>
      9.84786530e+01 1.19196526e+02</_>
    <_>
      2.98236523e+01 3.56514359e+01</_>
    <_>
      1.56225119e+01 1.58289902e+02</_>
    <_>
      9.26731110e+01 7.58693085e+01</_>
    <_>
      1.24647583e+02 8.72646332e+01</_>
    <_>
      1.41649399e+02 6.32272720e+01</_>
    <_>
      2.77777596e+01 3.61954384e+01</_>
    <_>
      1.86111832e+02 1.76923416e+02</_>
    <_>
      8.09110031e+01 2.17228146e+01</_>
    <_>
      2.49529419e+01 9.23067017e+01</_>
    <_>
      4.07195015e+01 3.68423157e+01</_>
    <_>
      1.36647476e+02 9.34716339e+01</_>
    <_>
      6.28832169e+01 9.88489227e+01</_>
    <_>
      2.96074066e+01 1.12809044e+02</_>
    <_>
      4.98486404e+01 8.90645981e+01</_>
    <_>
      9.45358810e+01 1.14048363e+02</_>
    <_>
      2.02357903e+01 5.48191414e+01</_>
    <_>
      1.25597366e+02 1.06133232e+02</_>
    <_>
      5.76002579e+01 1.67243137e+01</_>
    <_>
      7.39499969e+01 5.20300827e+01</_>
    <_>
      9.14224701e+01 7.44213638e+01</_>
    <_>
      1.05350960e+02 7.32048721e+01</_>
    <_>
      9.04566193e+01 7.55931778e+01</_>
    <_>
      7.11271515e+01 1.07932274e+02</_>
    <_>
      8.40581741e+01 1.01128426e+02</_>
    <_>
      9.30919037e+01 2.68472137e+01</_>
    <_>
      6.54924088e+01 4.52221451e+01</_>
    <_>
      5.87635841e+01 1.39922134e+02</_>
    <_>
      4.65061646e+01 9.44162674e+01</_>
    <_>
      5.87138901e+01 9.92221069e+01</_>
    <_>
      1.94976616e+01 2.28781948e+01</_>
    <_>
      8.50164795e+01 7.75835037e+01</_>
    <_>
      8.01495285e+01 8.83396149e+01</_>
    <_>
      7.61004562e+01 5.97000008e+01</_>
    <_>
      8.99351501e+01 8.07731476e+01</_>
    <_>
      7.34628677e+01 8.22766647e+01</_>
    <_>
      1.72463627e+01 1.97014637e+01</_>
    <_>
      9.78528671e+01 6.40355988e+01</_>
    <_>
      8.31615067e+01 4.30214081e+01</_>
    <_>
      1.11919212e+02 4.02957497e+01</_>
    <_>
      2.92193890e+01 8.25615463e+01</_>
    <_>
      6.71057281e+01 5.32370911e+01</_>
    <_>
      1.04077858e+02 3.62849541e+01</_>
    <_>
      8.77286072e+01 6.19947090e+01</_>
    <_>
      1.46779068e+02 4.30696754e+01</_>
    <_>
      9.16964645e+01 6.16872177e+01</_>
    <_>
      9.30447083e+01 9.50311508e+01</_>
    <_>
      3.74145966e+01 8.18681641e+01</_>
    <_>
      8.86617966e+01 1.16576622e+02</_>
    <_>
      9.26582260e+01 6.89347839e+01</_>
    <_>
      9.01819763e+01 8.63047314e+00</_>
    <_>
      4.14557686e+01 9.22868500e+01</_>
    <_>
      1.09228333e+02 1.22295876e+02</_>
    <_>
      1.04663620e+02 9.11828537e+01</_>
    <_>
      6.30828209e+01 4.51993675e+01</_>
    <_>
      2.47937813e+01 3.28258438e+01</_>
    <_>
      6.72073441e+01 9.61479568e+01</_>
    <_>
      3.37089767e+01 1.42565323e+02</_>
    <_>
      5.75460091e+01 1.01829552e+02</_>
    <_>
      3.00780296e+01 4.35014038e+01</_>
    <_>
      9.26731110e+01 7.58693085e+01</_>
    <_>
      9.66768951e+01 5.32705841e+01</_>
    <_>
      1.06773613e+02 9.82386169e+01</_>
    <_>
      1.83742462e+02 8.17279663e+01</_>
    <_>
      8.99232254e+01 1.07086220e+02</_>
    <_>
      7.58870544e+01 8.02915115e+01</_>
    <_>
      7.70251465e+01 9.15487366e+01</_>
    <_>
      8.87518768e+01 1.82894547e+02</_>
    <_>
      4.24797325e+01 4.05780220e+01</_>
    <_>
      3.00416660e+01 3.65478973e+01</_>
    <_>
      3.00416660e+01 3.65478973e+01</_>
    <_>
      1.22937851e+02 4.63883057e+01</_>
    <_>
      1.83111786e+02 1.24282471e+02</_>
    <_>
      5.96005592e+01 4.56761055e+01</_>
    <_>
      4.33789215e+01 8.71428909e+01</_>
    <_>
      2.22579300e+02 2.36618805e+02</_>
    <_>
      4.57650452e+01 1.08745979e+02</_>
    <_>
      6.18556824e+01 4.49367332e+01</_>
    <_>
      1.03252106e+02 3.61205597e+01</_>
    <_>
      1.54161713e+02 6.47965393e+01</_>
    <_>
      9.27162552e+01 5.19754257e+01</_>
    <_>
      3.89031601e+01 8.02537155e+01</_>
    <_>
      4.34338989e+01 8.77108383e+01</_>
    <_>
      5.65797501e+01 3.12449322e+01</_>
    <_>
      5.33086052e+01 1.12156128e+02</_>
    <_>
      1.44214035e+02 6.86855316e+01</_>
    <_>
      4.77924995e+01 1.84073975e+02</_>
    <_>
      2.26118103e+02 2.11909225e+02</_>
    <_>
      1.24074287e+02 3.43374100e+01</_>
    <_>
      9.35586700e+01 2.30134220e+01</_>
    <_>
      2.76294460e+01 8.52369919e+01</_>
    <_>
      5.24828987e+01 4.98394432e+01</_>
    <_>
      1.61358948e+02 9.02487564e+01</_>
    <_>
      9.95536346e+01 1.94177460e+02</_>
    <_>
      2.61163177e+01 2.62152462e+01</_>
    <_>
      2.15846954e+02 2.21384323e+02</_>
    <_>
      5.46030235e+01 4.08669128e+01</_>
    <_>
      1.35046036e+02 5.78089561e+01</_></uncompressed_support_vectors>
  <decision_functions>
    <_>
      <sv_count>1</sv_count>
      <rho>5.7979553378643511e-01</rho>
      <alpha>
        1.</alpha>
      <index>
        0</index></_></decision_functions></opencv_ml_svm>
</opencv_storage>
