<?xml version="1.0"?>
<opencv_storage>
<opencv_ml_svm>
  <format>3</format>
  <svmType>C_SVC</svmType>
  <kernel>
    <type>RBF</type>
    <gamma>1.0000000000000000e-04</gamma></kernel>
  <C>100.</C>
  <term_criteria><epsilon>1.1920928955078125e-07</epsilon>
    <iterations>1000</iterations></term_criteria>
  <var_count>8</var_count>
  <class_count>2</class_count>
  <class_labels type_id="opencv-matrix">
    <rows>2</rows>
    <cols>1</cols>
    <dt>i</dt>
    <data>
      0 1</data></class_labels>
  <class_weights type_id="opencv-matrix">
    <rows>2</rows>
    <cols>1</cols>
    <dt>d</dt>
    <data>
      8.9241622574955903e-01 1.0758377425044091e-01</data></class_weights>
  <sv_total>314</sv_total>
  <support_vectors>
    <_>
      7.88984680e+01 1.50156387e+02 7.83639526e+01 1.51904800e+02
      1.23859917e+02 7.64112625e+01 7.02260513e+01 1.56605103e+02</_>
    <_>
      6.77875443e+01 7.18015289e+01 9.28978653e+01 1.06318954e+02
      1.11980202e+02 7.91788177e+01 8.78845978e+01 1.01833649e+02</_>
    <_>
      1.25696945e+02 7.04970322e+01 1.71287186e+02 7.74003372e+01
      1.13229607e+02 1.03790672e+02 1.71182861e+02 9.19422455e+01</_>
    <_>
      5.34775734e+01 9.56169815e+01 6.00394745e+01 1.62295761e+02
      1.25288841e+02 1.07747368e+02 8.48156815e+01 1.72551468e+02</_>
    <_>
      1.69939346e+02 1.55848892e+02 2.03661743e+02 1.88378006e+02
      1.73379623e+02 1.63945343e+02 2.02995041e+02 1.76916824e+02</_>
    <_>
      6.87328033e+01 4.16619949e+01 9.38580933e+01 5.16564789e+01
      8.79187393e+01 5.93493080e+01 8.74829865e+01 5.11115189e+01</_>
    <_>
      9.37924805e+01 7.28086014e+01 1.37195038e+02 1.16437012e+02
      1.53417435e+02 1.10823990e+02 1.43715790e+02 1.52192398e+02</_>
    <_>
      5.80247154e+01 1.13490082e+02 5.92413292e+01 7.81323624e+01
      1.00629082e+02 1.03431511e+02 7.21266785e+01 8.77278519e+01</_>
    <_>
      7.70389633e+01 1.16010864e+02 1.12169098e+02 1.54921005e+02
      1.54443100e+02 1.15290726e+02 1.15446671e+02 1.70634491e+02</_>
    <_>
      5.82350464e+01 6.59195404e+01 9.29228668e+01 1.20618584e+02
      1.87921463e+02 1.12808090e+02 1.30188095e+02 1.32070251e+02</_>
    <_>
      7.43744431e+01 1.24958183e+02 9.02866669e+01 1.59239853e+02
      1.23679665e+02 1.06716949e+02 8.35329590e+01 128.</_>
    <_>
      7.50280991e+01 1.25852005e+02 1.03303612e+02 1.66765274e+02
      1.44083084e+02 1.15010857e+02 1.18496346e+02 1.44028610e+02</_>
    <_>
      4.24797325e+01 4.05780220e+01 1.24055534e+02 1.40045868e+02
      1.69351257e+02 1.29307526e+02 1.54586487e+02 1.81156845e+02</_>
    <_>
      6.41048660e+01 1.50288010e+02 1.10143288e+02 1.92373688e+02
      2.09828049e+02 1.44979584e+02 1.12443680e+02 1.93914474e+02</_>
    <_>
      1.12062263e+02 1.43058212e+02 1.50181259e+02 1.76155380e+02
      1.68430878e+02 1.45772583e+02 1.40658951e+02 1.85105057e+02</_>
    <_>
      8.40237045e+01 4.67766418e+01 1.08679436e+02 5.46779900e+01
      1.04501877e+02 6.60325775e+01 7.92840805e+01 4.42861443e+01</_>
    <_>
      1.21283546e+02 9.24619446e+01 1.59088699e+02 1.39287369e+02
      1.70188736e+02 1.33556274e+02 1.62588058e+02 1.62088608e+02</_>
    <_>
      5.03890152e+01 9.42094040e+01 2.97939205e+01 1.57014633e+02
      1.13084511e+02 6.53278351e+01 6.93183613e+00 1.07903824e+02</_>
    <_>
      4.04000168e+01 2.97489872e+01 9.96795502e+01 3.27485657e+01
      9.32478790e+01 6.55662842e+01 1.17461601e+02 4.00522957e+01</_>
    <_>
      6.70188675e+01 1.07401665e+02 9.84629288e+01 1.26450180e+02
      1.25693970e+02 1.19987389e+02 1.04123207e+02 1.31236115e+02</_>
    <_>
      4.64493828e+01 8.91259613e+01 1.14397789e+02 1.19747345e+02
      8.19404373e+01 8.53461533e+01 7.18015137e+01 9.72142868e+01</_>
    <_>
      8.76114197e+01 9.05915146e+01 1.90835495e+02 1.42224060e+02
      1.54579483e+02 1.29904755e+02 1.85598480e+02 1.81198181e+02</_>
    <_>
      1.67712280e+02 1.31647385e+02 2.04753738e+02 1.70742142e+02
      1.64972733e+02 1.64091995e+02 2.13435623e+02 1.75234665e+02</_>
    <_>
      6.38753624e+01 1.50183670e+02 1.55202469e+02 2.02449799e+02
      1.63824020e+02 1.12466881e+02 1.14793556e+02 1.60213364e+02</_>
    <_>
      3.29540367e+01 5.84049530e+01 9.61215210e+01 1.26743034e+02
      1.29683929e+02 8.31964569e+01 1.11237846e+02 1.69333481e+02</_>
    <_>
      3.18685741e+01 2.13624821e+01 5.86536064e+01 6.75367203e+01
      6.67314377e+01 3.72359734e+01 3.70442619e+01 3.58302612e+01</_>
    <_>
      8.91616898e+01 1.05747314e+02 1.46958603e+02 1.63292191e+02
      2.05776443e+02 8.45721664e+01 1.00615852e+02 1.25468887e+02</_>
    <_>
      2.58923721e+01 5.65635338e+01 1.07139374e+02 1.08537720e+02
      1.19449730e+02 1.04666473e+02 1.10938263e+02 1.05547287e+02</_>
    <_>
      5.06933556e+01 5.07070999e+01 1.42544418e+02 1.51418945e+02
      1.56612076e+02 1.01900337e+02 9.46590576e+01 1.12280708e+02</_>
    <_>
      1.00669731e+02 9.03761444e+01 9.97808685e+01 1.56047516e+02
      1.32725433e+02 1.21456779e+02 9.84253311e+01 1.60671844e+02</_>
    <_>
      3.53549805e+01 1.11631287e+02 5.46862564e+01 1.59604141e+02
      1.14344124e+02 1.23033440e+02 6.33893929e+01 1.51687622e+02</_>
    <_>
      6.09124565e+01 5.09232216e+01 1.01150215e+02 7.11203766e+01
      1.00497177e+02 6.60220261e+01 9.27150269e+01 6.52593765e+01</_>
    <_>
      6.17364693e+01 1.09635475e+02 8.47855759e+01 1.70722595e+02
      1.19695656e+02 8.28624649e+01 5.91868439e+01 1.70131302e+02</_>
    <_>
      5.42144203e+01 9.04147873e+01 1.18936577e+02 1.58994507e+02
      1.84511597e+02 1.28173187e+02 1.12017517e+02 1.64014679e+02</_>
    <_>
      1.02104210e+02 1.02078354e+02 1.34148285e+02 1.42289978e+02
      1.37706131e+02 1.07067924e+02 1.45728363e+02 1.51129807e+02</_>
    <_>
      5.61142082e+01 9.58314896e+01 7.98967438e+01 1.43769119e+02
      1.72645935e+02 9.77808838e+01 7.56356812e+01 1.56443512e+02</_>
    <_>
      4.33789215e+01 8.71428909e+01 6.00856514e+01 1.61914154e+02
      1.28169022e+02 1.09662704e+02 7.67452316e+01 1.68180389e+02</_>
    <_>
      9.04141922e+01 5.67511978e+01 1.62138657e+02 1.32798477e+02
      1.77762680e+02 8.47193451e+01 1.11650848e+02 7.98400497e+01</_>
    <_>
      8.96079330e+01 6.54241714e+01 1.82721725e+02 1.22680313e+02
      1.60948517e+02 8.96793289e+01 1.72719330e+02 1.36641876e+02</_>
    <_>
      3.50548286e+01 7.13071136e+01 7.15545197e+01 1.20807312e+02
      1.58144135e+02 6.85474243e+01 5.58639603e+01 1.02276962e+02</_>
    <_>
      8.09110031e+01 2.17228146e+01 1.33176865e+02 5.66082268e+01
      1.25429909e+02 8.54594955e+01 1.08721596e+02 3.71799469e+01</_>
    <_>
      6.40847778e+01 7.10951157e+01 1.08789719e+02 1.36224533e+02
      1.75254105e+02 1.16416367e+02 1.43559265e+02 1.39272446e+02</_>
    <_>
      3.53549805e+01 1.11631287e+02 5.46862564e+01 1.59604141e+02
      1.14344124e+02 1.23033440e+02 6.33893929e+01 1.51687622e+02</_>
    <_>
      1.73643875e+01 2.60797920e+01 8.47565918e+01 1.07716484e+02
      1.42955994e+02 1.17306458e+02 1.43137344e+02 1.78326797e+02</_>
    <_>
      4.34338989e+01 8.77108383e+01 1.54733200e+02 1.07093620e+02
      1.56819778e+02 1.20114769e+02 1.38237015e+02 9.03953781e+01</_>
    <_>
      3.89031601e+01 8.02537155e+01 1.11008774e+02 8.06232910e+01
      9.63895035e+01 9.62785568e+01 8.79321136e+01 8.25672836e+01</_>
    <_>
      6.02442207e+01 1.00594513e+02 1.01578476e+02 1.58644104e+02
      1.52884445e+02 1.30281601e+02 1.31686432e+02 1.79665833e+02</_>
    <_>
      2.96074066e+01 1.12809044e+02 7.62242126e+01 1.61022537e+02
      1.40245850e+02 6.55306702e+01 4.54831657e+01 1.02038101e+02</_>
    <_>
      6.79682922e+01 1.22154434e+02 9.99885101e+01 1.74214844e+02
      1.60201889e+02 1.35936600e+02 9.11890335e+01 1.73691299e+02</_>
    <_>
      2.02357903e+01 5.48191414e+01 4.45792427e+01 1.05509697e+02
      1.20771225e+02 5.32384834e+01 1.58974257e+01 4.30941849e+01</_>
    <_>
      2.49529419e+01 9.23067017e+01 5.21442528e+01 1.66092300e+02
      1.50969345e+02 1.08298904e+02 5.94456367e+01 1.61382660e+02</_>
    <_>
      2.22579300e+02 2.36618805e+02 2.29855621e+02 2.38121704e+02
      2.36098831e+02 2.28892624e+02 2.30388626e+02 2.32495239e+02</_>
    <_>
      5.48601151e+01 6.94610825e+01 8.83883743e+01 1.17819458e+02
      1.14679367e+02 7.96112900e+01 7.99016190e+01 1.04254997e+02</_>
    <_>
      4.05964127e+01 6.96961670e+01 5.70914536e+01 1.39941483e+02
      1.09861053e+02 6.90611649e+01 6.43324890e+01 1.32223892e+02</_>
    <_>
      7.10163574e+01 4.02912979e+01 1.21572441e+02 6.59814987e+01
      1.14830719e+02 7.63227158e+01 8.07893448e+01 4.38675537e+01</_>
    <_>
      1.36647476e+02 9.34716339e+01 1.80243179e+02 1.35236923e+02
      1.55582443e+02 1.03729904e+02 1.64069763e+02 1.20852989e+02</_>
    <_>
      7.01179581e+01 1.35676880e+02 1.06745583e+02 1.76204483e+02
      1.66427658e+02 1.40447433e+02 1.15371124e+02 1.80269699e+02</_>
    <_>
      4.54829216e+01 9.30446854e+01 9.53284607e+01 1.50772156e+02
      1.36744812e+02 7.36169968e+01 7.27466660e+01 1.10058228e+02</_>
    <_>
      5.97478943e+01 9.55682220e+01 1.19605812e+02 1.25828400e+02
      1.32906769e+02 1.01355522e+02 1.32805038e+02 1.37675781e+02</_>
    <_>
      7.36411057e+01 1.33687622e+02 9.51957092e+01 1.90405594e+02
      1.37830429e+02 1.24497368e+02 1.11940437e+02 1.92235916e+02</_>
    <_>
      5.76002579e+01 1.67243137e+01 1.04059196e+02 3.40136414e+01
      7.55912399e+01 4.94706573e+01 9.28982697e+01 4.10237083e+01</_>
    <_>
      1.49165207e+02 1.40417480e+02 1.87249603e+02 1.88764542e+02
      1.49691650e+02 1.34773560e+02 1.69246124e+02 1.67477264e+02</_>
    <_>
      1.25597366e+02 1.06133232e+02 1.96941635e+02 1.25221886e+02
      2.11393173e+02 1.50379288e+02 1.79121567e+02 9.37763062e+01</_>
    <_>
      1.44214035e+02 6.86855316e+01 2.14454269e+02 9.27125854e+01
      1.38292328e+02 1.47543732e+02 2.02996414e+02 1.02940132e+02</_>
    <_>
      1.08088104e+02 1.06486855e+02 1.39752487e+02 1.03732574e+02
      1.23152939e+02 1.12670219e+02 1.60325760e+02 1.21418289e+02</_>
    <_>
      1.85072632e+02 1.45678513e+02 2.25548080e+02 1.99096893e+02
      2.28208466e+02 1.97631332e+02 2.11544479e+02 1.79603470e+02</_>
    <_>
      7.11271515e+01 1.07932274e+02 1.37813339e+02 1.54894867e+02
      1.97398849e+02 1.34435867e+02 1.03194229e+02 1.64778549e+02</_>
    <_>
      5.39160881e+01 9.15046310e+01 1.48850662e+02 2.03227448e+02
      2.09781891e+02 1.92672974e+02 1.92482132e+02 2.27808578e+02</_>
    <_>
      9.09963913e+01 7.73386307e+01 1.14914757e+02 1.13029289e+02
      9.06533737e+01 8.55372086e+01 9.18630676e+01 8.08017197e+01</_>
    <_>
      4.46611061e+01 7.79535370e+01 1.26045746e+02 1.37055725e+02
      1.47090256e+02 1.03116974e+02 1.26501389e+02 1.12553329e+02</_>
    <_>
      3.24023895e+01 2.88750000e+01 1.69326416e+02 1.34280273e+02
      1.19172226e+02 1.05927338e+02 1.29173584e+02 1.65305222e+02</_>
    <_>
      1.12276672e+02 6.80020828e+01 1.46294083e+02 9.28733139e+01
      1.26038269e+02 8.40005875e+01 1.48674927e+02 1.15488167e+02</_>
    <_>
      5.85597610e+01 9.01968460e+01 8.46217346e+01 1.65793503e+02
      1.34864227e+02 1.04310081e+02 9.27640610e+01 1.81256500e+02</_>
    <_>
      9.59561234e+01 1.30119751e+02 1.36037857e+02 1.78624329e+02
      2.03557053e+02 8.90063095e+01 8.79482193e+01 1.38482452e+02</_>
    <_>
      4.64290657e+01 7.38305740e+01 7.75119781e+01 1.31490021e+02
      1.58619354e+02 6.87932587e+01 8.52605286e+01 8.48159180e+01</_>
    <_>
      8.01495285e+01 8.83396149e+01 1.68713089e+02 2.27175278e+02
      2.01794067e+02 1.97942825e+02 1.75823746e+02 2.27535187e+02</_>
    <_>
      4.65061646e+01 9.44162674e+01 9.78759689e+01 1.32878464e+02
      1.18341347e+02 6.68047180e+01 9.21770706e+01 8.39317322e+01</_>
    <_>
      8.50164795e+01 7.75835037e+01 1.23191643e+02 1.11104103e+02
      1.50009125e+02 6.32958298e+01 6.26796722e+01 6.02037621e+01</_>
    <_>
      7.61004562e+01 5.97000008e+01 1.50784317e+02 9.69254379e+01
      1.27167961e+02 7.52918549e+01 1.35583328e+02 1.04877213e+02</_>
    <_>
      1.80931870e+02 1.34533203e+02 1.87141113e+02 1.33389587e+02
      1.72036728e+02 1.33236801e+02 1.56385788e+02 1.23520905e+02</_>
    <_>
      9.77487411e+01 7.36111145e+01 1.19312622e+02 9.66124573e+01
      1.16852333e+02 1.10400536e+02 1.24379936e+02 1.08814667e+02</_>
    <_>
      1.72463627e+01 1.97014637e+01 2.97499580e+01 4.37138214e+01
      5.19322205e+01 1.19801636e+01 1.20930119e+01 1.10284433e+01</_>
    <_>
      8.31615067e+01 4.30214081e+01 1.21968384e+02 9.10423889e+01
      1.23035614e+02 6.23024139e+01 1.07214867e+02 6.99151993e+01</_>
    <_>
      2.76294460e+01 8.52369919e+01 4.27042885e+01 1.61159393e+02
      1.10761078e+02 8.13098297e+01 7.71618576e+01 1.47971039e+02</_>
    <_>
      1.11919212e+02 4.02957497e+01 1.16283928e+02 8.99128418e+01
      1.72898102e+02 8.47914886e+01 9.96709290e+01 1.05821281e+02</_>
    <_>
      5.38672676e+01 7.80921326e+01 7.56757889e+01 1.06623123e+02
      1.57344528e+02 6.69470901e+01 6.26217308e+01 8.99014511e+01</_>
    <_>
      6.21656647e+01 7.83766937e+01 5.79863091e+01 1.23196747e+02
      1.46138870e+02 7.11979523e+01 9.39584274e+01 1.35099197e+02</_>
    <_>
      4.29033585e+01 5.23738937e+01 6.57764053e+01 8.37538910e+01
      1.52914719e+02 6.72678757e+01 9.28013458e+01 7.53383484e+01</_>
    <_>
      2.92193890e+01 8.25615463e+01 4.05747681e+01 1.14829094e+02
      9.45563354e+01 6.82713928e+01 4.14077606e+01 1.01054375e+02</_>
    <_>
      7.53909225e+01 7.29343567e+01 1.24677673e+02 1.17315430e+02
      1.50730103e+02 6.42966232e+01 6.18721008e+01 6.12617874e+01</_>
    <_>
      7.15731430e+01 8.03640060e+01 1.30449585e+02 1.42244080e+02
      1.72374207e+02 1.16578354e+02 1.34701736e+02 1.48690353e+02</_>
    <_>
      1.50220261e+02 1.56919968e+02 1.91359207e+02 1.59518570e+02
      1.75571671e+02 1.51113464e+02 2.04463928e+02 1.62116058e+02</_>
    <_>
      6.95298233e+01 9.09284973e+01 8.49827881e+01 1.52867737e+02
      1.23728508e+02 1.04217133e+02 8.80634689e+01 1.51663132e+02</_>
    <_>
      5.19993019e+01 1.12930717e+02 7.47163086e+01 1.78500198e+02
      1.86907791e+02 1.24181068e+02 7.46511307e+01 1.77279892e+02</_>
    <_>
      1.54553711e+02 1.46981750e+02 1.43863800e+02 1.37016357e+02
      1.22562859e+02 9.11418304e+01 1.07082161e+02 1.04567841e+02</_>
    <_>
      5.75460091e+01 1.01829552e+02 6.80350113e+01 1.14048347e+02
      9.18920288e+01 7.42088623e+01 6.71005325e+01 9.68402634e+01</_>
    <_>
      1.07090675e+02 1.04608696e+02 1.43655396e+02 1.28639679e+02
      1.10017715e+02 8.82813721e+01 1.25394836e+02 6.87106247e+01</_>
    <_>
      3.00780296e+01 4.35014038e+01 5.52886200e+01 5.03909645e+01
      1.11770988e+02 6.77957382e+01 1.01741562e+02 2.51229115e+01</_>
    <_>
      3.74145966e+01 8.18681641e+01 6.27291985e+01 1.64057663e+02
      1.33268997e+02 7.81452103e+01 5.91810951e+01 1.53989182e+02</_>
    <_>
      1.68142746e+02 1.44308258e+02 1.73849792e+02 1.49232086e+02
      1.97132553e+02 1.20677383e+02 1.64959045e+02 1.75732864e+02</_>
    <_>
      6.63399506e+01 1.37025650e+02 9.73795853e+01 1.84224274e+02
      1.45470078e+02 1.22579124e+02 1.01527084e+02 1.83592773e+02</_>
    <_>
      5.90896530e+01 5.92427521e+01 8.85852966e+01 9.11483994e+01
      8.76282501e+01 7.89869843e+01 6.40403366e+01 8.24871597e+01</_>
    <_>
      1.14440910e+02 7.51731415e+01 1.57514923e+02 1.52901245e+02
      1.69725998e+02 1.39057755e+02 1.88349884e+02 1.21728699e+02</_>
    <_>
      4.56103630e+01 2.40926113e+01 1.23470222e+02 4.48247375e+01
      1.07442764e+02 8.20686035e+01 1.64351440e+02 7.68286057e+01</_>
    <_>
      5.46598740e+01 6.90481796e+01 7.43864975e+01 1.03536087e+02
      8.99381638e+01 5.41373749e+01 4.34336433e+01 7.57039566e+01</_>
    <_>
      5.34355659e+01 5.50255356e+01 1.04185280e+02 1.52780823e+02
      1.32957336e+02 1.12643127e+02 1.13903618e+02 1.67810196e+02</_>
    <_>
      6.66038132e+01 8.72494736e+01 1.26217430e+02 1.48443497e+02
      1.66902359e+02 1.33221268e+02 1.44255615e+02 1.50309967e+02</_>
    <_>
      9.66768951e+01 5.32705841e+01 1.57947388e+02 7.46298218e+01
      1.34497910e+02 6.44344025e+01 8.88854980e+01 4.86180725e+01</_>
    <_>
      8.78963928e+01 4.78536530e+01 1.55223633e+02 8.91547928e+01
      1.69579163e+02 9.97268982e+01 1.44830078e+02 7.07927628e+01</_>
    <_>
      1.31090240e+02 1.62410980e+02 2.06599838e+02 1.87722549e+02
      2.10078796e+02 1.55500778e+02 2.04847687e+02 1.35565796e+02</_>
    <_>
      1.80313293e+02 1.63642365e+02 1.93242294e+02 2.01867126e+02
      1.81766296e+02 1.46425858e+02 1.95910675e+02 1.94135483e+02</_>
    <_>
      1.37391037e+02 1.07204185e+02 1.60269196e+02 1.08969566e+02
      1.91424072e+02 1.43253738e+02 1.65246338e+02 1.34724197e+02</_>
    <_>
      1.31758451e+01 5.10303421e+01 2.00909100e+01 7.26153412e+01
      6.44841690e+01 5.01323471e+01 1.64907284e+01 4.84937019e+01</_>
    <_>
      8.59116058e+01 137. 1.00512634e+02 1.97511002e+02 1.63264679e+02
      1.30519394e+02 1.03601433e+02 2.00302017e+02</_>
    <_>
      1.16784279e+02 6.49765778e+01 1.49311676e+02 1.28503403e+02
      1.62932220e+02 9.95366287e+01 1.44248337e+02 1.00135887e+02</_>
    <_>
      7.75509415e+01 6.22941437e+01 1.66361969e+02 1.12321396e+02
      1.17358658e+02 1.09598801e+02 1.50202057e+02 1.14486366e+02</_>
    <_>
      1.52078430e+02 1.55207291e+02 1.35644730e+02 1.48720947e+02
      1.56693588e+02 1.37684982e+02 1.10860741e+02 1.15310646e+02</_>
    <_>
      1.42013153e+02 8.94847794e+01 1.63907837e+02 1.46893997e+02
      1.79652176e+02 1.32496674e+02 1.69291473e+02 1.64244446e+02</_>
    <_>
      5.31445808e+01 7.58723297e+01 1.30796371e+02 1.29093369e+02
      1.47349091e+02 1.10107704e+02 1.63682953e+02 1.36725113e+02</_>
    <_>
      3.90934448e+01 6.49233398e+01 9.03168259e+01 8.78271408e+01
      1.04667038e+02 7.19073639e+01 1.05051956e+02 8.92579803e+01</_>
    <_>
      4.91535606e+01 5.96270256e+01 8.27216721e+01 1.56541473e+02
      1.31319077e+02 9.08465958e+01 9.86178284e+01 1.56315628e+02</_>
    <_>
      1.07633331e+02 4.44645309e+01 1.29998642e+02 1.05704506e+02
      1.39571899e+02 9.19410782e+01 1.21731468e+02 1.10863808e+02</_>
    <_>
      9.11835938e+01 1.01919220e+02 1.32064178e+02 8.18116226e+01
      1.06643921e+02 8.48726349e+01 1.32419907e+02 7.16752396e+01</_>
    <_>
      6.98122101e+01 4.53888130e+01 1.06123711e+02 6.23814850e+01
      1.13641151e+02 6.49451294e+01 9.92634964e+01 5.18791962e+01</_>
    <_>
      7.32834167e+01 9.41837540e+01 1.23935364e+02 1.45942444e+02
      1.57542343e+02 1.19265015e+02 1.32476181e+02 1.57293533e+02</_>
    <_>
      1.17595490e+02 1.27631767e+02 1.42345703e+02 1.95985214e+02
      2.09880386e+02 1.54944351e+02 1.28855331e+02 2.35241669e+02</_>
    <_>
      2.45679413e+02 1.23594772e+02 2.41572586e+02 1.47150040e+02
      1.59306702e+02 1.94915924e+02 2.35312119e+02 1.71813278e+02</_>
    <_>
      1.45893555e+02 1.18851616e+02 1.88607971e+02 1.70365784e+02
      1.91721313e+02 1.12999588e+02 1.63055466e+02 1.66765289e+02</_>
    <_>
      6.97618713e+01 6.54500122e+01 1.14775467e+02 1.07650948e+02
      1.07831345e+02 7.49498596e+01 8.63008423e+01 8.27559509e+01</_>
    <_>
      1.81033203e+02 1.25263802e+02 2.02666870e+02 1.68211426e+02
      1.96122955e+02 1.73371140e+02 1.99008865e+02 1.72502960e+02</_>
    <_>
      6.89333344e+01 1.30580276e+02 1.11548386e+02 1.87661682e+02
      1.65513855e+02 1.40725235e+02 1.00867928e+02 1.64130661e+02</_>
    <_>
      6.35916405e+01 1.18973770e+02 1.15674011e+02 1.61166016e+02
      1.54116623e+02 1.24805183e+02 1.20572502e+02 1.65573868e+02</_>
    <_>
      1.49075729e+02 1.46102036e+02 1.97131378e+02 1.88560898e+02
      1.91684097e+02 1.65933258e+02 2.18587463e+02 1.85175873e+02</_>
    <_>
      3.23617897e+01 3.61347809e+01 9.12732849e+01 1.03548286e+02
      1.42001175e+02 1.11476166e+02 1.22345367e+02 1.41213089e+02</_>
    <_>
      8.54266052e+01 1.61318237e+02 9.18795013e+01 1.86551971e+02
      1.36837418e+02 1.27997963e+02 8.56246185e+01 1.67826050e+02</_>
    <_>
      1.68718994e+02 1.11694206e+02 2.07450943e+02 1.32854797e+02
      2.05127975e+02 1.58546722e+02 2.02287415e+02 9.48434982e+01</_>
    <_>
      1.73036163e+02 1.52935776e+02 1.88795975e+02 1.72150085e+02
      1.70474503e+02 1.52342850e+02 1.90107742e+02 1.74845093e+02</_>
    <_>
      7.89764328e+01 5.23330765e+01 1.61519714e+02 1.10934341e+02
      1.64677872e+02 1.09319260e+02 1.15686668e+02 7.99261551e+01</_>
    <_>
      1.87248516e+01 3.49291649e+01 5.51478004e+01 5.11047974e+01
      9.25245895e+01 7.07550735e+01 8.85397797e+01 6.03253975e+01</_>
    <_>
      1.06127151e+02 9.64604645e+01 1.34025787e+02 1.22418427e+02
      1.27437370e+02 6.97026062e+01 1.27787376e+02 1.05437935e+02</_>
    <_>
      7.52981720e+01 1.75376755e+02 1.56960037e+02 2.10366821e+02
      2.31072037e+02 2.24442993e+02 2.11641342e+02 2.10167816e+02</_>
    <_>
      1.22937851e+02 4.63883057e+01 1.34162857e+02 4.08284645e+01
      8.79747772e+01 6.32016792e+01 7.35575562e+01 3.96706848e+01</_>
    <_>
      4.89896278e+01 1.02138412e+02 6.88729172e+01 1.58648346e+02
      1.33585678e+02 1.08855522e+02 8.25130920e+01 1.59544769e+02</_>
    <_>
      4.55741730e+01 5.30757027e+01 8.96017456e+01 7.07000351e+01
      7.98537750e+01 6.87592545e+01 6.61176071e+01 5.55343781e+01</_>
    <_>
      2.96075916e+01 5.34820175e+01 4.44058533e+01 7.39105225e+01
      8.50592346e+01 5.44390755e+01 3.93607635e+01 4.82156601e+01</_>
    <_>
      7.05449982e+01 6.88038177e+01 1.23580513e+02 1.37846436e+02
      1.76538467e+02 9.55684357e+01 1.30245544e+02 1.32265472e+02</_>
    <_>
      7.53541336e+01 1.23624252e+02 1.96407013e+02 1.54728226e+02
      1.87899872e+02 1.71658432e+02 2.13759644e+02 1.56151123e+02</_>
    <_>
      1.08583549e+02 8.55810242e+01 1.82388443e+02 1.09995888e+02
      1.38737457e+02 1.39324768e+02 2.08969650e+02 1.17006485e+02</_>
    <_>
      9.88029556e+01 4.34210815e+01 1.55439392e+02 6.80438385e+01
      1.08564949e+02 1.11153778e+02 1.53341476e+02 7.20316467e+01</_>
    <_>
      3.69632149e+01 6.69124451e+01 7.30838165e+01 1.06493843e+02
      1.35325470e+02 8.78426056e+01 7.44740601e+01 6.96931839e+01</_>
    <_>
      8.09204330e+01 6.16661949e+01 1.16656868e+02 1.00633110e+02
      1.24507263e+02 7.18566208e+01 1.11474129e+02 1.35381516e+02</_>
    <_>
      7.27448807e+01 4.81789551e+01 1.47516983e+02 8.77979813e+01
      1.16554825e+02 9.08216629e+01 1.24300026e+02 6.36067009e+01</_>
    <_>
      6.78392563e+01 1.28847839e+02 1.12177902e+02 1.80995728e+02
      1.77912109e+02 1.32696960e+02 1.05176445e+02 1.56755051e+02</_>
    <_>
      6.74832458e+01 1.30304245e+02 1.31004822e+02 1.37399719e+02
      1.73843979e+02 1.14878357e+02 1.03596527e+02 1.63696915e+02</_>
    <_>
      2.03517212e+02 2.18346893e+02 2.15294479e+02 2.15174484e+02
      2.23100372e+02 2.07711334e+02 2.26065857e+02 2.16667221e+02</_>
    <_>
      1.05356140e+02 9.33758774e+01 1.79270142e+02 1.42986221e+02
      1.91655228e+02 1.22476501e+02 1.38269821e+02 1.10877563e+02</_>
    <_>
      1.94976616e+01 2.28781948e+01 2.03512707e+01 2.45584888e+01
      2.70016441e+01 1.97717876e+01 1.78703747e+01 2.48097210e+01</_>
    <_>
      1.08723320e+02 8.83940582e+01 1.40148407e+02 1.32879456e+02
      1.74358551e+02 6.20166969e+01 1.31946747e+02 1.24507835e+02</_>
    <_>
      1.70182236e+02 1.64114166e+02 2.27928146e+02 1.83325623e+02
      1.81796463e+02 1.78473755e+02 2.13015610e+02 1.68791763e+02</_>
    <_>
      6.50065536e+01 1.04522896e+02 1.12417061e+02 1.47086868e+02
      1.52035217e+02 8.45034866e+01 1.38336243e+02 1.11764870e+02</_>
    <_>
      1.83111786e+02 1.24282471e+02 1.95914993e+02 1.28560028e+02
      1.72185242e+02 1.14302856e+02 1.65414078e+02 1.07175194e+02</_>
    <_>
      1.27002617e+02 9.54106369e+01 1.89242279e+02 1.46641663e+02
      1.68199371e+02 1.10989967e+02 1.72504379e+02 1.22822693e+02</_>
    <_>
      2.84256897e+01 3.56318398e+01 9.55129395e+01 1.06338493e+02
      1.52578735e+02 1.16565849e+02 1.21527412e+02 1.45356384e+02</_>
    <_>
      1.15836288e+02 1.62515518e+02 1.67800400e+02 1.72188019e+02
      1.31799103e+02 1.11750000e+02 1.25199593e+02 1.43929520e+02</_>
    <_>
      7.35859375e+01 1.23189667e+02 1.08321877e+02 1.66143066e+02
      1.58291611e+02 1.00973183e+02 7.33988342e+01 1.22168541e+02</_>
    <_>
      7.91444473e+01 9.09547272e+01 1.26296341e+02 1.19738503e+02
      1.47676971e+02 1.08660690e+02 1.24887894e+02 1.42953094e+02</_>
    <_>
      1.39849411e+02 1.21870125e+02 1.88578751e+02 1.40033020e+02
      1.50263519e+02 1.12055733e+02 2.05098083e+02 1.07636375e+02</_>
    <_>
      1.49738831e+02 1.54169952e+02 1.22800934e+02 1.36606415e+02
      1.44745682e+02 1.46114670e+02 1.71621628e+02 1.38504044e+02</_>
    <_>
      7.33549423e+01 6.67628937e+01 9.32389908e+01 9.30981293e+01
      8.81862335e+01 7.38913574e+01 8.17067566e+01 9.51787338e+01</_>
    <_>
      1.46017426e+02 1.46835190e+02 2.00197205e+02 1.46134247e+02
      2.01502686e+02 1.82443298e+02 2.05155273e+02 1.55680817e+02</_>
    <_>
      1.37930649e+02 8.61182938e+01 1.86930038e+02 1.23451317e+02
      1.95140488e+02 1.39981903e+02 1.59623962e+02 9.68874359e+01</_>
    <_>
      1.27252106e+02 7.95247803e+01 1.58123886e+02 8.96139908e+01
      1.09449326e+02 8.22553940e+01 1.30964310e+02 7.36398926e+01</_>
    <_>
      5.23923912e+01 3.52204437e+01 9.29682388e+01 5.44999237e+01
      6.62039795e+01 5.73299561e+01 8.96986618e+01 5.11266212e+01</_>
    <_>
      9.64137802e+01 1.47677811e+02 1.04074669e+02 1.65901764e+02
      1.40837906e+02 7.01288376e+01 1.01761276e+02 1.57827347e+02</_>
    <_>
      6.94285507e+01 9.11353455e+01 1.03534927e+02 1.21553246e+02
      1.10121613e+02 7.56339569e+01 9.23038406e+01 1.08524513e+02</_>
    <_>
      9.50031815e+01 5.62827110e+01 1.31698029e+02 7.88638000e+01
      9.79413300e+01 9.62235489e+01 8.27854385e+01 6.70310135e+01</_>
    <_>
      9.54212952e+01 1.27998161e+02 1.03064140e+02 1.57587112e+02
      1.08324532e+02 1.16596497e+02 1.08082207e+02 1.45053909e+02</_>
    <_>
      1.07566048e+02 1.84906570e+02 1.54909271e+02 1.74973495e+02
      1.72273254e+02 1.24593170e+02 1.02046692e+02 1.50150131e+02</_>
    <_>
      2.03791061e+02 1.97877289e+02 2.16137177e+02 2.23527679e+02
      2.33940094e+02 2.02747482e+02 1.91917206e+02 1.82220947e+02</_>
    <_>
      1.35573669e+02 9.50932617e+01 1.75388535e+02 1.03197342e+02
      1.40732773e+02 1.26560547e+02 1.72411896e+02 1.27795593e+02</_>
    <_>
      4.57650452e+01 1.08745979e+02 3.31905174e+01 1.45692917e+02
      7.45398331e+01 4.69351540e+01 4.37135658e+01 1.19758827e+02</_>
    <_>
      1.32861816e+02 1.02239098e+02 1.57601166e+02 1.37068741e+02
      1.83691208e+02 1.19749306e+02 6.73954391e+01 5.20523338e+01</_>
    <_>
      8.33225479e+01 1.38761215e+02 1.51265579e+02 1.97990723e+02
      2.00855286e+02 1.14081970e+02 1.53691376e+02 1.89398407e+02</_>
    <_>
      6.18556824e+01 4.49367332e+01 1.19744881e+02 7.30203171e+01
      1.45939941e+02 9.08283081e+01 1.21144691e+02 9.98788376e+01</_>
    <_>
      4.74113655e+01 5.13071327e+01 7.65167465e+01 1.18094475e+02
      1.21929131e+02 8.15009766e+01 8.65265579e+01 1.42583984e+02</_>
    <_>
      1.47630508e+02 1.32248795e+02 1.94104324e+02 1.61000702e+02
      1.69125793e+02 1.53540024e+02 1.94264587e+02 1.74131104e+02</_>
    <_>
      1.70817322e+02 1.05659973e+02 1.90739426e+02 1.05820831e+02
      1.29031464e+02 1.35095383e+02 1.84440887e+02 1.11648468e+02</_>
    <_>
      1.65700470e+02 1.35673828e+02 2.08204742e+02 1.88537064e+02
      1.96115295e+02 1.72946991e+02 2.10705338e+02 1.88021378e+02</_>
    <_>
      6.26359711e+01 9.11338654e+01 6.99551010e+01 7.98181839e+01
      9.04826508e+01 7.98831558e+01 8.07438126e+01 1.00892464e+02</_>
    <_>
      1.03252106e+02 3.61205597e+01 1.63892685e+02 7.95370407e+01
      1.28767059e+02 1.16422401e+02 1.71560623e+02 7.85873718e+01</_>
    <_>
      6.84434662e+01 7.76766357e+01 1.80737183e+02 1.66524109e+02
      2.14533173e+02 1.52504211e+02 2.06840027e+02 1.69494919e+02</_>
    <_>
      8.34789505e+01 1.16546829e+02 1.12570610e+02 1.29547302e+02
      1.01921844e+02 1.26742973e+02 1.15470840e+02 1.05552299e+02</_>
    <_>
      4.52890635e+00 3.24874535e+01 6.15402336e+01 1.28624496e+02
      1.52859009e+02 1.38476654e+02 1.10054176e+02 1.79018051e+02</_>
    <_>
      4.97361755e+01 5.59986763e+01 8.72637253e+01 9.23637695e+01
      1.05624123e+02 6.80754395e+01 6.65739899e+01 7.16620026e+01</_>
    <_>
      1.76827469e+02 1.52618881e+02 1.79252258e+02 1.75078918e+02
      1.67780884e+02 1.50011246e+02 1.75979935e+02 1.71940140e+02</_>
    <_>
      5.69856567e+01 8.41939545e+01 1.23884415e+02 1.47472229e+02
      1.54846161e+02 1.16408737e+02 1.26258484e+02 1.44703857e+02</_>
    <_>
      1.54376358e+02 1.45363098e+02 1.54759613e+02 1.41692596e+02
      1.77259399e+02 1.44373077e+02 1.46317657e+02 1.41058334e+02</_>
    <_>
      6.72981949e+01 7.21775055e+01 1.37872345e+02 1.38567657e+02
      1.88250580e+02 1.09998947e+02 1.45500137e+02 1.27149834e+02</_>
    <_>
      6.86656570e+01 4.45837440e+01 1.73075012e+02 1.93444565e+02
      1.75738708e+02 1.33800568e+02 8.64259872e+01 1.54751419e+02</_>
    <_>
      1.75070404e+02 1.54352997e+02 2.34144379e+02 2.10539368e+02
      2.35299591e+02 1.98983231e+02 2.09735703e+02 1.90721115e+02</_>
    <_>
      1.54161713e+02 6.47965393e+01 2.02807846e+02 9.61737061e+01
      1.69165497e+02 1.32875854e+02 1.87141998e+02 9.81916046e+01</_>
    <_>
      1.11567894e+02 8.90042038e+01 1.38970490e+02 1.47184723e+02
      1.75986969e+02 1.48198059e+02 1.54925491e+02 8.58656464e+01</_>
    <_>
      6.40521774e+01 7.96389999e+01 8.40569992e+01 1.04046234e+02
      9.11771317e+01 8.20703278e+01 8.75390549e+01 1.03559464e+02</_>
    <_>
      6.19500008e+01 2.07756100e+01 9.28111267e+01 3.76475983e+01
      6.86622772e+01 2.84828262e+01 6.99851990e+01 4.09175415e+01</_>
    <_>
      9.62945862e+01 7.68818207e+01 1.16049713e+02 1.34641464e+02
      1.26628616e+02 1.15774445e+02 1.11656090e+02 1.38574997e+02</_>
    <_>
      5.48501434e+01 1.02289970e+02 1.23095093e+02 1.61300964e+02
      1.49040375e+02 1.10191711e+02 1.24542686e+02 1.57542450e+02</_>
    <_>
      6.57149048e+01 1.23305290e+02 7.98871460e+01 1.74855606e+02
      1.29401367e+02 9.31891403e+01 6.87087097e+01 1.09806854e+02</_>
    <_>
      7.91991119e+01 8.70394821e+01 1.28019958e+02 1.43940735e+02
      1.10333336e+02 1.00983147e+02 1.30830399e+02 1.43479843e+02</_>
    <_>
      5.72147560e+01 2.27457619e+01 9.61752853e+01 3.67467918e+01
      6.66063995e+01 2.85414009e+01 6.08734741e+01 4.83361855e+01</_>
    <_>
      6.83571167e+01 8.67776489e+01 7.61326981e+01 9.07784805e+01
      1.00284004e+02 7.73318329e+01 5.35302582e+01 8.26188049e+01</_>
    <_>
      5.98369560e+01 1.16666245e+02 1.29496780e+02 1.51277405e+02
      1.90434128e+02 1.42798325e+02 1.38139099e+02 1.71090454e+02</_>
    <_>
      5.80122910e+01 8.49315109e+01 9.07496796e+01 1.19919983e+02
      9.76599045e+01 9.66843567e+01 1.00491890e+02 1.34919769e+02</_>
    <_>
      1.27329277e+02 9.29812546e+01 1.66701279e+02 8.66386261e+01
      1.07047676e+02 1.37790817e+02 1.71703842e+02 9.84701614e+01</_>
    <_>
      9.12041321e+01 8.37282257e+01 1.32674881e+02 1.22844124e+02
      1.34389252e+02 1.13921112e+02 1.50717697e+02 1.46088242e+02</_>
    <_>
      5.25140572e+01 7.26468506e+01 9.12081833e+01 9.00121002e+01
      1.09686134e+02 9.44395523e+01 9.57142868e+01 8.45448914e+01</_>
    <_>
      1.33235336e+02 1.09663254e+02 1.40461105e+02 1.17235245e+02
      1.42467178e+02 1.13529045e+02 1.36624084e+02 1.24690262e+02</_>
    <_>
      5.93876114e+01 7.61996231e+01 7.09948730e+01 8.25321274e+01
      9.37240829e+01 6.19130745e+01 5.65755882e+01 6.73970261e+01</_>
    <_>
      9.06852951e+01 1.01087997e+02 7.65299530e+01 7.84567337e+01
      9.07874756e+01 8.43653564e+01 6.05946045e+01 6.80708160e+01</_>
    <_>
      5.43764496e+01 7.62612076e+01 1.26537720e+02 1.34671646e+02
      1.60100006e+02 1.18270569e+02 1.30595200e+02 1.38000793e+02</_>
    <_>
      8.77652359e+01 5.56580315e+01 1.17258240e+02 9.09438553e+01
      1.56562637e+02 8.34779510e+01 7.84015656e+01 5.95162048e+01</_>
    <_>
      1.30581680e+02 1.08650963e+02 1.95190857e+02 1.63502045e+02
      1.75983932e+02 9.40042953e+01 2.25454834e+02 1.95092651e+02</_>
    <_>
      3.70185356e+01 1.01774574e+02 8.51411591e+01 1.65041245e+02
      1.43777771e+02 9.82740021e+01 6.56765594e+01 1.30703445e+02</_>
    <_>
      1.85287811e+02 1.66770340e+02 2.03611588e+02 1.88071259e+02
      1.78041855e+02 1.69890274e+02 2.06946213e+02 1.92825760e+02</_>
    <_>
      7.24015121e+01 8.88038177e+01 1.15622482e+02 1.53010315e+02
      1.54468384e+02 9.32343445e+01 1.18155701e+02 1.50291061e+02</_>
    <_>
      1.65309235e+02 1.55596100e+02 1.92372025e+02 1.82319809e+02
      1.92347824e+02 1.40193527e+02 1.89746536e+02 1.80494110e+02</_>
    <_>
      1.52618134e+02 1.39202255e+02 1.88247299e+02 1.65865692e+02
      1.56255844e+02 1.45448456e+02 1.85551819e+02 1.67447281e+02</_>
    <_>
      5.65797501e+01 3.12449322e+01 8.23365097e+01 5.60279007e+01
      8.12756805e+01 5.87127953e+01 5.78224640e+01 4.23188629e+01</_>
    <_>
      1.05799355e+02 1.00351097e+02 1.89879959e+02 1.97186981e+02
      2.07144897e+02 1.69431564e+02 1.86445343e+02 2.02273666e+02</_>
    <_>
      1.02094704e+02 1.08643204e+02 1.26069382e+02 1.49666931e+02
      1.19204163e+02 8.54298477e+01 5.07957077e+01 1.38198914e+02</_>
    <_>
      8.45605698e+01 9.51175995e+01 1.71142746e+02 1.60258774e+02
      2.11573578e+02 1.67907333e+02 1.42282303e+02 1.69389801e+02</_>
    <_>
      8.40581741e+01 1.01128426e+02 1.12212372e+02 1.50826050e+02
      1.45460342e+02 1.31219391e+02 1.15609695e+02 1.63826645e+02</_>
    <_>
      6.11522026e+01 7.31318054e+01 1.23553169e+02 1.44515030e+02
      1.79967331e+02 1.40902115e+02 1.50444855e+02 1.47937912e+02</_>
    <_>
      5.73033028e+01 5.08357315e+01 1.24765213e+02 1.45590851e+02
      1.88366302e+02 1.05321869e+02 1.17071030e+02 1.61491806e+02</_>
    <_>
      5.73505516e+01 8.92826080e+01 1.25596230e+02 1.61668518e+02
      1.58343063e+02 1.25192162e+02 1.33391968e+02 1.57986053e+02</_>
    <_>
      1.52803757e+02 1.30525452e+02 2.14320831e+02 1.69261673e+02
      1.65443665e+02 1.42343384e+02 1.36494202e+02 1.57547119e+02</_>
    <_>
      1.05350960e+02 7.32048721e+01 1.52855591e+02 8.38241882e+01
      1.39363739e+02 9.25460129e+01 1.40315002e+02 8.52398529e+01</_>
    <_>
      9.62368622e+01 1.02922997e+02 1.33671127e+02 1.29197922e+02
      1.57981857e+02 1.22444954e+02 1.76637878e+02 1.85556335e+02</_>
    <_>
      2.20259140e+02 7.98490982e+01 2.25564850e+02 1.47151154e+02
      2.13090088e+02 2.17608292e+02 2.19612289e+02 1.21662888e+02</_>
    <_>
      5.39250107e+01 4.78886070e+01 1.26146202e+02 1.03645912e+02
      1.33772919e+02 5.28500938e+01 7.84022980e+01 7.13765488e+01</_>
    <_>
      1.06223572e+02 7.91291275e+01 1.50335663e+02 1.52860413e+02
      1.65586502e+02 1.35512039e+02 1.43107651e+02 1.71805099e+02</_>
    <_>
      4.76991882e+01 9.56978912e+01 6.85020447e+01 1.28738724e+02
      1.37443970e+02 8.34823456e+01 8.39176941e+01 1.19754410e+02</_>
    <_>
      8.94671631e+01 1.03292023e+02 1.48300781e+02 9.66688004e+01
      1.62060394e+02 9.01954803e+01 1.48870361e+02 1.34830795e+02</_>
    <_>
      1.19633667e+02 8.05500031e+01 1.72807831e+02 1.60025726e+02
      1.87171722e+02 1.28133286e+02 1.53291306e+02 1.73937576e+02</_>
    <_>
      5.33086052e+01 1.12156128e+02 1.25156876e+02 1.63020401e+02
      1.68137177e+02 1.42355972e+02 1.35911407e+02 1.68466354e+02</_>
    <_>
      1.64114838e+02 1.62315781e+02 2.28687683e+02 2.21197830e+02
      2.41485489e+02 2.29331604e+02 2.42069717e+02 2.38198868e+02</_>
    <_>
      5.56623001e+01 2.01882553e+01 8.55888138e+01 1.74082012e+01
      7.46012650e+01 5.38810387e+01 9.04081497e+01 1.84408092e+01</_>
    <_>
      5.40826836e+01 9.62530594e+01 1.07925179e+02 1.22807777e+02
      1.24157097e+02 1.04421837e+02 1.22298294e+02 1.10312386e+02</_>
    <_>
      6.76038055e+01 7.00522461e+01 1.13570747e+02 1.18698349e+02
      1.31795532e+02 6.94097748e+01 7.26128616e+01 7.94404297e+01</_>
    <_>
      1.29243668e+02 9.21540833e+01 1.52311539e+02 1.18430298e+02
      1.32750000e+02 1.05617455e+02 1.59770432e+02 1.32813919e+02</_>
    <_>
      5.42096291e+01 6.94933243e+01 1.25454613e+02 1.10589981e+02
      1.52299393e+02 7.75194244e+01 1.11250000e+02 9.53670959e+01</_>
    <_>
      4.77924995e+01 1.84073975e+02 1.25059303e+02 2.07170715e+02
      1.89414154e+02 1.55804398e+02 1.56284256e+02 2.09732010e+02</_>
    <_>
      5.26512337e+01 6.22379150e+01 1.41613281e+02 1.14583519e+02
      1.80283890e+02 1.25512238e+02 1.75996323e+02 1.16741425e+02</_>
    <_>
      8.10308456e+01 1.14451241e+02 1.34169891e+02 2.05460068e+02
      1.51325516e+02 1.38447159e+02 1.36376999e+02 1.93272980e+02</_>
    <_>
      1.17140030e+02 1.09611229e+02 1.29402359e+02 1.07819313e+02
      1.38840576e+02 6.33281479e+01 7.28456726e+01 4.73323212e+01</_>
    <_>
      1.47628494e+02 1.27873520e+02 1.84657776e+02 1.58372086e+02
      1.92298798e+02 1.29038055e+02 1.81149994e+02 1.73351746e+02</_>
    <_>
      1.24074287e+02 3.43374100e+01 1.87252274e+02 1.05899635e+02
      1.94709427e+02 1.46898636e+02 1.90464996e+02 1.15154076e+02</_>
    <_>
      7.33622894e+01 1.00532242e+02 9.85501404e+01 1.26648384e+02
      1.11211555e+02 8.74949341e+01 4.65886230e+01 1.22851982e+02</_>
    <_>
      6.00468979e+01 7.53033142e+01 8.81508636e+01 1.17333908e+02
      1.20972923e+02 7.28485031e+01 6.87467346e+01 8.76912689e+01</_>
    <_>
      4.76395187e+01 3.63060493e+01 8.04835892e+01 4.10321999e+01
      1.03869751e+02 8.04285736e+01 1.18919640e+02 8.42812500e+01</_>
    <_>
      1.64089371e+02 1.51309128e+02 1.98089508e+02 1.75017487e+02
      1.76662796e+02 1.70990601e+02 1.92923172e+02 1.70907623e+02</_>
    <_>
      1.03501030e+02 1.27249420e+02 1.56675140e+02 2.06293610e+02
      1.94070129e+02 1.39467499e+02 1.12793083e+02 1.40638535e+02</_>
    <_>
      7.39814758e+01 5.78011436e+01 9.46204758e+01 8.99553986e+01
      1.20198021e+02 6.38661003e+01 4.04080391e+01 4.85084343e+01</_>
    <_>
      1.00913208e+02 1.35651123e+02 9.30517960e+01 1.67072281e+02
      9.65556641e+01 1.31556717e+02 1.20731209e+02 1.75581284e+02</_>
    <_>
      6.87047501e+01 8.49385071e+01 1.29894424e+02 1.43705765e+02
      1.56019791e+02 1.31987793e+02 1.71979889e+02 1.77593948e+02</_>
    <_>
      2.40817356e+01 2.15930729e+01 1.41471436e+02 1.15254433e+02
      1.17116920e+02 1.11940323e+02 1.50999359e+02 1.59286026e+02</_>
    <_>
      8.27956543e+01 8.74866257e+01 1.40334915e+02 1.38762024e+02
      1.10437401e+02 1.04876877e+02 1.35431793e+02 1.37427658e+02</_>
    <_>
      1.83398178e+02 1.56015274e+02 1.90688812e+02 1.55984100e+02
      1.82663101e+02 1.51139877e+02 1.62997009e+02 1.44446259e+02</_>
    <_>
      8.83924866e+01 7.41549530e+01 1.45036179e+02 1.19551361e+02
      1.80236984e+02 1.04458023e+02 1.46966156e+02 1.21041687e+02</_>
    <_>
      8.41927109e+01 6.15887222e+01 1.17431808e+02 1.10545502e+02
      1.43641830e+02 6.87741394e+01 8.88371048e+01 9.17974930e+01</_>
    <_>
      6.10799713e+01 3.88485374e+01 9.97233200e+01 6.20637169e+01
      1.36080032e+02 6.19002914e+01 1.07854218e+02 1.11035713e+02</_>
    <_>
      9.35586700e+01 2.30134220e+01 1.51949890e+02 5.34479790e+01
      1.37252762e+02 1.11344139e+02 1.58113678e+02 8.10970840e+01</_>
    <_>
      1.10535713e+02 7.08333359e+01 1.62341293e+02 1.03936958e+02
      1.37100220e+02 1.07976151e+02 1.59317169e+02 1.28103348e+02</_>
    <_>
      4.61856384e+01 5.21739311e+01 1.21620522e+02 1.24594894e+02
      1.61867340e+02 7.42398758e+01 8.59747543e+01 6.87825851e+01</_>
    <_>
      5.90152855e+01 7.55887299e+01 9.94568253e+01 1.29155914e+02
      1.35850525e+02 7.34298096e+01 4.43537445e+01 6.16691742e+01</_>
    <_>
      1.16591904e+02 9.31014328e+01 1.39150391e+02 9.84699783e+01
      9.52833328e+01 9.65521469e+01 1.30548172e+02 1.11564392e+02</_>
    <_>
      1.00890221e+02 9.65856247e+01 1.61800842e+02 1.44992157e+02
      1.63790100e+02 7.56700134e+01 1.14289307e+02 9.91267014e+01</_>
    <_>
      6.96891556e+01 1.07032753e+02 1.09531975e+02 1.42134232e+02
      1.59457718e+02 1.26514221e+02 1.16970627e+02 1.54859344e+02</_>
    <_>
      7.28548203e+01 1.24556313e+02 7.66608276e+01 1.16174225e+02
      1.36349899e+02 1.10297264e+02 1.16428177e+02 1.28708481e+02</_>
    <_>
      1.61358948e+02 9.02487564e+01 1.53968781e+02 8.42721558e+01
      1.35380173e+02 8.57533340e+01 1.49125092e+02 5.45473671e+01</_>
    <_>
      6.88487244e+01 7.78863525e+01 7.40747299e+01 1.19783089e+02
      1.08715034e+02 1.09109482e+02 9.83661957e+01 1.30409698e+02</_>
    <_>
      1.43064026e+02 7.62071838e+01 2.07375015e+02 1.31661911e+02
      1.55505356e+02 1.27619591e+02 2.14209366e+02 1.36659866e+02</_>
    <_>
      1.79723053e+02 1.48950745e+02 1.89640213e+02 1.89363159e+02
      1.66868378e+02 1.75381363e+02 2.01816849e+02 1.97409988e+02</_>
    <_>
      1.30921158e+02 1.21368645e+02 1.41252426e+02 1.74004654e+02
      1.46910355e+02 9.47875519e+01 9.93986664e+01 1.53003937e+02</_>
    <_>
      1.12377701e+02 7.89083633e+01 1.68421265e+02 1.17998672e+02
      1.28729126e+02 1.17543144e+02 1.71427383e+02 1.24478577e+02</_>
    <_>
      6.09425278e+01 9.08625031e+01 6.91573944e+01 8.00968475e+01
      8.95953598e+01 7.90432205e+01 8.13465424e+01 1.00899506e+02</_>
    <_>
      1.51327271e+02 1.51943756e+02 1.70074600e+02 1.77867569e+02
      1.75826752e+02 1.17830185e+02 1.43437180e+02 1.46567169e+02</_>
    <_>
      5.62347603e+01 4.98559685e+01 1.70312225e+02 1.40907288e+02
      1.42236786e+02 1.34114792e+02 1.19531204e+02 1.05483406e+02</_>
    <_>
      2.15846954e+02 2.21384323e+02 2.17194641e+02 2.22577072e+02
      1.84874832e+02 2.04906403e+02 2.15302383e+02 2.21525330e+02</_>
    <_>
      1.15915779e+02 7.92147522e+01 1.37723297e+02 1.39032898e+02
      1.57858139e+02 1.25927673e+02 1.38304352e+02 1.50721786e+02</_>
    <_>
      9.77605438e+01 8.83658600e+01 1.46258209e+02 1.17537979e+02
      1.10298531e+02 8.19795685e+01 1.20464470e+02 8.75299377e+01</_>
    <_>
      1.17337433e+02 1.57343079e+02 1.75746048e+02 1.69441620e+02
      1.94946548e+02 9.95696869e+01 1.80498672e+02 1.58903320e+02</_>
    <_>
      5.02739563e+01 9.21143265e+01 9.43847504e+01 1.60255539e+02
      1.13552528e+02 5.53433304e+01 6.03965836e+01 1.19556122e+02</_>
    <_>
      1.65232117e+02 1.46539902e+02 1.80384964e+02 1.74968338e+02
      2.01354126e+02 1.30523560e+02 1.99061600e+02 1.58511612e+02</_>
    <_>
      6.30828209e+01 4.51993675e+01 8.72152405e+01 9.43271408e+01
      1.00237503e+02 6.20548210e+01 7.06416016e+01 7.13432846e+01</_>
    <_>
      7.44959335e+01 1.44318161e+02 1.15429863e+02 2.02038925e+02
      2.00012070e+02 1.85753357e+02 1.50063110e+02 2.19268738e+02</_>
    <_>
      1.03206154e+02 1.18606705e+02 1.07641144e+02 1.34766632e+02
      1.11320969e+02 8.47811356e+01 9.90992050e+01 1.19102448e+02</_>
    <_>
      1.61421097e+02 1.08744499e+02 1.87648834e+02 1.60705551e+02
      2.18457001e+02 1.80818192e+02 1.55394852e+02 1.74120224e+02</_>
    <_>
      1.33871155e+02 1.42143707e+02 1.90867767e+02 1.88737045e+02
      1.66686737e+02 1.58756592e+02 2.03783936e+02 2.08897446e+02</_>
    <_>
      8.00032425e+01 9.31229935e+01 1.14329399e+02 9.65601273e+01
      1.01991135e+02 1.14887436e+02 1.29069244e+02 1.16758812e+02</_>
    <_>
      5.93515549e+01 8.35420914e+01 9.08102188e+01 9.44257965e+01
      1.02562172e+02 1.07134941e+02 1.07920883e+02 9.93060226e+01</_>
    <_>
      1.55406387e+02 1.45494293e+02 1.83800079e+02 1.47933609e+02
      1.85317245e+02 1.50446320e+02 1.49887039e+02 1.18728622e+02</_>
    <_>
      1.40609360e+02 1.48552246e+02 1.71455307e+02 1.80282333e+02
      1.59958557e+02 1.10296761e+02 1.26471878e+02 1.44228180e+02</_>
    <_>
      9.96095581e+01 1.00053459e+02 1.40888657e+02 1.43369614e+02
      1.42162231e+02 1.18811493e+02 1.57180267e+02 1.55011368e+02</_>
    <_>
      1.19790466e+02 1.82446640e+02 1.42398468e+02 1.97501633e+02
      2.02574356e+02 1.40349716e+02 9.99646378e+01 1.28302673e+02</_>
    <_>
      5.03462410e+01 6.38832359e+01 7.05673676e+01 7.87309723e+01
      9.95267258e+01 5.32391014e+01 6.31469879e+01 4.96712341e+01</_>
    <_>
      9.82129135e+01 1.24259865e+02 8.97968369e+01 1.57170044e+02
      1.25336929e+02 1.00884682e+02 7.76006012e+01 1.33709244e+02</_>
    <_>
      8.13559341e+01 5.35331116e+01 1.61814072e+02 1.46435394e+02
      1.91190338e+02 1.57099411e+02 1.94975815e+02 1.82178970e+02</_>
    <_>
      6.91824722e+01 7.02453003e+01 6.04821663e+01 1.28610458e+02
      1.69683441e+02 7.82554932e+01 2.42964764e+01 1.03037521e+02</_>
    <_>
      1.19450951e+02 9.62862778e+01 1.74120239e+02 1.53934937e+02
      1.73536606e+02 1.44944031e+02 1.95348206e+02 1.88082336e+02</_>
    <_>
      1.23366356e+02 9.57337570e+01 1.37333633e+02 1.20954437e+02
      1.25075836e+02 1.04531944e+02 1.41193558e+02 1.21681000e+02</_>
    <_>
      5.17045364e+01 8.90483932e+01 9.07600021e+01 1.52604752e+02
      1.22707367e+02 9.97045059e+01 8.71310425e+01 1.51734467e+02</_>
    <_>
      5.46030235e+01 4.08669128e+01 1.41394760e+02 1.20863029e+02
      1.77935501e+02 1.29298141e+02 1.63074829e+02 1.54374908e+02</_>
    <_>
      6.72073441e+01 9.61479568e+01 1.03084267e+02 1.15069145e+02
      1.03173981e+02 9.74858475e+01 9.72044296e+01 1.18877678e+02</_>
    <_>
      1.82465714e+02 1.36835083e+02 1.93116226e+02 1.45994736e+02
      1.79196838e+02 1.32291611e+02 1.72397415e+02 1.41747375e+02</_></support_vectors>
  <decision_functions>
    <_>
      <sv_count>314</sv_count>
      <rho>6.6654501660645327e-01</rho>
      <alpha>
        1.4544539854398617e+00 1.8619649699624559e+00
        1.4321303107263068e+00 2.2407638772231095e+00
        2.0276050292297030e+00 7.9898593107627391e-01
        1.2109333902512969e+01 1.5728679390692615e+00
        2.9858862967784487e+00 1.7763745228039918e+00
        1.0900447397325763e-02 1.3890638090672700e+00
        1.8825592369687751e+00 9.1190762486662802e-01
        1.9157746295340288e+00 3.1384295762401191e+00
        1.8080400359300357e+00 5.2665039269437552e-01
        6.8513506186698891e-01 1.9765967756619625e+00
        2.1299076193060045e+00 1.9399492238961029e+00
        1.6104447289794184e+01 9.7868236683472565e-01
        5.7843432125669469e-01 4.9443740829302790e-01
        2.2213518166407309e+00 3.3419559901217282e+00
        2.4637354524149302e+01 1.7472163789042676e+00
        2.3960371439357226e+00 1.2922701286354168e+00
        1.0607948220366958e+00 7.8716329215015648e+00
        7.5691988790563798e+00 2.1987986510877544e+01
        6.6722604636405576e+00 3.6806436014430428e+00
        3.8469757627620794e+01 4.3902315681162696e+00
        9.6666386116490854e-01 1.4312698188447808e+00
        2.0937887733508767e+00 2.4578657536396751e+00
        1.8178172687528105e+00 3.3437004456338113e+00
        3.7188800174422183e+00 2.2685147081382491e+00
        3.0556220216636554e+00 3.5367723384080456e+00
        3.6754580944424577e+00 4.2930318309952993e+00
        1.1659628823999453e+01 4.8224048244831046e+00
        1.7772272854772448e+00 5.3985760514753389e-01
        5.9943802221398110e+00 8.9241622574955898e+01
        6.7850065476471046e+00 9.2687743877182776e+00
        6.7767622618025278e+00 1.4444128895043722e+00
        7.0976192681189056e+00 1.9521400791098152e+01
        1.8310606445637969e+00 1.2564144554782560e+01
        2.0020787348657521e+01 1.6588121117781132e+01
        2.4557618789273210e+00 2.5960047619781212e+00
        3.6906482256910964e+00 6.7873743334445020e+00
        5.8752950919416707e+00 2.7443930279209261e+00
        2.9688793037875589e+00 7.8262882376201661e+00
        1.5836336453988094e+00 3.9527865813789469e+00
        1.4358879935026889e+00 1.7577730365994315e+00
        1.8470421798918790e+00 5.6123001394821692e-01
        4.1538508901317641e+00 1.8089152347889170e+00
        1.9009655807966876e+00 4.7862073410668868e+00
        5.2744209584039048e+00 7.0032057256709619e+00
        3.3434214210798474e-01 3.0431111698682840e+00
        8.4402482265530465e-01 2.1070005335140083e+00
        9.5076393144066751e-01 7.9998098090193470e-01
        1.3536579099117340e+01 1.9701496531901461e+00
        2.5602095703274763e+00 1.8093117943201982e+00
        1.1107644214657375e+01 1.9928231192094015e+00
        1.9696116117204774e+00 1.9098369331128129e+00
        2.0109139131316121e+00 1.4495964130556624e+00
        3.6249517889526067e-01 7.6856527268647286e+00
        9.3953412172020556e+00 2.1550963935107190e+00
        2.6601953589145859e+00 5.9263776574019484e+00
        1.6388490293828490e+00 4.0901232820356590e+00
        3.1370160599845849e+00 5.8614077465342085e+00
        7.0885833110130516e+00 3.0275418254498687e+00
        3.7006586698285178e+00 3.3144579168927830e+00
        1.4134821490017977e+00 5.3144801782235813e+00
        1.8806271688015508e+00 1.8579772749457797e+00
        2.1207742573943786e+00 2.1873797497004945e+00
        6.0285872949732875e+00 8.3386218218336214e+00
        2.0146380196210405e+00 1.5094993997188833e+00
        1.7281098676588631e+00 4.2293847811645007e+00
        2.0866325119495102e+00 1.5255228384381101e+00
        1.9970287778174494e+00 1.5455738139091266e+00
        8.8472798712282881e+00 2.6066152350053393e+00
        1.3607694666875694e+00 9.3640583985562076e-01
        1.0104300144474216e+00 7.1505523871349119e-01
        1.5619399933371689e+01 1.7282145094834913e+00
        1.0455103582064393e+00 8.1845678359401819e-01
        1.3673357967719078e+00 1.5299911502598871e+01
        4.3614305095629131e+00 2.2210640811689782e+01
        4.5587794432942781e+00 1.3381543083274177e+00
        3.6094969102512007e+00 4.5310478431680732e+00
        1.0632736648704082e+00 1.0889507016117483e+01
        5.2867799594600768e+00 2.9863427909277604e+01
        3.6567715298128345e+00 2.0918463975987360e+00
        3.3667952118453286e+00 1.0611165764246002e+00
        1.2448592555534065e+01 6.6244875796107294e+00
        1.5203031202289830e+00 6.3100375158952966e+00
        1.1758337750785406e+01 3.2197798815346697e+00
        5.2534160524001363e+00 4.8667389384425759e+00
        8.6729281538450085e+00 6.7759638242892684e-01
        6.0094483207261340e-01 5.7209288884476521e+00
        9.8167356429924801e+00 2.2409343566670676e+00
        6.2755063983243708e-01 3.9900848458268934e+00
        3.3206879201892088e+00 6.6084482449564188e+00
        1.2439172553379086e+01 1.4840676896303098e+01
        2.3355994043452002e+00 2.5542805510511264e+00
        5.2547120394849216e+00 1.7260034791574694e+00
        4.5182014927932412e+00 6.2912672437992656e+00
        1.2038217560060620e+01 1.2785642787848179e+01
        6.3822909960957226e+00 5.2721025885567725e+00
        8.6651154110177906e+00 1.7297333181464114e+00
        9.2943401794095348e-01 1.6353347408135408e+00
        5.2573561347413311e-01 4.3406819234150822e+00
        2.0434923932655336e+00 1.0840766577489303e+00
        2.0765795327744403e+00 5.6858358820751054e+00
        1.7489911311445310e+00 1.9680646900551366e+00
        9.6488174088395962e-01 1.2343295500091962e+00
        8.7720830902066460e+00 -1.0758377425044092e+01
        -9.6928725262852922e+00 -1.0758377425044092e+01
        -1.0758377425044092e+01 -1.0758377425044092e+01
        -4.3551751481044265e+00 -1.0758377425044092e+01
        -1.0758377425044092e+01 -1.0758377425044092e+01
        -1.0758377425044092e+01 -7.5599115768900127e+00
        -1.0346122185704118e+01 -1.0758377425044092e+01
        -1.0758377425044092e+01 -1.0152737676776342e+01
        -1.6744967538337272e+00 -1.0758377425044092e+01
        -1.0758377425044092e+01 -1.0758377425044092e+01
        -1.0758377425044092e+01 -3.6049537662789621e+00
        -1.0758377425044092e+01 -1.0758377425044092e+01
        -1.0758377425044092e+01 -9.2373804178412904e+00
        -7.5199726367464201e+00 -1.0758377425044092e+01
        -4.1012399607216672e+00 -1.0758377425044092e+01
        -1.0758377425044092e+01 -1.0758377425044092e+01
        -1.0758377425044092e+01 -1.0758377425044092e+01
        -2.2656544582537674e+00 -1.0758377425044092e+01
        -4.2984667152055405e+00 -1.0758377425044092e+01
        -1.0758377425044092e+01 -8.0029161472390165e+00
        -1.0758377425044092e+01 -1.0758377425044092e+01
        -2.7732837792883993e+00 -1.0758377425044092e+01
        -1.0758377425044092e+01 -1.0758377425044092e+01
        -1.0758377425044092e+01 -1.0758377425044092e+01
        -1.0758377425044092e+01 -1.0758377425044092e+01
        -1.0758377425044092e+01 -1.0758377425044092e+01
        -1.0758377425044092e+01 -1.0758377425044092e+01
        -1.0758377425044092e+01 -1.0758377425044092e+01
        -1.0758377425044092e+01 -1.0758377425044092e+01
        -3.7847827570988408e+00 -4.7654412786809202e+00
        -3.3860642948597013e+00 -1.0758377425044092e+01
        -1.3769412064311468e+00 -1.0758377425044092e+01
        -1.0758377425044092e+01 -1.0758377425044092e+01
        -1.0542341063350051e+01 -1.0758377425044092e+01
        -1.0758377425044092e+01 -7.0331282707157996e+00
        -9.6420165323846927e+00 -1.0758377425044092e+01
        -1.0758377425044092e+01 -1.0758377425044092e+01
        -1.0758377425044092e+01 -1.0758377425044092e+01
        -1.0758377425044092e+01 -5.7723950629706096e+00
        -1.0758377425044092e+01 -6.5921692783899317e+00
        -1.0758377425044092e+01 -1.0758377425044092e+01
        -1.0758377425044092e+01 -8.2422477431460521e+00
        -1.0758377425044092e+01 -1.0758377425044092e+01
        -1.0758377425044092e+01 -1.0758377425044092e+01
        -1.0758377425044092e+01 -5.5460787014872981e-01
        -1.0758377425044092e+01 -7.5112608618763801e+00
        -3.0923850948363629e+00 -1.0758377425044092e+01
        -1.0758377425044092e+01 -1.0758377425044092e+01
        -1.0758377425044092e+01 -1.0758377425044092e+01
        -1.0758377425044092e+01 -1.0758377425044092e+01
        -9.9471380023207150e+00 -1.0758377425044092e+01
        -1.0758377425044092e+01 -1.0758377425044092e+01
        -1.0758377425044092e+01 -1.0758377425044092e+01
        -1.0758377425044092e+01 -1.0758377425044092e+01
        -1.0758377425044092e+01 -1.0758377425044092e+01</alpha>
      <index>
        148 312 311 310 309 308 307 306 305 304 303 302 301 300 299 298
        297 296 295 294 293 292 291 290 109 110 111 112 113 114 115 116
        117 118 119 120 121 122 123 124 125 126 127 128 129 130 131 132
        133 134 135 136 137 138 139 140 141 142 143 144 145 146 147 149
        150 151 152 153 154 155 156 157 158 159 160 161 162 163 164 165
        166 167 168 169 170 171 172 173 174 175 176 177 178 179 180 181
        182 183 184 185 186 187 188 189 190 191 192 193 194 195 196 197
        198 199 200 201 202 203 204 205 206 207 260 208 209 210 211 212
        213 214 215 216 217 218 219 220 221 222 223 224 225 226 227 228
        229 230 231 232 233 234 235 236 237 238 239 240 241 242 243 244
        245 246 247 248 249 250 251 252 253 254 255 256 257 258 259 313
        261 262 263 264 265 266 267 268 269 270 271 272 273 274 275 276
        277 278 279 280 281 282 283 284 285 286 287 288 289 108 107 106
        105 104 103 102 101 100 99 98 97 96 95 94 93 92 91 90 89 88 87
        86 85 84 83 82 81 80 79 78 77 76 75 74 73 72 71 70 69 68 67 66
        65 64 63 62 61 60 59 58 57 56 55 54 53 52 51 50 49 48 47 46 45
        44 43 42 41 40 39 38 37 36 35 34 33 32 31 30 29 28 27 26 25 24
        23 22 21 20 19 18 17 16 15 14 13 12 11 10 9 8 7 6 5 4 3 2 1 0</index></_></decision_functions></opencv_ml_svm>
</opencv_storage>
