<?xml version="1.0"?>
<opencv_storage>
<opencv_ml_svm>
  <format>3</format>
  <svmType>C_SVC</svmType>
  <kernel>
    <type>LINEAR</type></kernel>
  <C>1.0000000000000000e-02</C>
  <term_criteria><epsilon>1.1920928955078125e-07</epsilon>
    <iterations>1000</iterations></term_criteria>
  <var_count>8</var_count>
  <class_count>2</class_count>
  <class_labels type_id="opencv-matrix">
    <rows>2</rows>
    <cols>1</cols>
    <dt>i</dt>
    <data>
      0 1</data></class_labels>
  <class_weights type_id="opencv-matrix">
    <rows>2</rows>
    <cols>1</cols>
    <dt>d</dt>
    <data>
      8.9241622574955903e-01 1.0758377425044091e-01</data></class_weights>
  <sv_total>1</sv_total>
  <support_vectors>
    <_>
      -2.63544987e-03 -7.06344901e-04 -3.52078304e-03 -5.58254169e-03
      -3.87364533e-03 4.79956437e-03 -5.62442373e-03 3.10593797e-03</_></support_vectors>
  <uncompressed_sv_total>70</uncompressed_sv_total>
  <uncompressed_support_vectors>
    <_>
      7.88984680e+01 1.50156387e+02 7.83639526e+01 1.51904800e+02
      1.23859917e+02 7.64112625e+01 7.02260513e+01 1.56605103e+02</_>
    <_>
      1.69939346e+02 1.55848892e+02 2.03661743e+02 1.88378006e+02
      1.73379623e+02 1.63945343e+02 2.02995041e+02 1.76916824e+02</_>
    <_>
      6.87328033e+01 4.16619949e+01 9.38580933e+01 5.16564789e+01
      8.79187393e+01 5.93493080e+01 8.74829865e+01 5.11115189e+01</_>
    <_>
      5.80247154e+01 1.13490082e+02 5.92413292e+01 7.81323624e+01
      1.00629082e+02 1.03431511e+02 7.21266785e+01 8.77278519e+01</_>
    <_>
      6.41048660e+01 1.50288010e+02 1.10143288e+02 1.92373688e+02
      2.09828049e+02 1.44979584e+02 1.12443680e+02 1.93914474e+02</_>
    <_>
      1.12062263e+02 1.43058212e+02 1.50181259e+02 1.76155380e+02
      1.68430878e+02 1.45772583e+02 1.40658951e+02 1.85105057e+02</_>
    <_>
      8.40237045e+01 4.67766418e+01 1.08679436e+02 5.46779900e+01
      1.04501877e+02 6.60325775e+01 7.92840805e+01 4.42861443e+01</_>
    <_>
      5.03890152e+01 9.42094040e+01 2.97939205e+01 1.57014633e+02
      1.13084511e+02 6.53278351e+01 6.93183613e+00 1.07903824e+02</_>
    <_>
      4.04000168e+01 2.97489872e+01 9.96795502e+01 3.27485657e+01
      9.32478790e+01 6.55662842e+01 1.17461601e+02 4.00522957e+01</_>
    <_>
      1.67712280e+02 1.31647385e+02 2.04753738e+02 1.70742142e+02
      1.64972733e+02 1.64091995e+02 2.13435623e+02 1.75234665e+02</_>
    <_>
      3.18685741e+01 2.13624821e+01 5.86536064e+01 6.75367203e+01
      6.67314377e+01 3.72359734e+01 3.70442619e+01 3.58302612e+01</_>
    <_>
      2.75161877e+01 7.47508698e+01 3.37791405e+01 1.71786545e+02
      1.53523422e+02 7.41071243e+01 3.16201859e+01 1.39469650e+02</_>
    <_>
      2.05075574e+00 4.03394661e+01 5.67576170e+00 1.18494026e+02
      8.41928558e+01 3.41892624e+01 1.11842644e+00 3.71105194e+01</_>
    <_>
      1.56225119e+01 1.58289902e+02 1.95173092e+01 2.08663010e+02
      1.69819504e+02 1.11058365e+02 4.22229881e+01 1.93925308e+02</_>
    <_>
      3.53549805e+01 1.11631287e+02 5.46862564e+01 1.59604141e+02
      1.14344124e+02 1.23033440e+02 6.33893929e+01 1.51687622e+02</_>
    <_>
      1.73643875e+01 2.60797920e+01 8.47565918e+01 1.07716484e+02
      1.42955994e+02 1.17306458e+02 1.43137344e+02 1.78326797e+02</_>
    <_>
      3.89031601e+01 8.02537155e+01 1.11008774e+02 8.06232910e+01
      9.63895035e+01 9.62785568e+01 8.79321136e+01 8.25672836e+01</_>
    <_>
      2.02357903e+01 5.48191414e+01 4.45792427e+01 1.05509697e+02
      1.20771225e+02 5.32384834e+01 1.58974257e+01 4.30941849e+01</_>
    <_>
      2.22579300e+02 2.36618805e+02 2.29855621e+02 2.38121704e+02
      2.36098831e+02 2.28892624e+02 2.30388626e+02 2.32495239e+02</_>
    <_>
      5.76002579e+01 1.67243137e+01 1.04059196e+02 3.40136414e+01
      7.55912399e+01 4.94706573e+01 9.28982697e+01 4.10237083e+01</_>
    <_>
      1.49165207e+02 1.40417480e+02 1.87249603e+02 1.88764542e+02
      1.49691650e+02 1.34773560e+02 1.69246124e+02 1.67477264e+02</_>
    <_>
      1.44214035e+02 6.86855316e+01 2.14454269e+02 9.27125854e+01
      1.38292328e+02 1.47543732e+02 2.02996414e+02 1.02940132e+02</_>
    <_>
      1.85072632e+02 1.45678513e+02 2.25548080e+02 1.99096893e+02
      2.28208466e+02 1.97631332e+02 2.11544479e+02 1.79603470e+02</_>
    <_>
      5.39160881e+01 9.15046310e+01 1.48850662e+02 2.03227448e+02
      2.09781891e+02 1.92672974e+02 1.92482132e+02 2.27808578e+02</_>
    <_>
      3.24023895e+01 2.88750000e+01 1.69326416e+02 1.34280273e+02
      1.19172226e+02 1.05927338e+02 1.29173584e+02 1.65305222e+02</_>
    <_>
      8.01495285e+01 8.83396149e+01 1.68713089e+02 2.27175278e+02
      2.01794067e+02 1.97942825e+02 1.75823746e+02 2.27535187e+02</_>
    <_>
      1.80931870e+02 1.34533203e+02 1.87141113e+02 1.33389587e+02
      1.72036728e+02 1.33236801e+02 1.56385788e+02 1.23520905e+02</_>
    <_>
      1.72463627e+01 1.97014637e+01 2.97499580e+01 4.37138214e+01
      5.19322205e+01 1.19801636e+01 1.20930119e+01 1.10284433e+01</_>
    <_>
      9.01819763e+01 8.63047314e+00 1.43839142e+02 2.59860897e+01
      9.95584717e+01 5.57931023e+01 1.30431839e+02 2.77292137e+01</_>
    <_>
      2.92193890e+01 8.25615463e+01 4.05747681e+01 1.14829094e+02
      9.45563354e+01 6.82713928e+01 4.14077606e+01 1.01054375e+02</_>
    <_>
      1.50220261e+02 1.56919968e+02 1.91359207e+02 1.59518570e+02
      1.75571671e+02 1.51113464e+02 2.04463928e+02 1.62116058e+02</_>
    <_>
      5.75460091e+01 1.01829552e+02 6.80350113e+01 1.14048347e+02
      9.18920288e+01 7.42088623e+01 6.71005325e+01 9.68402634e+01</_>
    <_>
      3.69833755e+01 1.20561340e+02 5.52250175e+01 2.18150970e+02
      1.17438171e+02 1.24964890e+02 9.24938660e+01 2.10226456e+02</_>
    <_>
      3.00780296e+01 4.35014038e+01 5.52886200e+01 5.03909645e+01
      1.11770988e+02 6.77957382e+01 1.01741562e+02 2.51229115e+01</_>
    <_>
      1.68142746e+02 1.44308258e+02 1.73849792e+02 1.49232086e+02
      1.97132553e+02 1.20677383e+02 1.64959045e+02 1.75732864e+02</_>
    <_>
      5.90896530e+01 5.92427521e+01 8.85852966e+01 9.11483994e+01
      8.76282501e+01 7.89869843e+01 6.40403366e+01 8.24871597e+01</_>
    <_>
      5.46598740e+01 6.90481796e+01 7.43864975e+01 1.03536087e+02
      8.99381638e+01 5.41373749e+01 4.34336433e+01 7.57039566e+01</_>
    <_>
      7.00420380e+01 1.88830887e+02 6.95779419e+01 1.78056885e+02
      9.79385071e+01 7.96017456e+01 6.37890015e+01 1.41706375e+02</_>
    <_>
      8.78963928e+01 4.78536530e+01 1.55223633e+02 8.91547928e+01
      1.69579163e+02 9.97268982e+01 1.44830078e+02 7.07927628e+01</_>
    <_>
      1.31090240e+02 1.62410980e+02 2.06599838e+02 1.87722549e+02
      2.10078796e+02 1.55500778e+02 2.04847687e+02 1.35565796e+02</_>
    <_>
      1.31758451e+01 5.10303421e+01 2.00909100e+01 7.26153412e+01
      6.44841690e+01 5.01323471e+01 1.64907284e+01 4.84937019e+01</_>
    <_>
      2.45679413e+02 1.23594772e+02 2.41572586e+02 1.47150040e+02
      1.59306702e+02 1.94915924e+02 2.35312119e+02 1.71813278e+02</_>
    <_>
      7.52981720e+01 1.75376755e+02 1.56960037e+02 2.10366821e+02
      2.31072037e+02 2.24442993e+02 2.11641342e+02 2.10167816e+02</_>
    <_>
      4.02700195e+01 3.34336586e+01 3.57792854e+01 5.48310013e+01
      3.80453682e+01 2.32577534e+01 3.29210167e+01 6.81311340e+01</_>
    <_>
      9.88029556e+01 4.34210815e+01 1.55439392e+02 6.80438385e+01
      1.08564949e+02 1.11153778e+02 1.53341476e+02 7.20316467e+01</_>
    <_>
      2.03517212e+02 2.18346893e+02 2.15294479e+02 2.15174484e+02
      2.23100372e+02 2.07711334e+02 2.26065857e+02 2.16667221e+02</_>
    <_>
      1.94976616e+01 2.28781948e+01 2.03512707e+01 2.45584888e+01
      2.70016441e+01 1.97717876e+01 1.78703747e+01 2.48097210e+01</_>
    <_>
      8.51770859e+01 1.71768021e+02 1.81981689e+02 2.11617584e+02
      2.03993866e+02 1.72469543e+02 2.04027679e+02 2.17488922e+02</_>
    <_>
      2.03791061e+02 1.97877289e+02 2.16137177e+02 2.23527679e+02
      2.33940094e+02 2.02747482e+02 1.91917206e+02 1.82220947e+02</_>
    <_>
      4.57650452e+01 1.08745979e+02 3.31905174e+01 1.45692917e+02
      7.45398331e+01 4.69351540e+01 4.37135658e+01 1.19758827e+02</_>
    <_>
      1.40994431e+02 1.63062012e+02 1.89862411e+02 2.30363785e+02
      1.73986084e+02 1.79806717e+02 1.93056076e+02 2.00260590e+02</_>
    <_>
      6.84434662e+01 7.76766357e+01 1.80737183e+02 1.66524109e+02
      2.14533173e+02 1.52504211e+02 2.06840027e+02 1.69494919e+02</_>
    <_>
      6.86656570e+01 4.45837440e+01 1.73075012e+02 1.93444565e+02
      1.75738708e+02 1.33800568e+02 8.64259872e+01 1.54751419e+02</_>
    <_>
      1.75070404e+02 1.54352997e+02 2.34144379e+02 2.10539368e+02
      2.35299591e+02 1.98983231e+02 2.09735703e+02 1.90721115e+02</_>
    <_>
      6.19500008e+01 2.07756100e+01 9.28111267e+01 3.76475983e+01
      6.86622772e+01 2.84828262e+01 6.99851990e+01 4.09175415e+01</_>
    <_>
      9.17465897e+01 1.47366013e+02 2.12054520e+02 2.01250366e+02
      2.08027023e+02 1.77424561e+02 2.14900940e+02 2.01606369e+02</_>
    <_>
      9.32078552e+01 1.09308220e+02 1.91743774e+02 1.87667236e+02
      2.09853516e+02 1.28393311e+02 1.86626389e+02 1.75594788e+02</_>
    <_>
      1.69812698e+02 1.69050522e+02 1.99452591e+02 2.05304947e+02
      2.18198822e+02 1.34976517e+02 1.82604706e+02 1.93316803e+02</_>
    <_>
      1.30581680e+02 1.08650963e+02 1.95190857e+02 1.63502045e+02
      1.75983932e+02 9.40042953e+01 2.25454834e+02 1.95092651e+02</_>
    <_>
      2.20259140e+02 7.98490982e+01 2.25564850e+02 1.47151154e+02
      2.13090088e+02 2.17608292e+02 2.19612289e+02 1.21662888e+02</_>
    <_>
      1.64114838e+02 1.62315781e+02 2.28687683e+02 2.21197830e+02
      2.41485489e+02 2.29331604e+02 2.42069717e+02 2.38198868e+02</_>
    <_>
      4.77924995e+01 1.84073975e+02 1.25059303e+02 2.07170715e+02
      1.89414154e+02 1.55804398e+02 1.56284256e+02 2.09732010e+02</_>
    <_>
      1.17140030e+02 1.09611229e+02 1.29402359e+02 1.07819313e+02
      1.38840576e+02 6.33281479e+01 7.28456726e+01 4.73323212e+01</_>
    <_>
      4.61856384e+01 5.21739311e+01 1.21620522e+02 1.24594894e+02
      1.61867340e+02 7.42398758e+01 8.59747543e+01 6.87825851e+01</_>
    <_>
      1.53238174e+02 1.39409088e+02 1.83322525e+02 1.98702316e+02
      1.92935547e+02 1.42613144e+02 1.52533905e+02 1.03406250e+02</_>
    <_>
      9.95536346e+01 1.94177460e+02 1.26869888e+02 2.08652939e+02
      2.18356522e+02 1.65730667e+02 1.38227692e+02 1.90308548e+02</_>
    <_>
      2.15846954e+02 2.21384323e+02 2.17194641e+02 2.22577072e+02
      1.84874832e+02 2.04906403e+02 2.15302383e+02 2.21525330e+02</_>
    <_>
      1.17337433e+02 1.57343079e+02 1.75746048e+02 1.69441620e+02
      1.94946548e+02 9.95696869e+01 1.80498672e+02 1.58903320e+02</_>
    <_>
      6.91824722e+01 7.02453003e+01 6.04821663e+01 1.28610458e+02
      1.69683441e+02 7.82554932e+01 2.42964764e+01 1.03037521e+02</_>
    <_>
      1.39331100e+02 1.84681061e+02 2.09089142e+02 2.21722809e+02
      2.20668304e+02 1.91902267e+02 1.96532669e+02 2.15369843e+02</_></uncompressed_support_vectors>
  <decision_functions>
    <_>
      <sv_count>1</sv_count>
      <rho>-2.1025468344956195e+00</rho>
      <alpha>
        1.</alpha>
      <index>
        0</index></_></decision_functions></opencv_ml_svm>
</opencv_storage>
