<?xml version="1.0"?>
<opencv_storage>
<opencv_ml_svm>
  <format>3</format>
  <svmType>C_SVC</svmType>
  <kernel>
    <type>RBF</type>
    <gamma>1.0000000000000000e-04</gamma></kernel>
  <C>100.</C>
  <term_criteria><epsilon>1.1920928955078125e-07</epsilon>
    <iterations>1000</iterations></term_criteria>
  <var_count>8</var_count>
  <class_count>2</class_count>
  <class_labels type_id="opencv-matrix">
    <rows>2</rows>
    <cols>1</cols>
    <dt>i</dt>
    <data>
      0 1</data></class_labels>
  <class_weights type_id="opencv-matrix">
    <rows>2</rows>
    <cols>1</cols>
    <dt>d</dt>
    <data>
      9.2911392405063287e-01 7.0886075949367092e-02</data></class_weights>
  <sv_total>210</sv_total>
  <support_vectors>
    <_>
      5.34775734e+01 9.56169815e+01 6.00394745e+01 1.62295761e+02
      1.25288841e+02 1.07747368e+02 8.48156815e+01 1.72551468e+02</_>
    <_>
      1.87248516e+01 3.49291649e+01 5.51478004e+01 5.11047974e+01
      9.25245895e+01 7.07550735e+01 8.85397797e+01 6.03253975e+01</_>
    <_>
      6.20713310e+01 6.69429169e+01 8.51318512e+01 7.87660980e+01
      8.49806290e+01 7.25281448e+01 8.81165085e+01 8.61973267e+01</_>
    <_>
      6.77875443e+01 7.18015289e+01 9.28978653e+01 1.06318954e+02
      1.11980202e+02 7.91788177e+01 8.78845978e+01 1.01833649e+02</_>
    <_>
      5.61642342e+01 9.86489029e+01 8.60768204e+01 1.24135391e+02
      1.16897491e+02 9.11050873e+01 8.57791138e+01 1.29201202e+02</_>
    <_>
      7.88984680e+01 1.50156387e+02 7.83639526e+01 1.51904800e+02
      1.23859917e+02 7.64112625e+01 7.02260513e+01 1.56605103e+02</_>
    <_>
      1.33303329e+02 1.44042557e+02 1.49858307e+02 1.44623718e+02
      1.70711029e+02 1.43654999e+02 1.52756622e+02 1.23744827e+02</_>
    <_>
      2.92193890e+01 8.25615463e+01 4.05747681e+01 1.14829094e+02
      9.45563354e+01 6.82713928e+01 4.14077606e+01 1.01054375e+02</_>
    <_>
      6.09124565e+01 5.09232216e+01 1.01150215e+02 7.11203766e+01
      1.00497177e+02 6.60220261e+01 9.27150269e+01 6.52593765e+01</_>
    <_>
      7.88903503e+01 7.54192352e+01 1.00543571e+02 8.61398621e+01
      1.27605927e+02 7.53667679e+01 8.20404739e+01 6.89220657e+01</_>
    <_>
      7.70389633e+01 1.16010864e+02 1.12169098e+02 1.54921005e+02
      1.54443100e+02 1.15290726e+02 1.15446671e+02 1.70634491e+02</_>
    <_>
      8.40237045e+01 4.67766418e+01 1.08679436e+02 5.46779900e+01
      1.04501877e+02 6.60325775e+01 7.92840805e+01 4.42861443e+01</_>
    <_>
      5.98419151e+01 4.97764816e+01 9.46422806e+01 7.35731354e+01
      1.31613190e+02 7.86835327e+01 9.30999527e+01 9.50328369e+01</_>
    <_>
      7.29453049e+01 4.56532249e+01 9.07860031e+01 5.80997162e+01
      9.29064941e+01 6.54909592e+01 9.42381592e+01 7.89331436e+01</_>
    <_>
      6.37516022e+01 5.46100082e+01 9.37022781e+01 6.50624084e+01
      1.13401413e+02 8.82964859e+01 1.02993958e+02 7.20163193e+01</_>
    <_>
      4.33517570e+01 1.65599899e+01 1.24207054e+02 8.58451691e+01
      1.20589622e+02 9.13444214e+01 9.47579956e+01 8.77748260e+01</_>
    <_>
      1.24574280e+02 1.07073997e+02 1.33447205e+02 1.25932640e+02
      1.39416229e+02 1.34912216e+02 1.13947937e+02 1.21889275e+02</_>
    <_>
      8.46592560e+01 5.09610176e+01 9.14794998e+01 8.05237656e+01
      1.04147858e+02 7.95444794e+01 9.61790924e+01 9.26779175e+01</_>
    <_>
      4.39511337e+01 6.22288132e+01 7.08654785e+01 1.04144897e+02
      1.07179390e+02 7.11410141e+01 6.64623718e+01 8.23935471e+01</_>
    <_>
      1.02993942e+02 8.25441742e+01 1.25592140e+02 1.32986786e+02
      1.30825577e+02 1.12231743e+02 1.16969017e+02 1.34571884e+02</_>
    <_>
      6.17364693e+01 1.09635475e+02 8.47855759e+01 1.70722595e+02
      1.19695656e+02 8.28624649e+01 5.91868439e+01 1.70131302e+02</_>
    <_>
      9.26731110e+01 7.58693085e+01 1.08807961e+02 9.64554672e+01
      1.10153847e+02 9.30521469e+01 1.04501228e+02 1.04338814e+02</_>
    <_>
      4.04000168e+01 2.97489872e+01 9.96795502e+01 3.27485657e+01
      9.32478790e+01 6.55662842e+01 1.17461601e+02 4.00522957e+01</_>
    <_>
      3.18685741e+01 2.13624821e+01 5.86536064e+01 6.75367203e+01
      6.67314377e+01 3.72359734e+01 3.70442619e+01 3.58302612e+01</_>
    <_>
      5.40576744e+01 9.94645996e+01 1.10173454e+02 1.33527527e+02
      1.18434601e+02 9.54552994e+01 1.16398491e+02 1.00664467e+02</_>
    <_>
      5.70370674e+01 3.51105003e+01 7.34426727e+01 3.14824829e+01
      5.09593582e+01 5.06361694e+01 6.62113037e+01 3.73397903e+01</_>
    <_>
      6.11981125e+01 6.86844101e+01 9.12525711e+01 9.19549484e+01
      1.10978386e+02 6.88727646e+01 9.31016998e+01 1.08535065e+02</_>
    <_>
      2.96075916e+01 5.34820175e+01 4.44058533e+01 7.39105225e+01
      8.50592346e+01 5.44390755e+01 3.93607635e+01 4.82156601e+01</_>
    <_>
      6.70188675e+01 1.07401665e+02 9.84629288e+01 1.26450180e+02
      1.25693970e+02 1.19987389e+02 1.04123207e+02 1.31236115e+02</_>
    <_>
      4.61081429e+01 3.04170361e+01 6.08731995e+01 3.41895409e+01
      6.55953064e+01 5.00036774e+01 4.91673660e+01 2.57105255e+01</_>
    <_>
      4.07195015e+01 3.68423157e+01 5.87885284e+01 5.99459763e+01
      7.19843674e+01 4.31489830e+01 5.77202835e+01 5.45505753e+01</_>
    <_>
      8.96079330e+01 6.54241714e+01 1.82721725e+02 1.22680313e+02
      1.60948517e+02 8.96793289e+01 1.72719330e+02 1.36641876e+02</_>
    <_>
      6.40521774e+01 7.96389999e+01 8.40569992e+01 1.04046234e+02
      9.11771317e+01 8.20703278e+01 8.75390549e+01 1.03559464e+02</_>
    <_>
      6.16035767e+01 9.41216507e+01 7.77619247e+01 1.52209793e+02
      8.86639099e+01 7.07352371e+01 6.22869225e+01 1.09831490e+02</_>
    <_>
      5.53924599e+01 3.69281387e+01 7.36469116e+01 5.87204742e+01
      7.97729568e+01 6.08009109e+01 6.28413086e+01 4.29532547e+01</_>
    <_>
      5.72147560e+01 2.27457619e+01 9.61752853e+01 3.67467918e+01
      6.66063995e+01 2.85414009e+01 6.08734741e+01 4.83361855e+01</_>
    <_>
      3.50548286e+01 7.13071136e+01 7.15545197e+01 1.20807312e+02
      1.58144135e+02 6.85474243e+01 5.58639603e+01 1.02276962e+02</_>
    <_>
      5.99923325e+01 5.70569801e+01 9.89459534e+01 8.88216858e+01
      1.00193649e+02 9.32455215e+01 1.02697807e+02 9.24213867e+01</_>
    <_>
      6.83571167e+01 8.67776489e+01 7.61326981e+01 9.07784805e+01
      1.00284004e+02 7.73318329e+01 5.35302582e+01 8.26188049e+01</_>
    <_>
      5.16354065e+01 6.48807526e+01 8.51914520e+01 1.14621353e+02
      1.19026726e+02 7.61739044e+01 7.20655441e+01 9.36922531e+01</_>
    <_>
      7.35405960e+01 4.83621445e+01 1.12667282e+02 8.44156265e+01
      1.29209503e+02 8.95657272e+01 1.09541908e+02 8.28619080e+01</_>
    <_>
      4.97361755e+01 5.59986763e+01 8.72637253e+01 9.23637695e+01
      1.05624123e+02 6.80754395e+01 6.65739899e+01 7.16620026e+01</_>
    <_>
      7.39499969e+01 5.20300827e+01 1.02843719e+02 5.92668800e+01
      1.08091370e+02 8.72849655e+01 1.10406403e+02 7.40813370e+01</_>
    <_>
      1.36647476e+02 9.34716339e+01 1.80243179e+02 1.35236923e+02
      1.55582443e+02 1.03729904e+02 1.64069763e+02 1.20852989e+02</_>
    <_>
      6.54924088e+01 4.52221451e+01 9.39822617e+01 5.72825050e+01
      1.00646339e+02 8.26011353e+01 1.00662041e+02 6.61128387e+01</_>
    <_>
      5.97478943e+01 9.55682220e+01 1.19605812e+02 1.25828400e+02
      1.32906769e+02 1.01355522e+02 1.32805038e+02 1.37675781e+02</_>
    <_>
      7.99452667e+01 1.00141151e+02 1.07777954e+02 1.31816071e+02
      1.25158844e+02 1.04409576e+02 1.08366432e+02 1.35612213e+02</_>
    <_>
      1.02057426e+02 1.15630104e+02 1.62766296e+02 1.65848099e+02
      1.54157669e+02 1.20671005e+02 1.61066299e+02 1.45207672e+02</_>
    <_>
      5.71545410e+01 5.51908798e+01 8.33698502e+01 8.12078247e+01
      9.29758301e+01 7.88677750e+01 9.54161835e+01 8.14115295e+01</_>
    <_>
      4.64290657e+01 7.38305740e+01 7.75119781e+01 1.31490021e+02
      1.58619354e+02 6.87932587e+01 8.52605286e+01 8.48159180e+01</_>
    <_>
      2.02357903e+01 5.48191414e+01 4.45792427e+01 1.05509697e+02
      1.20771225e+02 5.32384834e+01 1.58974257e+01 4.30941849e+01</_>
    <_>
      2.98236523e+01 3.56514359e+01 3.69391823e+01 4.56249123e+01
      5.03713570e+01 4.34132729e+01 3.74226379e+01 4.33583908e+01</_>
    <_>
      8.02549591e+01 8.05366440e+01 9.84528427e+01 9.24881744e+01
      1.00001091e+02 8.46637039e+01 1.05216759e+02 1.01896751e+02</_>
    <_>
      1.25597366e+02 1.06133232e+02 1.96941635e+02 1.25221886e+02
      2.11393173e+02 1.50379288e+02 1.79121567e+02 9.37763062e+01</_>
    <_>
      1.08088104e+02 1.06486855e+02 1.39752487e+02 1.03732574e+02
      1.23152939e+02 1.12670219e+02 1.60325760e+02 1.21418289e+02</_>
    <_>
      9.77487411e+01 7.36111145e+01 1.19312622e+02 9.66124573e+01
      1.16852333e+02 1.10400536e+02 1.24379936e+02 1.08814667e+02</_>
    <_>
      2.77777596e+01 3.61954384e+01 2.75927982e+01 4.57463112e+01
      3.37783928e+01 3.03143883e+01 2.57115726e+01 3.84148598e+01</_>
    <_>
      7.61004562e+01 5.97000008e+01 1.50784317e+02 9.69254379e+01
      1.27167961e+02 7.52918549e+01 1.35583328e+02 1.04877213e+02</_>
    <_>
      8.13278503e+01 7.78442612e+01 1.53800690e+02 1.29761902e+02
      1.45849152e+02 8.16091003e+01 9.65377579e+01 6.94774780e+01</_>
    <_>
      7.34628677e+01 8.22766647e+01 1.13158882e+02 1.14271523e+02
      1.26737610e+02 8.25219345e+01 8.69166641e+01 7.94849701e+01</_>
    <_>
      4.72402420e+01 8.51423874e+01 7.94131165e+01 9.18953476e+01
      9.57286835e+01 7.00937805e+01 6.93631973e+01 6.57541580e+01</_>
    <_>
      9.23273468e+01 9.91479568e+01 1.22488770e+02 1.27304161e+02
      1.21465691e+02 9.14270248e+01 1.18531960e+02 1.19947830e+02</_>
    <_>
      5.93398781e+01 5.76719322e+01 1.00918701e+02 9.12411728e+01
      1.27970413e+02 7.67725143e+01 8.20463104e+01 7.42564163e+01</_>
    <_>
      5.65467834e+01 9.64341888e+01 9.14956512e+01 1.47473053e+02
      1.37154633e+02 1.34740234e+02 1.08994614e+02 1.56976868e+02</_>
    <_>
      4.55741730e+01 5.30757027e+01 8.96017456e+01 7.07000351e+01
      7.98537750e+01 6.87592545e+01 6.61176071e+01 5.55343781e+01</_>
    <_>
      9.06084900e+01 4.11666260e+01 1.78619232e+02 5.54700089e+01
      1.07892906e+02 1.08075172e+02 1.68136032e+02 6.13670387e+01</_>
    <_>
      6.30828209e+01 4.51993675e+01 8.72152405e+01 9.43271408e+01
      1.00237503e+02 6.20548210e+01 7.06416016e+01 7.13432846e+01</_>
    <_>
      9.01819763e+01 8.63047314e+00 1.43839142e+02 2.59860897e+01
      9.95584717e+01 5.57931023e+01 1.30431839e+02 2.77292137e+01</_>
    <_>
      1.04077858e+02 3.62849541e+01 1.60443344e+02 4.85740166e+01
      1.47536957e+02 6.40918732e+01 1.32186981e+02 5.32946510e+01</_>
    <_>
      1.39734848e+02 1.35716385e+02 1.78419830e+02 1.19720100e+02
      1.57698654e+02 1.44321899e+02 1.66513733e+02 8.92203751e+01</_>
    <_>
      5.24828987e+01 4.98394432e+01 6.19227448e+01 6.05088692e+01
      7.53885422e+01 5.74847450e+01 4.84581261e+01 4.56367378e+01</_>
    <_>
      8.77286072e+01 6.19947090e+01 1.29756042e+02 1.02413567e+02
      8.66847916e+01 7.26086349e+01 1.12006088e+02 8.52911682e+01</_>
    <_>
      1.46779068e+02 4.30696754e+01 2.08638443e+02 6.01883316e+01
      1.57281860e+02 8.95059814e+01 1.65929504e+02 4.60127335e+01</_>
    <_>
      3.74145966e+01 8.18681641e+01 6.27291985e+01 1.64057663e+02
      1.33268997e+02 7.81452103e+01 5.91810951e+01 1.53989182e+02</_>
    <_>
      5.90896530e+01 5.92427521e+01 8.85852966e+01 9.11483994e+01
      8.76282501e+01 7.89869843e+01 6.40403366e+01 8.24871597e+01</_>
    <_>
      1.07090675e+02 1.04608696e+02 1.43655396e+02 1.28639679e+02
      1.10017715e+02 8.82813721e+01 1.25394836e+02 6.87106247e+01</_>
    <_>
      5.75460091e+01 1.01829552e+02 6.80350113e+01 1.14048347e+02
      9.18920288e+01 7.42088623e+01 6.71005325e+01 9.68402634e+01</_>
    <_>
      5.75443039e+01 5.05777740e+01 6.95154877e+01 7.39816208e+01
      8.58962708e+01 7.24706650e+01 6.82667847e+01 6.29924889e+01</_>
    <_>
      5.52784004e+01 1.24950745e+02 8.73559036e+01 1.67256058e+02
      1.29168488e+02 9.56827011e+01 8.95643845e+01 1.38700195e+02</_>
    <_>
      5.27299614e+01 1.42264481e+02 6.86050491e+01 1.85432068e+02
      1.59410461e+02 1.05026176e+02 7.57845306e+01 1.80691223e+02</_>
    <_>
      6.61697159e+01 1.16504059e+02 7.73957214e+01 1.27937653e+02
      1.33698273e+02 1.13056831e+02 8.43783798e+01 1.43834717e+02</_>
    <_>
      3.90934448e+01 6.49233398e+01 9.03168259e+01 8.78271408e+01
      1.04667038e+02 7.19073639e+01 1.05051956e+02 8.92579803e+01</_>
    <_>
      5.31445808e+01 7.58723297e+01 1.30796371e+02 1.29093369e+02
      1.47349091e+02 1.10107704e+02 1.63682953e+02 1.36725113e+02</_>
    <_>
      6.97618713e+01 6.54500122e+01 1.14775467e+02 1.07650948e+02
      1.07831345e+02 7.49498596e+01 8.63008423e+01 8.27559509e+01</_>
    <_>
      1.52078430e+02 1.55207291e+02 1.35644730e+02 1.48720947e+02
      1.56693588e+02 1.37684982e+02 1.10860741e+02 1.15310646e+02</_>
    <_>
      7.75509415e+01 6.22941437e+01 1.66361969e+02 1.12321396e+02
      1.17358658e+02 1.09598801e+02 1.50202057e+02 1.14486366e+02</_>
    <_>
      5.85662422e+01 1.46372650e+02 8.76222000e+01 1.97723145e+02
      1.39298325e+02 1.23373276e+02 8.75007935e+01 1.98964462e+02</_>
    <_>
      4.57650452e+01 1.08745979e+02 3.31905174e+01 1.45692917e+02
      7.45398331e+01 4.69351540e+01 4.37135658e+01 1.19758827e+02</_>
    <_>
      5.87380486e+01 6.28607178e+01 7.95519562e+01 9.01046677e+01
      8.38311691e+01 9.41094284e+01 1.05162376e+02 9.05334473e+01</_>
    <_>
      1.25696945e+02 7.04970322e+01 1.71287186e+02 7.74003372e+01
      1.13229607e+02 1.03790672e+02 1.71182861e+02 9.19422455e+01</_>
    <_>
      5.90829773e+01 1.48194000e+02 9.35823059e+01 1.80741943e+02
      1.44948593e+02 9.53836823e+01 7.60859070e+01 1.51782242e+02</_>
    <_>
      1.68718994e+02 1.11694206e+02 2.07450943e+02 1.32854797e+02
      2.05127975e+02 1.58546722e+02 2.02287415e+02 9.48434982e+01</_>
    <_>
      9.47089767e+01 8.25807266e+01 1.32804153e+02 1.10956459e+02
      1.17895508e+02 8.55630951e+01 1.07960014e+02 1.11243484e+02</_>
    <_>
      7.53541336e+01 1.23624252e+02 1.96407013e+02 1.54728226e+02
      1.87899872e+02 1.71658432e+02 2.13759644e+02 1.56151123e+02</_>
    <_>
      4.02700195e+01 3.34336586e+01 3.57792854e+01 5.48310013e+01
      3.80453682e+01 2.32577534e+01 3.29210167e+01 6.81311340e+01</_>
    <_>
      5.51057205e+01 1.04104233e+02 1.01955139e+02 1.44406326e+02
      1.40519485e+02 1.11185608e+02 1.06286446e+02 1.48226639e+02</_>
    <_>
      3.53549805e+01 1.11631287e+02 5.46862564e+01 1.59604141e+02
      1.14344124e+02 1.23033440e+02 6.33893929e+01 1.51687622e+02</_>
    <_>
      9.88029556e+01 4.34210815e+01 1.55439392e+02 6.80438385e+01
      1.08564949e+02 1.11153778e+02 1.53341476e+02 7.20316467e+01</_>
    <_>
      7.46019745e+01 4.32996140e+01 1.20590271e+02 7.53905258e+01
      1.22118065e+02 9.15133743e+01 1.23674339e+02 7.33815918e+01</_>
    <_>
      3.69632149e+01 6.69124451e+01 7.30838165e+01 1.06493843e+02
      1.35325470e+02 8.78426056e+01 7.44740601e+01 6.96931839e+01</_>
    <_>
      1.11822807e+02 1.77874100e+02 1.56144104e+02 1.65483521e+02
      2.17626205e+02 1.81134247e+02 1.33000229e+02 1.42102325e+02</_>
    <_>
      6.99721222e+01 1.18714523e+02 1.25655869e+02 1.55386749e+02
      1.48739822e+02 1.36224060e+02 1.32891312e+02 1.64466827e+02</_>
    <_>
      6.50065536e+01 1.04522896e+02 1.12417061e+02 1.47086868e+02
      1.52035217e+02 8.45034866e+01 1.38336243e+02 1.11764870e+02</_>
    <_>
      1.27002617e+02 9.54106369e+01 1.89242279e+02 1.46641663e+02
      1.68199371e+02 1.10989967e+02 1.72504379e+02 1.22822693e+02</_>
    <_>
      2.75161877e+01 7.47508698e+01 3.37791405e+01 1.71786545e+02
      1.53523422e+02 7.41071243e+01 3.16201859e+01 1.39469650e+02</_>
    <_>
      1.00159637e+02 1.01203896e+02 1.08807579e+02 1.26352089e+02
      1.26832359e+02 1.27325539e+02 1.28974808e+02 1.27753960e+02</_>
    <_>
      6.18315926e+01 8.78599701e+01 1.24661629e+02 1.39358032e+02
      1.55206223e+02 1.35649292e+02 1.43828156e+02 1.54785324e+02</_>
    <_>
      1.49738831e+02 1.54169952e+02 1.22800934e+02 1.36606415e+02
      1.44745682e+02 1.46114670e+02 1.71621628e+02 1.38504044e+02</_>
    <_>
      9.09381027e+01 9.67455902e+01 1.52867874e+02 1.46114136e+02
      1.52964630e+02 1.03967407e+02 1.19276337e+02 9.60013046e+01</_>
    <_>
      1.39849411e+02 1.21870125e+02 1.88578751e+02 1.40033020e+02
      1.50263519e+02 1.12055733e+02 2.05098083e+02 1.07636375e+02</_>
    <_>
      1.12073509e+02 1.30846558e+02 1.92486221e+02 2.35580795e+02
      1.92829620e+02 1.76177643e+02 1.85007080e+02 2.16756989e+02</_>
    <_>
      4.39652672e+01 8.47117996e+01 5.35342331e+01 1.24164360e+02
      8.92971497e+01 4.48592148e+01 4.23821259e+01 8.55289230e+01</_>
    <_>
      6.45173264e+01 7.81005325e+01 9.07833557e+01 9.64992371e+01
      1.01099815e+02 9.16031494e+01 7.16245193e+01 8.24899139e+01</_>
    <_>
      8.34583054e+01 8.68536148e+01 1.14558044e+02 1.03750748e+02
      1.40136414e+02 9.45699005e+01 9.59345551e+01 8.79807281e+01</_>
    <_>
      8.76114197e+01 9.05915146e+01 1.90835495e+02 1.42224060e+02
      1.54579483e+02 1.29904755e+02 1.85598480e+02 1.81198181e+02</_>
    <_>
      6.33370361e+01 4.88748283e+01 9.48019104e+01 9.64697723e+01
      1.24632797e+02 6.98218765e+01 8.93922653e+01 8.07665710e+01</_>
    <_>
      1.37930649e+02 8.61182938e+01 1.86930038e+02 1.23451317e+02
      1.95140488e+02 1.39981903e+02 1.59623962e+02 9.68874359e+01</_>
    <_>
      4.33789215e+01 8.71428909e+01 6.00856514e+01 1.61914154e+02
      1.28169022e+02 1.09662704e+02 7.67452316e+01 1.68180389e+02</_>
    <_>
      9.46118393e+01 1.18626724e+02 1.19852821e+02 1.53110474e+02
      1.44340836e+02 1.25501602e+02 1.31971848e+02 1.58596695e+02</_>
    <_>
      9.64137802e+01 1.47677811e+02 1.04074669e+02 1.65901764e+02
      1.40837906e+02 7.01288376e+01 1.01761276e+02 1.57827347e+02</_>
    <_>
      9.39774628e+01 8.35182648e+01 1.20359619e+02 1.06410042e+02
      1.14388496e+02 1.03082497e+02 1.19655106e+02 1.06638939e+02</_>
    <_>
      6.94285507e+01 9.11353455e+01 1.03534927e+02 1.21553246e+02
      1.10121613e+02 7.56339569e+01 9.23038406e+01 1.08524513e+02</_>
    <_>
      9.54212952e+01 1.27998161e+02 1.03064140e+02 1.57587112e+02
      1.08324532e+02 1.16596497e+02 1.08082207e+02 1.45053909e+02</_>
    <_>
      2.22579300e+02 2.36618805e+02 2.29855621e+02 2.38121704e+02
      2.36098831e+02 2.28892624e+02 2.30388626e+02 2.32495239e+02</_>
    <_>
      7.78304596e+01 1.04977272e+02 1.40720108e+02 1.38728851e+02
      1.52986023e+02 1.29758209e+02 1.59072922e+02 1.43550629e+02</_>
    <_>
      6.84434662e+01 7.76766357e+01 1.80737183e+02 1.66524109e+02
      2.14533173e+02 1.52504211e+02 2.06840027e+02 1.69494919e+02</_>
    <_>
      6.26359711e+01 9.11338654e+01 6.99551010e+01 7.98181839e+01
      9.04826508e+01 7.98831558e+01 8.07438126e+01 1.00892464e+02</_>
    <_>
      5.17488785e+01 6.45670929e+01 8.49855270e+01 1.14712143e+02
      1.19468933e+02 7.60029221e+01 7.29494629e+01 9.52707901e+01</_>
    <_>
      8.34789505e+01 1.16546829e+02 1.12570610e+02 1.29547302e+02
      1.01921844e+02 1.26742973e+02 1.15470840e+02 1.05552299e+02</_>
    <_>
      1.07416603e+02 1.09988388e+02 1.57325287e+02 1.23751038e+02
      1.47491730e+02 7.17633133e+01 9.95346375e+01 7.38409653e+01</_>
    <_>
      6.98122101e+01 4.53888130e+01 1.06123711e+02 6.23814850e+01
      1.13641151e+02 6.49451294e+01 9.92634964e+01 5.18791962e+01</_>
    <_>
      7.06948624e+01 1.03570534e+02 9.75360260e+01 1.47324554e+02
      1.23559029e+02 8.16312943e+01 6.74214249e+01 1.37043610e+02</_>
    <_>
      9.62945862e+01 7.68818207e+01 1.16049713e+02 1.34641464e+02
      1.26628616e+02 1.15774445e+02 1.11656090e+02 1.38574997e+02</_>
    <_>
      7.91991119e+01 8.70394821e+01 1.28019958e+02 1.43940735e+02
      1.10333336e+02 1.00983147e+02 1.30830399e+02 1.43479843e+02</_>
    <_>
      9.70171432e+01 1.03618240e+02 1.13619644e+02 1.24820190e+02
      1.18384979e+02 1.07869514e+02 1.10757317e+02 1.17811607e+02</_>
    <_>
      1.09218201e+02 3.96144638e+01 1.56368484e+02 5.03561935e+01
      1.38803787e+02 1.13170013e+02 1.66230453e+02 8.10586014e+01</_>
    <_>
      7.91968613e+01 9.24447250e+01 1.02806854e+02 1.29705093e+02
      1.18614235e+02 1.08990303e+02 1.02226471e+02 1.23885529e+02</_>
    <_>
      4.81463203e+01 4.45172539e+01 9.28762207e+01 9.54870377e+01
      1.32832916e+02 7.96587524e+01 9.22269287e+01 9.84222260e+01</_>
    <_>
      1.20687912e+02 1.32293243e+02 1.76645691e+02 1.38457184e+02
      1.54583832e+02 1.37523666e+02 1.54907471e+02 1.20635384e+02</_>
    <_>
      9.90246887e+01 5.80706749e+01 1.45992111e+02 6.71796951e+01
      1.25954239e+02 9.06440125e+01 1.34334259e+02 7.96643524e+01</_>
    <_>
      9.12041321e+01 8.37282257e+01 1.32674881e+02 1.22844124e+02
      1.34389252e+02 1.13921112e+02 1.50717697e+02 1.46088242e+02</_>
    <_>
      1.24235435e+02 8.12008362e+01 1.77699295e+02 1.18981934e+02
      1.44755417e+02 1.02439270e+02 1.46807587e+02 1.01181694e+02</_>
    <_>
      8.09110031e+01 2.17228146e+01 1.33176865e+02 5.66082268e+01
      1.25429909e+02 8.54594955e+01 1.08721596e+02 3.71799469e+01</_>
    <_>
      9.67429886e+01 7.75396576e+01 1.00052261e+02 8.51671982e+01
      1.04966370e+02 9.39844894e+01 9.56305618e+01 7.97665100e+01</_>
    <_>
      1.14126114e+02 1.08834824e+02 1.68248627e+02 1.41640717e+02
      1.74051407e+02 1.22060799e+02 1.26670868e+02 8.79427567e+01</_>
    <_>
      1.29976562e+02 8.65416946e+01 1.78986938e+02 1.34957321e+02
      1.76249283e+02 8.12844009e+01 1.88927139e+02 1.76133041e+02</_>
    <_>
      9.51999969e+01 8.09827347e+01 1.89410904e+02 1.53843414e+02
      2.10784668e+02 1.36039780e+02 1.64469482e+02 1.60459167e+02</_>
    <_>
      4.34338989e+01 8.77108383e+01 1.54733200e+02 1.07093620e+02
      1.56819778e+02 1.20114769e+02 1.38237015e+02 9.03953781e+01</_>
    <_>
      5.93876114e+01 7.61996231e+01 7.09948730e+01 8.25321274e+01
      9.37240829e+01 6.19130745e+01 5.65755882e+01 6.73970261e+01</_>
    <_>
      5.75257607e+01 5.93575859e+01 7.67902985e+01 7.71453857e+01
      1.04693375e+02 5.96811829e+01 6.49416656e+01 5.72122841e+01</_>
    <_>
      9.59968643e+01 9.18784561e+01 1.12483498e+02 1.04021896e+02
      1.09333778e+02 8.93803482e+01 1.00822388e+02 1.26910011e+02</_>
    <_>
      5.38717690e+01 4.41716843e+01 1.08119095e+02 8.28430862e+01
      1.15558365e+02 7.27025986e+01 8.75098801e+01 6.77485046e+01</_>
    <_>
      5.65797501e+01 3.12449322e+01 8.23365097e+01 5.60279007e+01
      8.12756805e+01 5.87127953e+01 5.78224640e+01 4.23188629e+01</_>
    <_>
      1.02662720e+02 9.46593094e+01 1.32033447e+02 1.47611435e+02
      1.50009674e+02 7.18526993e+01 5.47720337e+01 6.08977661e+01</_>
    <_>
      8.40581741e+01 1.01128426e+02 1.12212372e+02 1.50826050e+02
      1.45460342e+02 1.31219391e+02 1.15609695e+02 1.63826645e+02</_>
    <_>
      8.27552719e+01 9.02504883e+01 1.46033997e+02 1.48019226e+02
      1.56228058e+02 9.21452942e+01 1.46479263e+02 1.33036957e+02</_>
    <_>
      5.85597610e+01 9.01968460e+01 8.46217346e+01 1.65793503e+02
      1.34864227e+02 1.04310081e+02 9.27640610e+01 1.81256500e+02</_>
    <_>
      4.76991882e+01 9.56978912e+01 6.85020447e+01 1.28738724e+02
      1.37443970e+02 8.34823456e+01 8.39176941e+01 1.19754410e+02</_>
    <_>
      8.94671631e+01 1.03292023e+02 1.48300781e+02 9.66688004e+01
      1.62060394e+02 9.01954803e+01 1.48870361e+02 1.34830795e+02</_>
    <_>
      6.32460556e+01 9.57683487e+01 1.06332077e+02 1.13717682e+02
      1.29421799e+02 1.40118195e+02 1.08330933e+02 1.28290314e+02</_>
    <_>
      9.74496155e+01 6.84703979e+01 1.25106117e+02 1.13106354e+02
      1.26208267e+02 8.53319931e+01 1.23144485e+02 1.06659668e+02</_>
    <_>
      3.24023895e+01 2.88750000e+01 1.69326416e+02 1.34280273e+02
      1.19172226e+02 1.05927338e+02 1.29173584e+02 1.65305222e+02</_>
    <_>
      1.12512329e+02 8.13403549e+01 1.77056412e+02 1.19665146e+02
      1.46244293e+02 9.93241272e+01 1.31255463e+02 8.48913345e+01</_>
    <_>
      5.91370964e+01 1.05691887e+02 1.37069855e+02 1.25194305e+02
      1.66102036e+02 8.94732437e+01 1.42832855e+02 1.47217133e+02</_>
    <_>
      1.44214035e+02 6.86855316e+01 2.14454269e+02 9.27125854e+01
      1.38292328e+02 1.47543732e+02 2.02996414e+02 1.02940132e+02</_>
    <_>
      4.17344055e+01 2.19164047e+01 8.40650024e+01 7.94483109e+01
      7.67243805e+01 9.86650543e+01 1.14860153e+02 1.14918060e+02</_>
    <_>
      7.76020203e+01 8.61194611e+01 8.31821747e+01 1.23151764e+02
      1.17050781e+02 1.09423325e+02 1.01604156e+02 1.55104874e+02</_>
    <_>
      9.99852905e+01 1.32871063e+02 1.21344231e+02 1.32169067e+02
      1.35860321e+02 1.23140205e+02 1.19823128e+02 1.60721008e+02</_>
    <_>
      9.09963913e+01 7.73386307e+01 1.14914757e+02 1.13029289e+02
      9.06533737e+01 8.55372086e+01 9.18630676e+01 8.08017197e+01</_>
    <_>
      1.12276672e+02 6.80020828e+01 1.46294083e+02 9.28733139e+01
      1.26038269e+02 8.40005875e+01 1.48674927e+02 1.15488167e+02</_>
    <_>
      6.12637711e+01 1.29487061e+02 7.60633774e+01 1.36602615e+02
      1.59383865e+02 1.22630760e+02 9.36557236e+01 1.54115967e+02</_>
    <_>
      8.42268448e+01 5.97852135e+01 1.50358109e+02 1.19072487e+02
      1.53741013e+02 9.13536377e+01 1.09913399e+02 1.02741013e+02</_>
    <_>
      4.67724342e+01 7.38960571e+01 5.30951042e+01 9.12765121e+01
      9.52829819e+01 9.59415359e+01 5.57814140e+01 8.76341476e+01</_>
    <_>
      6.00468979e+01 7.53033142e+01 8.81508636e+01 1.17333908e+02
      1.20972923e+02 7.28485031e+01 6.87467346e+01 8.76912689e+01</_>
    <_>
      7.41830521e+01 5.60073395e+01 1.28706833e+02 6.37886086e+01
      7.49655685e+01 5.31990051e+01 1.03314720e+02 6.18468857e+01</_>
    <_>
      1.00913208e+02 1.35651123e+02 9.30517960e+01 1.67072281e+02
      9.65556641e+01 1.31556717e+02 1.20731209e+02 1.75581284e+02</_>
    <_>
      9.78528671e+01 6.40355988e+01 7.56766586e+01 1.01934570e+02
      9.00261536e+01 7.77454529e+01 5.41484833e+01 9.04557114e+01</_>
    <_>
      9.35586700e+01 2.30134220e+01 1.51949890e+02 5.34479790e+01
      1.37252762e+02 1.11344139e+02 1.58113678e+02 8.10970840e+01</_>
    <_>
      6.10799713e+01 3.88485374e+01 9.97233200e+01 6.20637169e+01
      1.36080032e+02 6.19002914e+01 1.07854218e+02 1.11035713e+02</_>
    <_>
      4.61856384e+01 5.21739311e+01 1.21620522e+02 1.24594894e+02
      1.61867340e+02 7.42398758e+01 8.59747543e+01 6.87825851e+01</_>
    <_>
      7.98700104e+01 7.40620728e+01 1.50725677e+02 7.05846100e+01
      1.36561905e+02 8.54251404e+01 9.95357895e+01 1.09109695e+02</_>
    <_>
      1.00890221e+02 9.65856247e+01 1.61800842e+02 1.44992157e+02
      1.63790100e+02 7.56700134e+01 1.14289307e+02 9.91267014e+01</_>
    <_>
      6.96891556e+01 1.07032753e+02 1.09531975e+02 1.42134232e+02
      1.59457718e+02 1.26514221e+02 1.16970627e+02 1.54859344e+02</_>
    <_>
      9.30447083e+01 9.50311508e+01 1.47024841e+02 1.39768280e+02
      1.53892532e+02 9.59384155e+01 1.48235916e+02 1.43333115e+02</_>
    <_>
      1.61358948e+02 9.02487564e+01 1.53968781e+02 8.42721558e+01
      1.35380173e+02 8.57533340e+01 1.49125092e+02 5.45473671e+01</_>
    <_>
      1.22162331e+02 1.05019341e+02 1.40752014e+02 1.16078766e+02
      1.36649414e+02 1.13119225e+02 1.64279465e+02 1.18681450e+02</_>
    <_>
      6.09425278e+01 9.08625031e+01 6.91573944e+01 8.00968475e+01
      8.95953598e+01 7.90432205e+01 8.13465424e+01 1.00899506e+02</_>
    <_>
      5.67652016e+01 4.90897636e+01 6.26616898e+01 5.37332878e+01
      5.37292938e+01 3.86879311e+01 4.74508018e+01 3.65679665e+01</_>
    <_>
      4.18151321e+01 2.19754944e+01 7.20333481e+01 6.46055984e+01
      9.40256882e+01 7.56595306e+01 4.86032066e+01 5.44554977e+01</_>
    <_>
      9.77605438e+01 8.83658600e+01 1.46258209e+02 1.17537979e+02
      1.10298531e+02 8.19795685e+01 1.20464470e+02 8.75299377e+01</_>
    <_>
      1.03784302e+02 1.36261398e+02 1.88291046e+02 1.42809692e+02
      1.89293533e+02 1.63664581e+02 1.83066193e+02 1.56515839e+02</_>
    <_>
      5.02739563e+01 9.21143265e+01 9.43847504e+01 1.60255539e+02
      1.13552528e+02 5.53433304e+01 6.03965836e+01 1.19556122e+02</_>
    <_>
      5.26252441e+01 6.37129860e+01 9.00615692e+01 1.06961411e+02
      1.08919601e+02 8.56266708e+01 8.78176346e+01 1.05532082e+02</_>
    <_>
      1.27667580e+02 1.24720039e+02 1.61208054e+02 1.36157730e+02
      1.33123978e+02 1.13778824e+02 1.65048279e+02 1.32447327e+02</_>
    <_>
      6.10309105e+01 5.17287979e+01 1.06247276e+02 9.09102097e+01
      1.11299332e+02 8.82277374e+01 8.99582901e+01 7.62142868e+01</_>
    <_>
      7.19406509e+01 8.28237457e+01 1.18646660e+02 1.03662346e+02
      1.15251862e+02 9.68579178e+01 1.21723724e+02 1.07886276e+02</_>
    <_>
      1.08583549e+02 8.55810242e+01 1.82388443e+02 1.09995888e+02
      1.38737457e+02 1.39324768e+02 2.08969650e+02 1.17006485e+02</_>
    <_>
      9.75000000e+01 1.17706352e+02 1.53406311e+02 1.68665405e+02
      1.84066177e+02 1.36311172e+02 1.41653641e+02 1.14846069e+02</_>
    <_>
      8.78963928e+01 4.78536530e+01 1.55223633e+02 8.91547928e+01
      1.69579163e+02 9.97268982e+01 1.44830078e+02 7.07927628e+01</_>
    <_>
      1.55406387e+02 1.45494293e+02 1.83800079e+02 1.47933609e+02
      1.85317245e+02 1.50446320e+02 1.49887039e+02 1.18728622e+02</_>
    <_>
      3.93502083e+01 4.43440933e+01 6.34242973e+01 6.27392807e+01
      7.75265579e+01 7.27073364e+01 5.71956062e+01 4.53982582e+01</_>
    <_>
      9.02279663e+01 1.03876144e+02 1.16567368e+02 1.18824463e+02
      1.32911285e+02 1.07512138e+02 1.21488991e+02 1.25243546e+02</_>
    <_>
      1.07758392e+02 1.34006683e+02 1.53727158e+02 1.12232025e+02
      1.45230270e+02 1.43016312e+02 1.20401787e+02 9.64069214e+01</_>
    <_>
      1.43354950e+02 1.20478088e+02 1.54108856e+02 1.34025558e+02
      1.68926117e+02 1.41568802e+02 1.47522964e+02 1.11358200e+02</_>
    <_>
      5.03462410e+01 6.38832359e+01 7.05673676e+01 7.87309723e+01
      9.95267258e+01 5.32391014e+01 6.31469879e+01 4.96712341e+01</_>
    <_>
      7.45600281e+01 8.69824677e+01 9.99844666e+01 1.29467636e+02
      1.30867554e+02 9.52669296e+01 4.95030174e+01 1.51117935e+02</_>
    <_>
      6.91824722e+01 7.02453003e+01 6.04821663e+01 1.28610458e+02
      1.69683441e+02 7.82554932e+01 2.42964764e+01 1.03037521e+02</_>
    <_>
      9.66768951e+01 5.32705841e+01 1.57947388e+02 7.46298218e+01
      1.34497910e+02 6.44344025e+01 8.88854980e+01 4.86180725e+01</_>
    <_>
      6.72073441e+01 9.61479568e+01 1.03084267e+02 1.15069145e+02
      1.03173981e+02 9.74858475e+01 9.72044296e+01 1.18877678e+02</_>
    <_>
      1.03169548e+02 9.51414642e+01 1.18890091e+02 1.12374641e+02
      1.02369995e+02 8.59800110e+01 1.30801666e+02 1.05165749e+02</_></support_vectors>
  <decision_functions>
    <_>
      <sv_count>210</sv_count>
      <rho>-8.3478572555961317e-01</rho>
      <alpha>
        1.8715345080651424e+00 6.1662836971326653e+00
        4.6555101271147892e-01 1.5394720261250630e+00
        6.9733002644721220e-01 3.3700428599389542e-01
        5.2375446042913820e+00 2.0831897219155593e+00
        1.9630364001942573e+00 3.0527337737763197e+01
        1.2905270704686242e+00 5.4255007483940716e+00
        1.2722454621303780e+00 4.7568915303323172e+00
        1.3401452335628774e+01 1.7538980145970581e-01
        1.5066623653440807e+00 5.6863342342672385e-01
        3.8709591304414235e+00 2.3331975923810166e-01
        3.0025420843028225e+00 1.0938319168275346e+01
        8.9092316503075697e-01 1.2027988706898691e+00
        2.8340421847187343e+00 1.6958098975973639e+00
        6.4677073710285971e-02 1.3666710826211119e+01
        2.8438095073231784e+00 2.4771452337816489e+00
        4.5259994966888417e+00 6.6830743180841514e+00
        6.2328046799191092e+00 6.8623407087595312e-01
        1.2446587489348182e+00 1.6447470904366930e+00
        3.9372497431092008e+00 3.6590866631104109e+00
        6.8859823860320226e+00 2.0884185656055670e-01
        1.3531798859498652e+00 1.0940970505614636e+00
        2.5448581170717390e+00 6.7310493062309018e-02
        9.8523721171270466e+00 1.0008951085930664e+00
        2.1699672386707669e+00 1.4353062137893491e-01
        8.8793610403432766e+00 3.4080188073574678e+00
        5.4496616260455832e+00 1.2208229051880055e+00
        2.5196654366529478e+00 2.1016778584536957e+00
        1.1306568178781303e+01 1.4108231114447041e+00
        1.4510703026357100e-01 3.8352116368402713e+00
        2.6669312293907310e-01 1.2640311867285970e+01
        2.4006996855256126e+01 3.8589169748727586e-01
        1.0106352431348486e+00 2.2569954097613795e+01
        7.5667599331336373e+00 2.2257047000392287e+00
        2.6282013023300550e+00 2.4034738857680127e+00
        8.0261420158212504e-01 1.1911949054575839e+00
        1.5821995324786218e+00 6.8138344427328148e+00
        5.8214165006656824e+00 1.9109952434627304e+00
        4.7738351733425799e-01 1.9009501250676653e+00
        1.7711187184713541e+01 1.1066863234449196e+00
        1.7610386111894689e+00 3.5295219562662772e-01
        1.1089135820918896e+00 3.5142102235830159e+00
        8.5945266446589557e+00 4.5887109371367378e+00
        2.5769929677002085e-01 2.9364754062695091e+01
        4.0106779127031300e-01 2.1193976438861331e+00
        3.9690200582738542e+00 7.7357049229039978e+00
        2.6678255520695933e+00 8.3663466309432710e-01
        1.9751607126152829e-01 8.5029735969646414e-02
        8.1372457718820720e-02 2.8471542154411011e+00
        1.8377629383887539e-01 3.0485731739478350e-01
        4.6349356098193084e+00 1.3260297124927427e+00
        1.6030985552911101e+00 9.6178957711859248e-01
        1.6614132243166635e+00 6.1907465268585954e-02
        2.5176059836870204e+00 1.0780981428818615e+00
        1.5070930582189284e+01 1.1602468376383674e+01
        2.7899589698296617e-01 1.2573869627001744e+00
        3.0537898355978146e+00 1.3285824705019479e+01
        8.7111672008561114e-01 1.4391523308361549e+00
        3.4012650499283120e-03 4.2161614729789632e-01
        2.1526923977530221e+00 5.1994325088452675e-01
        1.7482850041592584e+00 5.7607353858781867e+00
        1.2476888362015996e+01 3.4828819585534077e+00
        9.4567080474137555e+00 1.4372866215751820e-01
        1.8220621484699411e+00 7.0389790177583684e+00
        1.2788802382793272e+00 1.3843892790165150e+01
        2.5994397564548595e+00 3.7537365731804595e-01
        1.9149114608937845e-01 8.2273956244142066e-01
        -7.0886075949367093e+00 -7.0886075949367093e+00
        -7.0886075949367093e+00 -7.0886075949367093e+00
        -7.0886075949367093e+00 -1.1117280448353346e+00
        -7.0886075949367093e+00 -7.0886075949367093e+00
        -7.0886075949367093e+00 -7.0886075949367093e+00
        -1.9630364001942573e+00 -7.0886075949367093e+00
        -7.0886075949367093e+00 -7.0886075949367093e+00
        -7.0886075949367093e+00 -7.0886075949367093e+00
        -7.0886075949367093e+00 -7.0886075949367093e+00
        -7.0886075949367093e+00 -7.0886075949367093e+00
        -7.0886075949367093e+00 -7.0886075949367093e+00
        -7.0886075949367093e+00 -7.0886075949367093e+00
        -7.0886075949367093e+00 -7.0886075949367093e+00
        -2.8874874464110514e+00 -2.7870331357320439e+00
        -7.0886075949367093e+00 -7.0886075949367093e+00
        -7.0886075949367093e+00 -7.0886075949367093e+00
        -7.0886075949367093e+00 -7.0886075949367093e+00
        -7.0886075949367093e+00 -7.0886075949367093e+00
        -7.0886075949367093e+00 -7.0886075949367093e+00
        -7.0886075949367093e+00 -7.0886075949367093e+00
        -7.0886075949367093e+00 -7.0886075949367093e+00
        -7.0886075949367093e+00 -7.0886075949367093e+00
        -7.0886075949367093e+00 -7.0886075949367093e+00
        -7.0886075949367093e+00 -7.0886075949367093e+00
        -7.0886075949367093e+00 -7.0886075949367093e+00
        -7.0886075949367093e+00 -7.0886075949367093e+00
        -7.0886075949367093e+00 -7.0886075949367093e+00
        -7.0886075949367093e+00 -3.4248765380247694e+00
        -7.0886075949367093e+00 -7.0886075949367093e+00
        -7.0886075949367093e+00 -7.0886075949367093e+00
        -7.0886075949367093e+00 -7.0886075949367093e+00
        -7.0886075949367093e+00 -7.0886075949367093e+00
        -7.0886075949367093e+00 -7.0886075949367093e+00
        -7.0886075949367093e+00 -7.0886075949367093e+00
        -7.0886075949367093e+00 -7.0886075949367093e+00
        -7.0886075949367093e+00 -7.0886075949367093e+00
        -7.0886075949367093e+00 -7.0886075949367093e+00
        -7.0886075949367093e+00 -7.0886075949367093e+00
        -5.5040720136562129e+00 -7.0886075949367093e+00</alpha>
      <index>
        209 208 207 206 205 204 203 202 201 200 199 78 79 80 81 82 83 84
        85 86 87 88 89 90 91 92 93 94 95 96 97 98 99 100 101 102 103 104
        105 106 107 108 109 110 111 112 113 114 115 116 117 118 119 120
        121 122 123 124 125 126 127 128 129 130 131 132 133 134 135 136
        137 138 139 140 141 142 143 144 145 146 147 148 149 150 151 152
        153 154 155 156 157 158 159 160 161 162 163 164 165 166 167 168
        169 170 171 172 173 174 175 176 177 178 179 180 181 182 183 184
        185 186 187 188 189 190 191 192 193 194 195 196 197 198 77 76 75
        74 73 72 71 70 69 68 67 66 65 64 63 62 61 60 59 58 57 56 55 54
        53 52 51 50 49 48 47 46 45 44 43 42 41 40 39 38 37 36 35 34 33
        32 31 30 29 28 27 26 25 24 23 22 21 20 19 18 17 16 15 14 13 12
        11 10 9 8 7 6 5 4 3 2 1 0</index></_></decision_functions></opencv_ml_svm>
</opencv_storage>
