<?xml version="1.0"?>
<opencv_storage>
<opencv_ml_svm>
  <format>3</format>
  <svmType>C_SVC</svmType>
  <kernel>
    <type>LINEAR</type></kernel>
  <C>1.0000000000000001e-01</C>
  <term_criteria><epsilon>1.1920928955078125e-07</epsilon>
    <iterations>1000</iterations></term_criteria>
  <var_count>8</var_count>
  <class_count>2</class_count>
  <class_labels type_id="opencv-matrix">
    <rows>2</rows>
    <cols>1</cols>
    <dt>i</dt>
    <data>
      0 1</data></class_labels>
  <class_weights type_id="opencv-matrix">
    <rows>2</rows>
    <cols>1</cols>
    <dt>d</dt>
    <data>
      9.2911392405063287e-01 7.0886075949367092e-02</data></class_weights>
  <sv_total>1</sv_total>
  <support_vectors>
    <_>
      2.62809917e-04 -3.99557361e-03 -2.64968071e-03 1.13042093e-04
      -2.91553140e-03 -4.62949090e-03 -4.74722218e-03 -2.59472709e-03</_></support_vectors>
  <uncompressed_sv_total>62</uncompressed_sv_total>
  <uncompressed_support_vectors>
    <_>
      5.34775734e+01 9.56169815e+01 6.00394745e+01 1.62295761e+02
      1.25288841e+02 1.07747368e+02 8.48156815e+01 1.72551468e+02</_>
    <_>
      7.88984680e+01 1.50156387e+02 7.83639526e+01 1.51904800e+02
      1.23859917e+02 7.64112625e+01 7.02260513e+01 1.56605103e+02</_>
    <_>
      1.33303329e+02 1.44042557e+02 1.49858307e+02 1.44623718e+02
      1.70711029e+02 1.43654999e+02 1.52756622e+02 1.23744827e+02</_>
    <_>
      7.70389633e+01 1.16010864e+02 1.12169098e+02 1.54921005e+02
      1.54443100e+02 1.15290726e+02 1.15446671e+02 1.70634491e+02</_>
    <_>
      1.24574280e+02 1.07073997e+02 1.33447205e+02 1.25932640e+02
      1.39416229e+02 1.34912216e+02 1.13947937e+02 1.21889275e+02</_>
    <_>
      6.17364693e+01 1.09635475e+02 8.47855759e+01 1.70722595e+02
      1.19695656e+02 8.28624649e+01 5.91868439e+01 1.70131302e+02</_>
    <_>
      2.05075574e+00 4.03394661e+01 5.67576170e+00 1.18494026e+02
      8.41928558e+01 3.41892624e+01 1.11842644e+00 3.71105194e+01</_>
    <_>
      1.36647476e+02 9.34716339e+01 1.80243179e+02 1.35236923e+02
      1.55582443e+02 1.03729904e+02 1.64069763e+02 1.20852989e+02</_>
    <_>
      1.02057426e+02 1.15630104e+02 1.62766296e+02 1.65848099e+02
      1.54157669e+02 1.20671005e+02 1.61066299e+02 1.45207672e+02</_>
    <_>
      1.25597366e+02 1.06133232e+02 1.96941635e+02 1.25221886e+02
      2.11393173e+02 1.50379288e+02 1.79121567e+02 9.37763062e+01</_>
    <_>
      1.72463627e+01 1.97014637e+01 2.97499580e+01 4.37138214e+01
      5.19322205e+01 1.19801636e+01 1.20930119e+01 1.10284433e+01</_>
    <_>
      5.65467834e+01 9.64341888e+01 9.14956512e+01 1.47473053e+02
      1.37154633e+02 1.34740234e+02 1.08994614e+02 1.56976868e+02</_>
    <_>
      1.94976616e+01 2.28781948e+01 2.03512707e+01 2.45584888e+01
      2.70016441e+01 1.97717876e+01 1.78703747e+01 2.48097210e+01</_>
    <_>
      9.01819763e+01 8.63047314e+00 1.43839142e+02 2.59860897e+01
      9.95584717e+01 5.57931023e+01 1.30431839e+02 2.77292137e+01</_>
    <_>
      1.39734848e+02 1.35716385e+02 1.78419830e+02 1.19720100e+02
      1.57698654e+02 1.44321899e+02 1.66513733e+02 8.92203751e+01</_>
    <_>
      1.46779068e+02 4.30696754e+01 2.08638443e+02 6.01883316e+01
      1.57281860e+02 8.95059814e+01 1.65929504e+02 4.60127335e+01</_>
    <_>
      5.75443039e+01 5.05777740e+01 6.95154877e+01 7.39816208e+01
      8.58962708e+01 7.24706650e+01 6.82667847e+01 6.29924889e+01</_>
    <_>
      4.57650452e+01 1.08745979e+02 3.31905174e+01 1.45692917e+02
      7.45398331e+01 4.69351540e+01 4.37135658e+01 1.19758827e+02</_>
    <_>
      2.45679413e+02 1.23594772e+02 2.41572586e+02 1.47150040e+02
      1.59306702e+02 1.94915924e+02 2.35312119e+02 1.71813278e+02</_>
    <_>
      1.54161713e+02 6.47965393e+01 2.02807846e+02 9.61737061e+01
      1.69165497e+02 1.32875854e+02 1.87141998e+02 9.81916046e+01</_>
    <_>
      1.68718994e+02 1.11694206e+02 2.07450943e+02 1.32854797e+02
      2.05127975e+02 1.58546722e+02 2.02287415e+02 9.48434982e+01</_>
    <_>
      7.52981720e+01 1.75376755e+02 1.56960037e+02 2.10366821e+02
      2.31072037e+02 2.24442993e+02 2.11641342e+02 2.10167816e+02</_>
    <_>
      1.22937851e+02 4.63883057e+01 1.34162857e+02 4.08284645e+01
      8.79747772e+01 6.32016792e+01 7.35575562e+01 3.96706848e+01</_>
    <_>
      4.02700195e+01 3.34336586e+01 3.57792854e+01 5.48310013e+01
      3.80453682e+01 2.32577534e+01 3.29210167e+01 6.81311340e+01</_>
    <_>
      1.42593048e+02 1.42146759e+02 1.59643387e+02 1.77130386e+02
      1.67434296e+02 1.54427277e+02 1.56338547e+02 1.84201035e+02</_>
    <_>
      2.75161877e+01 7.47508698e+01 3.37791405e+01 1.71786545e+02
      1.53523422e+02 7.41071243e+01 3.16201859e+01 1.39469650e+02</_>
    <_>
      4.39652672e+01 8.47117996e+01 5.35342331e+01 1.24164360e+02
      8.92971497e+01 4.48592148e+01 4.23821259e+01 8.55289230e+01</_>
    <_>
      2.20259140e+02 7.98490982e+01 2.25564850e+02 1.47151154e+02
      2.13090088e+02 2.17608292e+02 2.19612289e+02 1.21662888e+02</_>
    <_>
      2.22579300e+02 2.36618805e+02 2.29855621e+02 2.38121704e+02
      2.36098831e+02 2.28892624e+02 2.30388626e+02 2.32495239e+02</_>
    <_>
      6.84434662e+01 7.76766357e+01 1.80737183e+02 1.66524109e+02
      2.14533173e+02 1.52504211e+02 2.06840027e+02 1.69494919e+02</_>
    <_>
      4.52890635e+00 3.24874535e+01 6.15402336e+01 1.28624496e+02
      1.52859009e+02 1.38476654e+02 1.10054176e+02 1.79018051e+02</_>
    <_>
      1.73643875e+01 2.60797920e+01 8.47565918e+01 1.07716484e+02
      1.42955994e+02 1.17306458e+02 1.43137344e+02 1.78326797e+02</_>
    <_>
      6.98122101e+01 4.53888130e+01 1.06123711e+02 6.23814850e+01
      1.13641151e+02 6.49451294e+01 9.92634964e+01 5.18791962e+01</_>
    <_>
      1.09218201e+02 3.96144638e+01 1.56368484e+02 5.03561935e+01
      1.38803787e+02 1.13170013e+02 1.66230453e+02 8.10586014e+01</_>
    <_>
      8.09110031e+01 2.17228146e+01 1.33176865e+02 5.66082268e+01
      1.25429909e+02 8.54594955e+01 1.08721596e+02 3.71799469e+01</_>
    <_>
      5.65797501e+01 3.12449322e+01 8.23365097e+01 5.60279007e+01
      8.12756805e+01 5.87127953e+01 5.78224640e+01 4.23188629e+01</_>
    <_>
      1.30581680e+02 1.08650963e+02 1.95190857e+02 1.63502045e+02
      1.75983932e+02 9.40042953e+01 2.25454834e+02 1.95092651e+02</_>
    <_>
      5.39160881e+01 9.15046310e+01 1.48850662e+02 2.03227448e+02
      2.09781891e+02 1.92672974e+02 1.92482132e+02 2.27808578e+02</_>
    <_>
      5.39250107e+01 4.78886070e+01 1.26146202e+02 1.03645912e+02
      1.33772919e+02 5.28500938e+01 7.84022980e+01 7.13765488e+01</_>
    <_>
      1.64114838e+02 1.62315781e+02 2.28687683e+02 2.21197830e+02
      2.41485489e+02 2.29331604e+02 2.42069717e+02 2.38198868e+02</_>
    <_>
      1.44214035e+02 6.86855316e+01 2.14454269e+02 9.27125854e+01
      1.38292328e+02 1.47543732e+02 2.02996414e+02 1.02940132e+02</_>
    <_>
      4.77924995e+01 1.84073975e+02 1.25059303e+02 2.07170715e+02
      1.89414154e+02 1.55804398e+02 1.56284256e+02 2.09732010e+02</_>
    <_>
      1.17140030e+02 1.09611229e+02 1.29402359e+02 1.07819313e+02
      1.38840576e+02 6.33281479e+01 7.28456726e+01 4.73323212e+01</_>
    <_>
      2.26118103e+02 2.11909225e+02 2.35749680e+02 2.27381546e+02
      2.33718231e+02 2.17299286e+02 2.34560654e+02 2.33785889e+02</_>
    <_>
      1.24074287e+02 3.43374100e+01 1.87252274e+02 1.05899635e+02
      1.94709427e+02 1.46898636e+02 1.90464996e+02 1.15154076e+02</_>
    <_>
      7.41830521e+01 5.60073395e+01 1.28706833e+02 6.37886086e+01
      7.49655685e+01 5.31990051e+01 1.03314720e+02 6.18468857e+01</_>
    <_>
      9.35586700e+01 2.30134220e+01 1.51949890e+02 5.34479790e+01
      1.37252762e+02 1.11344139e+02 1.58113678e+02 8.10970840e+01</_>
    <_>
      6.10799713e+01 3.88485374e+01 9.97233200e+01 6.20637169e+01
      1.36080032e+02 6.19002914e+01 1.07854218e+02 1.11035713e+02</_>
    <_>
      4.61856384e+01 5.21739311e+01 1.21620522e+02 1.24594894e+02
      1.61867340e+02 7.42398758e+01 8.59747543e+01 6.87825851e+01</_>
    <_>
      5.90152855e+01 7.55887299e+01 9.94568253e+01 1.29155914e+02
      1.35850525e+02 7.34298096e+01 4.43537445e+01 6.16691742e+01</_>
    <_>
      1.61358948e+02 9.02487564e+01 1.53968781e+02 8.42721558e+01
      1.35380173e+02 8.57533340e+01 1.49125092e+02 5.45473671e+01</_>
    <_>
      1.43064026e+02 7.62071838e+01 2.07375015e+02 1.31661911e+02
      1.55505356e+02 1.27619591e+02 2.14209366e+02 1.36659866e+02</_>
    <_>
      5.67652016e+01 4.90897636e+01 6.26616898e+01 5.37332878e+01
      5.37292938e+01 3.86879311e+01 4.74508018e+01 3.65679665e+01</_>
    <_>
      4.18151321e+01 2.19754944e+01 7.20333481e+01 6.46055984e+01
      9.40256882e+01 7.56595306e+01 4.86032066e+01 5.44554977e+01</_>
    <_>
      7.19076691e+01 1.67201889e+02 8.51584320e+01 2.08943741e+02
      1.78377625e+02 1.26817123e+02 7.48742599e+01 1.98418915e+02</_>
    <_>
      9.58733749e+01 1.50775284e+02 1.88270554e+02 2.24422195e+02
      2.02566818e+02 1.73988342e+02 1.95809738e+02 2.22518097e+02</_>
    <_>
      3.93502083e+01 4.43440933e+01 6.34242973e+01 6.27392807e+01
      7.75265579e+01 7.27073364e+01 5.71956062e+01 4.53982582e+01</_>
    <_>
      1.14595398e+02 5.64382782e+01 2.18454605e+02 1.90163513e+02
      2.28823120e+02 2.19057816e+02 2.34962601e+02 2.06083557e+02</_>
    <_>
      5.03462410e+01 6.38832359e+01 7.05673676e+01 7.87309723e+01
      9.95267258e+01 5.32391014e+01 6.31469879e+01 4.96712341e+01</_>
    <_>
      1.06848877e+02 2.22511246e+02 1.57756546e+02 2.24569550e+02
      2.08044373e+02 1.77964050e+02 1.68437836e+02 2.17757736e+02</_>
    <_>
      9.66768951e+01 5.32705841e+01 1.57947388e+02 7.46298218e+01
      1.34497910e+02 6.44344025e+01 8.88854980e+01 4.86180725e+01</_>
    <_>
      4.73076019e+01 1.54609253e+02 6.30536804e+01 1.84942719e+02
      1.58780899e+02 1.05180977e+02 9.81804199e+01 1.85158875e+02</_></uncompressed_support_vectors>
  <decision_functions>
    <_>
      <sv_count>1</sv_count>
      <rho>-2.9549527533505495e+00</rho>
      <alpha>
        1.</alpha>
      <index>
        0</index></_></decision_functions></opencv_ml_svm>
</opencv_storage>
