<?xml version="1.0"?>
<opencv_storage>
<opencv_ml_svm>
  <format>3</format>
  <svmType>C_SVC</svmType>
  <kernel>
    <type>LINEAR</type></kernel>
  <C>1.0000000000000001e-01</C>
  <term_criteria><epsilon>1.1920928955078125e-07</epsilon>
    <iterations>1000</iterations></term_criteria>
  <var_count>8</var_count>
  <class_count>2</class_count>
  <class_labels type_id="opencv-matrix">
    <rows>2</rows>
    <cols>1</cols>
    <dt>i</dt>
    <data>
      0 1</data></class_labels>
  <class_weights type_id="opencv-matrix">
    <rows>2</rows>
    <cols>1</cols>
    <dt>d</dt>
    <data>
      8.4297520661157022e-01 1.5702479338842976e-01</data></class_weights>
  <sv_total>1</sv_total>
  <support_vectors>
    <_>
      8.67625873e-04 5.20966190e-04 -2.05959147e-03 -1.13931263e-03
      -2.20252015e-03 -1.23830047e-03 -9.96323884e-04 -5.31173125e-03</_></support_vectors>
  <uncompressed_sv_total>18</uncompressed_sv_total>
  <uncompressed_support_vectors>
    <_>
      2.20259140e+02 7.98490982e+01 2.25564850e+02 1.47151154e+02
      2.13090088e+02 2.17608292e+02 2.19612289e+02 1.21662888e+02</_>
    <_>
      2.05075574e+00 4.03394661e+01 5.67576170e+00 1.18494026e+02
      8.41928558e+01 3.41892624e+01 1.11842644e+00 3.71105194e+01</_>
    <_>
      1.86111832e+02 1.76923416e+02 2.23238235e+02 2.10479187e+02
      2.17602570e+02 2.05541534e+02 2.17743881e+02 2.12130569e+02</_>
    <_>
      1.94976616e+01 2.28781948e+01 2.03512707e+01 2.45584888e+01
      2.70016441e+01 1.97717876e+01 1.78703747e+01 2.48097210e+01</_>
    <_>
      8.01495285e+01 8.83396149e+01 1.68713089e+02 2.27175278e+02
      2.01794067e+02 1.97942825e+02 1.75823746e+02 2.27535187e+02</_>
    <_>
      1.72463627e+01 1.97014637e+01 2.97499580e+01 4.37138214e+01
      5.19322205e+01 1.19801636e+01 1.20930119e+01 1.10284433e+01</_>
    <_>
      7.70251465e+01 9.15487366e+01 1.24584557e+02 1.24681099e+02
      1.47322830e+02 1.18933968e+02 1.28236450e+02 1.40765167e+02</_>
    <_>
      3.00416660e+01 3.65478973e+01 7.05644608e+01 8.34390564e+01
      1.48113693e+02 1.34664597e+02 9.19259567e+01 1.02372894e+02</_>
    <_>
      2.22579300e+02 2.36618805e+02 2.29855621e+02 2.38121704e+02
      2.36098831e+02 2.28892624e+02 2.30388626e+02 2.32495239e+02</_>
    <_>
      4.57650452e+01 1.08745979e+02 3.31905174e+01 1.45692917e+02
      7.45398331e+01 4.69351540e+01 4.37135658e+01 1.19758827e+02</_>
    <_>
      9.27162552e+01 5.19754257e+01 1.49109924e+02 1.06824692e+02
      1.46040878e+02 1.42728638e+02 1.52418884e+02 1.17897591e+02</_>
    <_>
      5.65797501e+01 3.12449322e+01 8.23365097e+01 5.60279007e+01
      8.12756805e+01 5.87127953e+01 5.78224640e+01 4.23188629e+01</_>
    <_>
      2.26118103e+02 2.11909225e+02 2.35749680e+02 2.27381546e+02
      2.33718231e+02 2.17299286e+02 2.34560654e+02 2.33785889e+02</_>
    <_>
      1.42554611e+02 1.21799957e+02 2.05947586e+02 2.13879639e+02
      2.40293381e+02 2.19459427e+02 2.01387482e+02 2.28707626e+02</_>
    <_>
      2.76294460e+01 8.52369919e+01 4.27042885e+01 1.61159393e+02
      1.10761078e+02 8.13098297e+01 7.71618576e+01 1.47971039e+02</_>
    <_>
      5.67652016e+01 4.90897636e+01 6.26616898e+01 5.37332878e+01
      5.37292938e+01 3.86879311e+01 4.74508018e+01 3.65679665e+01</_>
    <_>
      2.61163177e+01 2.62152462e+01 1.11882874e+02 1.01268349e+02
      1.08541687e+02 8.67083817e+01 1.07457298e+02 9.54798203e+01</_>
    <_>
      1.14595398e+02 5.64382782e+01 2.18454605e+02 1.90163513e+02
      2.28823120e+02 2.19057816e+02 2.34962601e+02 2.06083557e+02</_></uncompressed_support_vectors>
  <decision_functions>
    <_>
      <sv_count>1</sv_count>
      <rho>-1.8017759295856379e+00</rho>
      <alpha>
        1.</alpha>
      <index>
        0</index></_></decision_functions></opencv_ml_svm>
</opencv_storage>
