<?xml version="1.0"?>
<opencv_storage>
<opencv_ml_svm>
  <format>3</format>
  <svmType>C_SVC</svmType>
  <kernel>
    <type>RBF</type>
    <gamma>1.0000000000000000e-04</gamma></kernel>
  <C>100.</C>
  <term_criteria><epsilon>1.1920928955078125e-07</epsilon>
    <iterations>1000</iterations></term_criteria>
  <var_count>8</var_count>
  <class_count>2</class_count>
  <class_labels type_id="opencv-matrix">
    <rows>2</rows>
    <cols>1</cols>
    <dt>i</dt>
    <data>
      0 1</data></class_labels>
  <class_weights type_id="opencv-matrix">
    <rows>2</rows>
    <cols>1</cols>
    <dt>d</dt>
    <data>
      8.4297520661157022e-01 1.5702479338842976e-01</data></class_weights>
  <sv_total>328</sv_total>
  <support_vectors>
    <_>
      8.11901321e+01 7.77864227e+01 1.26734177e+02 1.30183990e+02
      1.65408371e+02 7.57452469e+01 8.54542465e+01 9.33794098e+01</_>
    <_>
      8.24939041e+01 8.11418610e+01 1.17190163e+02 9.53614655e+01
      1.09503700e+02 1.08017464e+02 8.12866821e+01 7.82537460e+01</_>
    <_>
      1.31090240e+02 1.62410980e+02 2.06599838e+02 1.87722549e+02
      2.10078796e+02 1.55500778e+02 2.04847687e+02 1.35565796e+02</_>
    <_>
      5.61642342e+01 9.86489029e+01 8.60768204e+01 1.24135391e+02
      1.16897491e+02 9.11050873e+01 8.57791138e+01 1.29201202e+02</_>
    <_>
      6.87328033e+01 4.16619949e+01 9.38580933e+01 5.16564789e+01
      8.79187393e+01 5.93493080e+01 8.74829865e+01 5.11115189e+01</_>
    <_>
      5.34775734e+01 9.56169815e+01 6.00394745e+01 1.62295761e+02
      1.25288841e+02 1.07747368e+02 8.48156815e+01 1.72551468e+02</_>
    <_>
      5.22343102e+01 7.00383224e+01 1.08370316e+02 1.29791580e+02
      1.22655914e+02 7.08110809e+01 8.11424255e+01 1.00976189e+02</_>
    <_>
      5.87380486e+01 6.28607178e+01 7.95519562e+01 9.01046677e+01
      8.38311691e+01 9.41094284e+01 1.05162376e+02 9.05334473e+01</_>
    <_>
      5.52784004e+01 1.24950745e+02 8.73559036e+01 1.67256058e+02
      1.29168488e+02 9.56827011e+01 8.95643845e+01 1.38700195e+02</_>
    <_>
      9.55063858e+01 7.81245651e+01 1.38009247e+02 1.29792862e+02
      1.51683762e+02 1.12401138e+02 1.38720627e+02 1.12430786e+02</_>
    <_>
      6.77875443e+01 7.18015289e+01 9.28978653e+01 1.06318954e+02
      1.11980202e+02 7.91788177e+01 8.78845978e+01 1.01833649e+02</_>
    <_>
      8.56630554e+01 8.42966003e+01 1.06900925e+02 1.03221916e+02
      1.13451134e+02 8.91768646e+01 1.11229965e+02 1.00470413e+02</_>
    <_>
      2.79124069e+01 6.33850746e+01 5.68280792e+01 1.03957474e+02
      1.01996735e+02 7.52419968e+01 5.05954208e+01 7.43292084e+01</_>
    <_>
      9.59561234e+01 1.30119751e+02 1.36037857e+02 1.78624329e+02
      2.03557053e+02 8.90063095e+01 8.79482193e+01 1.38482452e+02</_>
    <_>
      9.11835938e+01 1.01919220e+02 1.32064178e+02 8.18116226e+01
      1.06643921e+02 8.48726349e+01 1.32419907e+02 7.16752396e+01</_>
    <_>
      4.51501389e+01 5.44520760e+01 1.04859444e+02 1.09033737e+02
      1.16541542e+02 8.41668472e+01 9.69314575e+01 9.40202637e+01</_>
    <_>
      5.03890152e+01 9.42094040e+01 2.97939205e+01 1.57014633e+02
      1.13084511e+02 6.53278351e+01 6.93183613e+00 1.07903824e+02</_>
    <_>
      5.75728569e+01 7.19937134e+01 9.38528900e+01 1.31766876e+02
      1.30000732e+02 8.82170792e+01 8.01532822e+01 1.11721474e+02</_>
    <_>
      6.20713310e+01 6.69429169e+01 8.51318512e+01 7.87660980e+01
      8.49806290e+01 7.25281448e+01 8.81165085e+01 8.61973267e+01</_>
    <_>
      4.28465004e+01 1.25609909e+02 6.45530548e+01 1.58894745e+02
      1.45907898e+02 9.89922256e+01 6.49616241e+01 1.39073212e+02</_>
    <_>
      6.37516022e+01 5.46100082e+01 9.37022781e+01 6.50624084e+01
      1.13401413e+02 8.82964859e+01 1.02993958e+02 7.20163193e+01</_>
    <_>
      1.05356140e+02 9.33758774e+01 1.79270142e+02 1.42986221e+02
      1.91655228e+02 1.22476501e+02 1.38269821e+02 1.10877563e+02</_>
    <_>
      7.29453049e+01 4.56532249e+01 9.07860031e+01 5.80997162e+01
      9.29064941e+01 6.54909592e+01 9.42381592e+01 7.89331436e+01</_>
    <_>
      4.03977966e+01 8.76032639e+01 8.63763962e+01 1.42266617e+02
      1.23266968e+02 8.91741943e+01 8.34363861e+01 1.41186157e+02</_>
    <_>
      7.91174393e+01 8.22163925e+01 1.06675385e+02 1.06958031e+02
      1.47273956e+02 1.22123962e+02 1.16225525e+02 1.15809166e+02</_>
    <_>
      1.24574280e+02 1.07073997e+02 1.33447205e+02 1.25932640e+02
      1.39416229e+02 1.34912216e+02 1.13947937e+02 1.21889275e+02</_>
    <_>
      3.95071144e+01 6.58475494e+01 8.74157715e+01 1.18099716e+02
      1.28655685e+02 7.29086304e+01 8.86924362e+01 1.08704063e+02</_>
    <_>
      3.53549805e+01 1.11631287e+02 5.46862564e+01 1.59604141e+02
      1.14344124e+02 1.23033440e+02 6.33893929e+01 1.51687622e+02</_>
    <_>
      6.09124565e+01 5.09232216e+01 1.01150215e+02 7.11203766e+01
      1.00497177e+02 6.60220261e+01 9.27150269e+01 6.52593765e+01</_>
    <_>
      8.40237045e+01 4.67766418e+01 1.08679436e+02 5.46779900e+01
      1.04501877e+02 6.60325775e+01 7.92840805e+01 4.42861443e+01</_>
    <_>
      6.20618324e+01 8.93624649e+01 1.41869873e+02 1.89574921e+02
      1.72350006e+02 1.13789192e+02 9.60487061e+01 1.55874084e+02</_>
    <_>
      2.58775787e+01 5.97164230e+01 8.25686340e+01 8.33050842e+01
      1.09827515e+02 7.37612381e+01 3.89321671e+01 4.04213409e+01</_>
    <_>
      1.02993942e+02 8.25441742e+01 1.25592140e+02 1.32986786e+02
      1.30825577e+02 1.12231743e+02 1.16969017e+02 1.34571884e+02</_>
    <_>
      5.27663536e+01 6.89589996e+01 1.08407288e+02 1.31087158e+02
      1.24181396e+02 7.22445145e+01 8.17188644e+01 1.03385452e+02</_>
    <_>
      7.91444473e+01 9.09547272e+01 1.26296341e+02 1.19738503e+02
      1.47676971e+02 1.08660690e+02 1.24887894e+02 1.42953094e+02</_>
    <_>
      2.58923721e+01 5.65635338e+01 1.07139374e+02 1.08537720e+02
      1.19449730e+02 1.04666473e+02 1.10938263e+02 1.05547287e+02</_>
    <_>
      6.17364693e+01 1.09635475e+02 8.47855759e+01 1.70722595e+02
      1.19695656e+02 8.28624649e+01 5.91868439e+01 1.70131302e+02</_>
    <_>
      2.96075916e+01 5.34820175e+01 4.44058533e+01 7.39105225e+01
      8.50592346e+01 5.44390755e+01 3.93607635e+01 4.82156601e+01</_>
    <_>
      7.38779373e+01 8.87261429e+01 1.07034409e+02 1.39698196e+02
      1.52940567e+02 1.20373131e+02 1.59769104e+02 1.28879272e+02</_>
    <_>
      3.18685741e+01 2.13624821e+01 5.86536064e+01 6.75367203e+01
      6.67314377e+01 3.72359734e+01 3.70442619e+01 3.58302612e+01</_>
    <_>
      8.91616898e+01 1.05747314e+02 1.46958603e+02 1.63292191e+02
      2.05776443e+02 8.45721664e+01 1.00615852e+02 1.25468887e+02</_>
    <_>
      3.28340950e+01 4.03906670e+01 5.32090263e+01 5.57423782e+01
      5.93041115e+01 3.85229721e+01 6.02112389e+01 6.15927467e+01</_>
    <_>
      2.20259140e+02 7.98490982e+01 2.25564850e+02 1.47151154e+02
      2.13090088e+02 2.17608292e+02 2.19612289e+02 1.21662888e+02</_>
    <_>
      9.68153381e+01 1.08392326e+02 1.75040314e+02 1.38973587e+02
      1.45017670e+02 1.38573807e+02 1.86720337e+02 1.35720367e+02</_>
    <_>
      8.35315247e+01 7.39225235e+01 1.12704277e+02 1.04905663e+02
      1.20684799e+02 8.66224747e+01 1.19008263e+02 1.13144089e+02</_>
    <_>
      6.70188675e+01 1.07401665e+02 9.84629288e+01 1.26450180e+02
      1.25693970e+02 1.19987389e+02 1.04123207e+02 1.31236115e+02</_>
    <_>
      5.99923325e+01 5.70569801e+01 9.89459534e+01 8.88216858e+01
      1.00193649e+02 9.32455215e+01 1.02697807e+02 9.24213867e+01</_>
    <_>
      4.64716644e+01 4.36685600e+01 9.37910004e+01 8.10553665e+01
      1.18219261e+02 9.31463699e+01 7.56228867e+01 5.96837845e+01</_>
    <_>
      7.27122726e+01 9.45470352e+01 1.22077820e+02 1.32771652e+02
      1.41320007e+02 1.05369148e+02 1.16442680e+02 1.41417160e+02</_>
    <_>
      1.44699997e+02 1.22273232e+02 1.51410233e+02 1.44961487e+02
      1.62776581e+02 1.48806458e+02 1.80237991e+02 1.80915375e+02</_>
    <_>
      9.04141922e+01 5.67511978e+01 1.62138657e+02 1.32798477e+02
      1.77762680e+02 8.47193451e+01 1.11650848e+02 7.98400497e+01</_>
    <_>
      8.96079330e+01 6.54241714e+01 1.82721725e+02 1.22680313e+02
      1.60948517e+02 8.96793289e+01 1.72719330e+02 1.36641876e+02</_>
    <_>
      7.26897659e+01 1.06387375e+02 1.11351585e+02 1.52259827e+02
      1.38515823e+02 1.06890282e+02 1.11833824e+02 1.51376572e+02</_>
    <_>
      3.53549805e+01 1.11631287e+02 5.46862564e+01 1.59604141e+02
      1.14344124e+02 1.23033440e+02 6.33893929e+01 1.51687622e+02</_>
    <_>
      9.84786530e+01 1.19196526e+02 1.52944473e+02 1.38930222e+02
      1.64009399e+02 1.29009445e+02 1.39306793e+02 1.29975082e+02</_>
    <_>
      2.98236523e+01 3.56514359e+01 3.69391823e+01 4.56249123e+01
      5.03713570e+01 4.34132729e+01 3.74226379e+01 4.33583908e+01</_>
    <_>
      9.26731110e+01 7.58693085e+01 1.08807961e+02 9.64554672e+01
      1.10153847e+02 9.30521469e+01 1.04501228e+02 1.04338814e+02</_>
    <_>
      6.44546890e+01 8.28011475e+01 8.68814545e+01 1.00525414e+02
      1.15630951e+02 1.05949890e+02 8.58771820e+01 1.17443657e+02</_>
    <_>
      1.24647583e+02 8.72646332e+01 1.52839081e+02 7.70323639e+01
      1.38676163e+02 9.79036255e+01 1.43341858e+02 7.60426788e+01</_>
    <_>
      1.41649399e+02 6.32272720e+01 1.71418747e+02 1.39399994e+02
      1.98806870e+02 1.19612900e+02 1.80079422e+02 1.19727203e+02</_>
    <_>
      5.61142082e+01 9.58314896e+01 7.98967438e+01 1.43769119e+02
      1.72645935e+02 9.77808838e+01 7.56356812e+01 1.56443512e+02</_>
    <_>
      5.98304749e+01 6.60019531e+01 1.03187035e+02 1.04837662e+02
      1.21695862e+02 8.53049164e+01 8.83956833e+01 1.00753143e+02</_>
    <_>
      1.86111832e+02 1.76923416e+02 2.23238235e+02 2.10479187e+02
      2.17602570e+02 2.05541534e+02 2.17743881e+02 2.12130569e+02</_>
    <_>
      8.09110031e+01 2.17228146e+01 1.33176865e+02 5.66082268e+01
      1.25429909e+02 8.54594955e+01 1.08721596e+02 3.71799469e+01</_>
    <_>
      2.49529419e+01 9.23067017e+01 5.21442528e+01 1.66092300e+02
      1.50969345e+02 1.08298904e+02 5.94456367e+01 1.61382660e+02</_>
    <_>
      4.46611061e+01 7.79535370e+01 1.26045746e+02 1.37055725e+02
      1.47090256e+02 1.03116974e+02 1.26501389e+02 1.12553329e+02</_>
    <_>
      4.07195015e+01 3.68423157e+01 5.87885284e+01 5.99459763e+01
      7.19843674e+01 4.31489830e+01 5.77202835e+01 5.45505753e+01</_>
    <_>
      5.71545410e+01 5.51908798e+01 8.33698502e+01 8.12078247e+01
      9.29758301e+01 7.88677750e+01 9.54161835e+01 8.14115295e+01</_>
    <_>
      1.36647476e+02 9.34716339e+01 1.80243179e+02 1.35236923e+02
      1.55582443e+02 1.03729904e+02 1.64069763e+02 1.20852989e+02</_>
    <_>
      5.64183464e+01 8.13767700e+01 1.14474701e+02 1.37267792e+02
      1.54504578e+02 1.02947670e+02 1.09058411e+02 1.25475204e+02</_>
    <_>
      6.28832169e+01 9.88489227e+01 1.13718330e+02 1.75721161e+02
      1.54251434e+02 1.17115326e+02 8.53054504e+01 1.55438538e+02</_>
    <_>
      5.48601151e+01 6.94610825e+01 8.83883743e+01 1.17819458e+02
      1.14679367e+02 7.96112900e+01 7.99016190e+01 1.04254997e+02</_>
    <_>
      6.83571167e+01 8.67776489e+01 7.61326981e+01 9.07784805e+01
      1.00284004e+02 7.73318329e+01 5.35302582e+01 8.26188049e+01</_>
    <_>
      4.98486404e+01 8.90645981e+01 1.05596970e+02 1.41462784e+02
      1.41040436e+02 9.95513687e+01 8.87387161e+01 1.15005669e+02</_>
    <_>
      9.45358810e+01 1.14048363e+02 1.34722748e+02 1.68255310e+02
      1.61301743e+02 1.07051849e+02 1.17614647e+02 1.39161438e+02</_>
    <_>
      5.97478943e+01 9.55682220e+01 1.19605812e+02 1.25828400e+02
      1.32906769e+02 1.01355522e+02 1.32805038e+02 1.37675781e+02</_>
    <_>
      5.38863525e+01 7.47883835e+01 9.21632996e+01 1.34662262e+02
      1.28478210e+02 8.85220566e+01 7.60404053e+01 1.10270630e+02</_>
    <_>
      1.25597366e+02 1.06133232e+02 1.96941635e+02 1.25221886e+02
      2.11393173e+02 1.50379288e+02 1.79121567e+02 9.37763062e+01</_>
    <_>
      7.39499969e+01 5.20300827e+01 1.02843719e+02 5.92668800e+01
      1.08091370e+02 8.72849655e+01 1.10406403e+02 7.40813370e+01</_>
    <_>
      9.14224701e+01 7.44213638e+01 1.10486305e+02 1.11621536e+02
      1.32978897e+02 7.98550720e+01 7.84649734e+01 7.30008850e+01</_>
    <_>
      1.05350960e+02 7.32048721e+01 1.52855591e+02 8.38241882e+01
      1.39363739e+02 9.25460129e+01 1.40315002e+02 8.52398529e+01</_>
    <_>
      9.04566193e+01 7.55931778e+01 1.12212791e+02 1.10375076e+02
      1.18971489e+02 7.57401276e+01 9.32735519e+01 9.48721313e+01</_>
    <_>
      7.11271515e+01 1.07932274e+02 1.37813339e+02 1.54894867e+02
      1.97398849e+02 1.34435867e+02 1.03194229e+02 1.64778549e+02</_>
    <_>
      5.23503914e+01 7.76442642e+01 8.58155060e+01 1.09175140e+02
      1.18279495e+02 7.49782028e+01 6.02632141e+01 9.34413757e+01</_>
    <_>
      8.40581741e+01 1.01128426e+02 1.12212372e+02 1.50826050e+02
      1.45460342e+02 1.31219391e+02 1.15609695e+02 1.63826645e+02</_>
    <_>
      4.64290657e+01 7.38305740e+01 7.75119781e+01 1.31490021e+02
      1.58619354e+02 6.87932587e+01 8.52605286e+01 8.48159180e+01</_>
    <_>
      9.30919037e+01 2.68472137e+01 1.70512482e+02 4.81928444e+01
      1.43333755e+02 7.57150650e+01 1.30570038e+02 4.76106911e+01</_>
    <_>
      5.87635841e+01 1.39922134e+02 9.67972870e+01 1.74882629e+02
      1.38119797e+02 1.01237167e+02 8.81944885e+01 1.46238647e+02</_>
    <_>
      4.65061646e+01 9.44162674e+01 9.78759689e+01 1.32878464e+02
      1.18341347e+02 6.68047180e+01 9.21770706e+01 8.39317322e+01</_>
    <_>
      5.85597610e+01 9.01968460e+01 8.46217346e+01 1.65793503e+02
      1.34864227e+02 1.04310081e+02 9.27640610e+01 1.81256500e+02</_>
    <_>
      8.50164795e+01 7.75835037e+01 1.23191643e+02 1.11104103e+02
      1.50009125e+02 6.32958298e+01 6.26796722e+01 6.02037621e+01</_>
    <_>
      8.01495285e+01 8.83396149e+01 1.68713089e+02 2.27175278e+02
      2.01794067e+02 1.97942825e+02 1.75823746e+02 2.27535187e+02</_>
    <_>
      6.00468979e+01 7.53033142e+01 8.81508636e+01 1.17333908e+02
      1.20972923e+02 7.28485031e+01 6.87467346e+01 8.76912689e+01</_>
    <_>
      7.61004562e+01 5.97000008e+01 1.50784317e+02 9.69254379e+01
      1.27167961e+02 7.52918549e+01 1.35583328e+02 1.04877213e+02</_>
    <_>
      8.99351501e+01 8.07731476e+01 9.57392273e+01 1.20775635e+02
      1.12792877e+02 5.61664658e+01 6.75154266e+01 1.10514282e+02</_>
    <_>
      7.34628677e+01 8.22766647e+01 1.13158882e+02 1.14271523e+02
      1.26737610e+02 8.25219345e+01 8.69166641e+01 7.94849701e+01</_>
    <_>
      9.78528671e+01 6.40355988e+01 7.56766586e+01 1.01934570e+02
      9.00261536e+01 7.77454529e+01 5.41484833e+01 9.04557114e+01</_>
    <_>
      8.31615067e+01 4.30214081e+01 1.21968384e+02 9.10423889e+01
      1.23035614e+02 6.23024139e+01 1.07214867e+02 6.99151993e+01</_>
    <_>
      1.11919212e+02 4.02957497e+01 1.16283928e+02 8.99128418e+01
      1.72898102e+02 8.47914886e+01 9.96709290e+01 1.05821281e+02</_>
    <_>
      4.55741730e+01 5.30757027e+01 8.96017456e+01 7.07000351e+01
      7.98537750e+01 6.87592545e+01 6.61176071e+01 5.55343781e+01</_>
    <_>
      2.92193890e+01 8.25615463e+01 4.05747681e+01 1.14829094e+02
      9.45563354e+01 6.82713928e+01 4.14077606e+01 1.01054375e+02</_>
    <_>
      6.71057281e+01 5.32370911e+01 1.73479721e+02 1.24987297e+02
      1.73394730e+02 1.34789413e+02 1.49173080e+02 1.25369812e+02</_>
    <_>
      1.04077858e+02 3.62849541e+01 1.60443344e+02 4.85740166e+01
      1.47536957e+02 6.40918732e+01 1.32186981e+02 5.32946510e+01</_>
    <_>
      8.77286072e+01 6.19947090e+01 1.29756042e+02 1.02413567e+02
      8.66847916e+01 7.26086349e+01 1.12006088e+02 8.52911682e+01</_>
    <_>
      4.22339363e+01 4.49947319e+01 6.28130569e+01 7.69118652e+01
      1.04669823e+02 6.03084106e+01 4.76262169e+01 5.83537750e+01</_>
    <_>
      5.38672676e+01 7.80921326e+01 7.56757889e+01 1.06623123e+02
      1.57344528e+02 6.69470901e+01 6.26217308e+01 8.99014511e+01</_>
    <_>
      6.64753036e+01 9.12058563e+01 1.03488068e+02 1.35796661e+02
      1.35207336e+02 9.24459152e+01 9.26476288e+01 1.16631706e+02</_>
    <_>
      9.16964645e+01 6.16872177e+01 1.28827057e+02 1.03485771e+02
      8.72659607e+01 6.98436050e+01 1.08987122e+02 8.95079117e+01</_>
    <_>
      9.30447083e+01 9.50311508e+01 1.47024841e+02 1.39768280e+02
      1.53892532e+02 9.59384155e+01 1.48235916e+02 1.43333115e+02</_>
    <_>
      5.73695450e+01 5.48803024e+01 1.25185234e+02 1.12167397e+02
      1.45811722e+02 1.33461029e+02 1.51258118e+02 1.41427734e+02</_>
    <_>
      3.74145966e+01 8.18681641e+01 6.27291985e+01 1.64057663e+02
      1.33268997e+02 7.81452103e+01 5.91810951e+01 1.53989182e+02</_>
    <_>
      8.86617966e+01 1.16576622e+02 1.26727608e+02 1.78553070e+02
      1.89744614e+02 1.07397438e+02 1.17847672e+02 1.58792557e+02</_>
    <_>
      9.26582260e+01 6.89347839e+01 1.45149750e+02 8.11388702e+01
      1.29440430e+02 1.17553993e+02 1.64151550e+02 9.61681061e+01</_>
    <_>
      4.14557686e+01 9.22868500e+01 9.07345963e+01 1.40804291e+02
      1.21501961e+02 9.22059479e+01 8.73669281e+01 1.39458267e+02</_>
    <_>
      1.09228333e+02 1.22295876e+02 1.58390244e+02 1.35001511e+02
      1.63603806e+02 1.37819427e+02 1.17432594e+02 1.46219116e+02</_>
    <_>
      1.04663620e+02 9.11828537e+01 1.48473114e+02 1.38404938e+02
      1.34685593e+02 1.10164925e+02 1.21214691e+02 1.28895187e+02</_>
    <_>
      6.30828209e+01 4.51993675e+01 8.72152405e+01 9.43271408e+01
      1.00237503e+02 6.20548210e+01 7.06416016e+01 7.13432846e+01</_>
    <_>
      5.41715012e+01 9.22567368e+01 1.01026512e+02 1.62663925e+02
      1.47564758e+02 9.38144913e+01 1.09394119e+02 1.60189850e+02</_>
    <_>
      2.47937813e+01 3.28258438e+01 9.34332428e+01 9.68287506e+01
      9.71875000e+01 9.29444046e+01 7.59251022e+01 7.34054031e+01</_>
    <_>
      6.72073441e+01 9.61479568e+01 1.03084267e+02 1.15069145e+02
      1.03173981e+02 9.74858475e+01 9.72044296e+01 1.18877678e+02</_>
    <_>
      6.08404160e+01 7.43993988e+01 1.01415741e+02 1.16043396e+02
      1.21186234e+02 8.71114502e+01 9.43938828e+01 1.01840477e+02</_>
    <_>
      5.75460091e+01 1.01829552e+02 6.80350113e+01 1.14048347e+02
      9.18920288e+01 7.42088623e+01 6.71005325e+01 9.68402634e+01</_>
    <_>
      6.91824722e+01 7.02453003e+01 6.04821663e+01 1.28610458e+02
      1.69683441e+02 7.82554932e+01 2.42964764e+01 1.03037521e+02</_>
    <_>
      9.26731110e+01 7.58693085e+01 1.08807961e+02 9.64554672e+01
      1.10153847e+02 9.30521469e+01 1.04501228e+02 1.04338814e+02</_>
    <_>
      5.22212944e+01 7.42467270e+01 8.70062561e+01 1.27539497e+02
      1.18000923e+02 8.39923248e+01 7.26370163e+01 1.06541954e+02</_>
    <_>
      4.28686256e+01 4.38109665e+01 6.91895905e+01 6.40394135e+01
      8.97007828e+01 5.86146317e+01 7.92378464e+01 7.75631866e+01</_>
    <_>
      9.66768951e+01 5.32705841e+01 1.57947388e+02 7.46298218e+01
      1.34497910e+02 6.44344025e+01 8.88854980e+01 4.86180725e+01</_>
    <_>
      1.06773613e+02 9.82386169e+01 1.39941757e+02 1.34858627e+02
      1.49122131e+02 1.25606918e+02 1.39209152e+02 1.32223740e+02</_>
    <_>
      1.83742462e+02 8.17279663e+01 2.19148575e+02 9.79181213e+01
      1.61599609e+02 1.16070473e+02 1.57605392e+02 9.38236771e+01</_>
    <_>
      8.99232254e+01 1.07086220e+02 8.74271698e+01 1.10565575e+02
      1.59079926e+02 1.34828201e+02 1.06332069e+02 1.16024223e+02</_>
    <_>
      7.58870544e+01 8.02915115e+01 1.08299232e+02 1.09966019e+02
      1.07031754e+02 8.31372986e+01 1.28992569e+02 1.13894165e+02</_>
    <_>
      7.70251465e+01 9.15487366e+01 1.24584557e+02 1.24681099e+02
      1.47322830e+02 1.18933968e+02 1.28236450e+02 1.40765167e+02</_>
    <_>
      6.61697159e+01 1.16504059e+02 7.73957214e+01 1.27937653e+02
      1.33698273e+02 1.13056831e+02 8.43783798e+01 1.43834717e+02</_>
    <_>
      8.25947647e+01 8.54956207e+01 1.29473907e+02 1.30044739e+02
      1.66786011e+02 1.24828575e+02 1.38815491e+02 1.36492828e+02</_>
    <_>
      1.16784279e+02 6.49765778e+01 1.49311676e+02 1.28503403e+02
      1.62932220e+02 9.95366287e+01 1.44248337e+02 1.00135887e+02</_>
    <_>
      1.29493607e+02 9.29778290e+01 1.65886047e+02 1.16149872e+02
      1.22447212e+02 8.15970840e+01 1.09906052e+02 9.55184250e+01</_>
    <_>
      3.00416660e+01 3.65478973e+01 7.05644608e+01 8.34390564e+01
      1.48113693e+02 1.34664597e+02 9.19259567e+01 1.02372894e+02</_>
    <_>
      8.01937103e+01 7.89225922e+01 1.53786316e+02 1.34984695e+02
      1.56384140e+02 1.10349922e+02 1.25703644e+02 1.18653915e+02</_>
    <_>
      7.15574875e+01 5.48072891e+01 1.05285210e+02 9.23839340e+01
      1.24970734e+02 7.15313492e+01 8.42278900e+01 7.14553909e+01</_>
    <_>
      1.32504745e+02 1.29669952e+02 1.47032837e+02 1.50489502e+02
      1.91040207e+02 1.43784409e+02 1.62251450e+02 1.56357880e+02</_>
    <_>
      6.11981125e+01 6.86844101e+01 9.12525711e+01 9.19549484e+01
      1.10978386e+02 6.88727646e+01 9.31016998e+01 1.08535065e+02</_>
    <_>
      1.25163620e+02 7.45008621e+01 1.47783585e+02 1.28142120e+02
      1.62397369e+02 1.14068558e+02 1.49547943e+02 1.43537354e+02</_>
    <_>
      1.15949394e+02 1.07544098e+02 1.32784424e+02 1.22341629e+02
      1.34898361e+02 1.10798950e+02 1.25134026e+02 1.31655304e+02</_>
    <_>
      8.51314316e+01 1.24201286e+02 1.47973083e+02 1.58024551e+02
      1.69634689e+02 1.31487610e+02 1.31618896e+02 1.50998306e+02</_>
    <_>
      1.12410690e+02 1.13112099e+02 1.38161362e+02 1.46269592e+02
      1.52195892e+02 1.20656685e+02 1.41114716e+02 1.41366592e+02</_>
    <_>
      5.83074226e+01 6.92823944e+01 8.79541779e+01 1.01704735e+02
      1.01582138e+02 9.53344650e+01 7.46826935e+01 8.34430313e+01</_>
    <_>
      1.14310417e+02 1.26446274e+02 1.27801125e+02 1.38424408e+02
      1.53273590e+02 1.37483902e+02 1.43866699e+02 1.57835388e+02</_>
    <_>
      1.81323700e+02 1.67353516e+02 2.19560532e+02 1.96220230e+02
      2.33255005e+02 2.19076233e+02 2.21848312e+02 2.18897079e+02</_>
    <_>
      1.68718994e+02 1.11694206e+02 2.07450943e+02 1.32854797e+02
      2.05127975e+02 1.58546722e+02 2.02287415e+02 9.48434982e+01</_>
    <_>
      7.58086929e+01 9.09930344e+01 1.39536072e+02 1.26629234e+02
      1.49243439e+02 8.30556717e+01 1.24619049e+02 1.19426338e+02</_>
    <_>
      1.14983841e+02 1.11784782e+02 1.47161835e+02 1.64610779e+02
      1.66953354e+02 1.28046844e+02 1.76537491e+02 1.93751785e+02</_>
    <_>
      1.12712540e+02 1.48009674e+02 1.55098801e+02 1.31682190e+02
      1.43995300e+02 1.35436203e+02 1.41784973e+02 1.35429474e+02</_>
    <_>
      5.91487808e+01 9.65328674e+01 7.43022461e+01 1.27587769e+02
      1.25888580e+02 9.30362930e+01 7.84078979e+01 1.16908737e+02</_>
    <_>
      1.22937851e+02 4.63883057e+01 1.34162857e+02 4.08284645e+01
      8.79747772e+01 6.32016792e+01 7.35575562e+01 3.96706848e+01</_>
    <_>
      7.05449982e+01 6.88038177e+01 1.23580513e+02 1.37846436e+02
      1.76538467e+02 9.55684357e+01 1.30245544e+02 1.32265472e+02</_>
    <_>
      7.53541336e+01 1.23624252e+02 1.96407013e+02 1.54728226e+02
      1.87899872e+02 1.71658432e+02 2.13759644e+02 1.56151123e+02</_>
    <_>
      1.08583549e+02 8.55810242e+01 1.82388443e+02 1.09995888e+02
      1.38737457e+02 1.39324768e+02 2.08969650e+02 1.17006485e+02</_>
    <_>
      5.51057205e+01 1.04104233e+02 1.01955139e+02 1.44406326e+02
      1.40519485e+02 1.11185608e+02 1.06286446e+02 1.48226639e+02</_>
    <_>
      6.97618713e+01 6.54500122e+01 1.14775467e+02 1.07650948e+02
      1.07831345e+02 7.49498596e+01 8.63008423e+01 8.27559509e+01</_>
    <_>
      6.74832458e+01 1.30304245e+02 1.31004822e+02 1.37399719e+02
      1.73843979e+02 1.14878357e+02 1.03596527e+02 1.63696915e+02</_>
    <_>
      5.06687889e+01 6.61992645e+01 9.67860031e+01 1.30848557e+02
      1.34326614e+02 8.25674210e+01 6.52269974e+01 9.12249832e+01</_>
    <_>
      1.70182236e+02 1.64114166e+02 2.27928146e+02 1.83325623e+02
      1.81796463e+02 1.78473755e+02 2.13015610e+02 1.68791763e+02</_>
    <_>
      9.34087296e+01 6.25393867e+01 1.28839493e+02 1.35115234e+02
      1.62268250e+02 9.98828049e+01 1.03469749e+02 1.08674011e+02</_>
    <_>
      1.06261276e+02 9.26744919e+01 1.48946564e+02 1.20040108e+02
      1.61546860e+02 1.09362373e+02 1.53050613e+02 1.35079514e+02</_>
    <_>
      6.07393532e+01 1.05180626e+02 8.27983246e+01 1.48209915e+02
      1.31389465e+02 7.42851334e+01 9.81522827e+01 1.32871765e+02</_>
    <_>
      9.37727432e+01 5.26214561e+01 1.16900955e+02 8.61768036e+01
      1.36426376e+02 7.49489975e+01 9.84280777e+01 7.49318161e+01</_>
    <_>
      1.08723320e+02 8.83940582e+01 1.40148407e+02 1.32879456e+02
      1.74358551e+02 6.20166969e+01 1.31946747e+02 1.24507835e+02</_>
    <_>
      7.09376678e+01 8.49411774e+01 8.62557373e+01 1.12356461e+02
      1.04224045e+02 1.16427185e+02 1.06484978e+02 1.31374390e+02</_>
    <_>
      7.49199677e+01 7.97517319e+01 1.15260353e+02 9.94172897e+01
      1.22099022e+02 9.45695190e+01 1.16053169e+02 1.07419296e+02</_>
    <_>
      5.64027519e+01 8.64738693e+01 1.25838303e+02 1.41690292e+02
      1.40193649e+02 1.17266975e+02 1.23231148e+02 1.34665207e+02</_>
    <_>
      1.27002617e+02 9.54106369e+01 1.89242279e+02 1.46641663e+02
      1.68199371e+02 1.10989967e+02 1.72504379e+02 1.22822693e+02</_>
    <_>
      1.83111786e+02 1.24282471e+02 1.95914993e+02 1.28560028e+02
      1.72185242e+02 1.14302856e+02 1.65414078e+02 1.07175194e+02</_>
    <_>
      5.56399345e+01 6.57990417e+01 1.35274567e+02 1.37178070e+02
      1.44039536e+02 1.29027191e+02 1.39698532e+02 1.36263687e+02</_>
    <_>
      1.47963470e+02 1.30199905e+02 1.45480164e+02 1.30845825e+02
      1.28785126e+02 1.44372299e+02 1.18694588e+02 1.36542725e+02</_>
    <_>
      7.41830521e+01 5.60073395e+01 1.28706833e+02 6.37886086e+01
      7.49655685e+01 5.31990051e+01 1.03314720e+02 6.18468857e+01</_>
    <_>
      1.00159637e+02 1.01203896e+02 1.08807579e+02 1.26352089e+02
      1.26832359e+02 1.27325539e+02 1.28974808e+02 1.27753960e+02</_>
    <_>
      1.28451431e+02 7.47090759e+01 1.65113312e+02 1.04692474e+02
      1.86356400e+02 1.17961853e+02 1.54598679e+02 1.06579628e+02</_>
    <_>
      1.12073509e+02 1.30846558e+02 1.92486221e+02 2.35580795e+02
      1.92829620e+02 1.76177643e+02 1.85007080e+02 2.16756989e+02</_>
    <_>
      6.45173264e+01 7.81005325e+01 9.07833557e+01 9.64992371e+01
      1.01099815e+02 9.16031494e+01 7.16245193e+01 8.24899139e+01</_>
    <_>
      6.21931801e+01 1.04207619e+02 9.32731476e+01 1.29913055e+02
      1.25370537e+02 8.77637939e+01 7.44114532e+01 1.16600052e+02</_>
    <_>
      9.20809937e+01 1.06860382e+02 1.39994781e+02 1.27989998e+02
      1.49041565e+02 1.39154922e+02 1.53011642e+02 1.40920944e+02</_>
    <_>
      6.40623093e+01 7.60573349e+01 9.94263306e+01 1.39147598e+02
      1.58998093e+02 8.39706802e+01 1.08670090e+02 1.31126968e+02</_>
    <_>
      5.96005592e+01 4.56761055e+01 8.00382767e+01 5.96525536e+01
      7.98827438e+01 5.53692055e+01 6.85833817e+01 5.43451195e+01</_>
    <_>
      1.39849411e+02 1.21870125e+02 1.88578751e+02 1.40033020e+02
      1.50263519e+02 1.12055733e+02 2.05098083e+02 1.07636375e+02</_>
    <_>
      1.08715309e+02 8.67358322e+01 1.78822586e+02 1.39365295e+02
      1.60872070e+02 1.13894318e+02 1.48451782e+02 1.20760010e+02</_>
    <_>
      1.00669731e+02 9.03761444e+01 9.97808685e+01 1.56047516e+02
      1.32725433e+02 1.21456779e+02 9.84253311e+01 1.60671844e+02</_>
    <_>
      1.05526733e+02 9.84471207e+01 1.34784088e+02 1.23741066e+02
      1.57579330e+02 1.27338593e+02 1.40829086e+02 1.22273888e+02</_>
    <_>
      1.17337433e+02 1.57343079e+02 1.75746048e+02 1.69441620e+02
      1.94946548e+02 9.95696869e+01 1.80498672e+02 1.58903320e+02</_>
    <_>
      9.41828384e+01 1.14613449e+02 1.11114037e+02 1.32503296e+02
      1.39382507e+02 1.27443542e+02 9.63255539e+01 1.22403152e+02</_>
    <_>
      1.37930649e+02 8.61182938e+01 1.86930038e+02 1.23451317e+02
      1.95140488e+02 1.39981903e+02 1.59623962e+02 9.68874359e+01</_>
    <_>
      1.23015518e+02 1.02412910e+02 1.41260925e+02 1.60867172e+02
      1.44277115e+02 1.51717911e+02 1.53944672e+02 1.77104568e+02</_>
    <_>
      6.79682922e+01 1.22154434e+02 9.99885101e+01 1.74214844e+02
      1.60201889e+02 1.35936600e+02 9.11890335e+01 1.73691299e+02</_>
    <_>
      6.94285507e+01 9.11353455e+01 1.03534927e+02 1.21553246e+02
      1.10121613e+02 7.56339569e+01 9.23038406e+01 1.08524513e+02</_>
    <_>
      4.33789215e+01 8.71428909e+01 6.00856514e+01 1.61914154e+02
      1.28169022e+02 1.09662704e+02 7.67452316e+01 1.68180389e+02</_>
    <_>
      9.39774628e+01 8.35182648e+01 1.20359619e+02 1.06410042e+02
      1.14388496e+02 1.03082497e+02 1.19655106e+02 1.06638939e+02</_>
    <_>
      7.18126602e+01 8.91660004e+01 1.20846184e+02 1.56626083e+02
      1.62002823e+02 9.81320419e+01 8.24919968e+01 1.01772568e+02</_>
    <_>
      7.51158371e+01 8.49878693e+01 1.41319305e+02 1.35774002e+02
      1.38158585e+02 1.26425659e+02 1.41318787e+02 1.38948242e+02</_>
    <_>
      7.35405960e+01 4.83621445e+01 1.12667282e+02 8.44156265e+01
      1.29209503e+02 8.95657272e+01 1.09541908e+02 8.28619080e+01</_>
    <_>
      4.57650452e+01 1.08745979e+02 3.31905174e+01 1.45692917e+02
      7.45398331e+01 4.69351540e+01 4.37135658e+01 1.19758827e+02</_>
    <_>
      1.32861816e+02 1.02239098e+02 1.57601166e+02 1.37068741e+02
      1.83691208e+02 1.19749306e+02 6.73954391e+01 5.20523338e+01</_>
    <_>
      1.56960815e+02 1.82432404e+02 2.10150269e+02 2.08456482e+02
      2.10391602e+02 1.94258301e+02 2.03754974e+02 2.01433395e+02</_>
    <_>
      1.54376358e+02 1.45363098e+02 1.54759613e+02 1.41692596e+02
      1.77259399e+02 1.44373077e+02 1.46317657e+02 1.41058334e+02</_>
    <_>
      1.03881943e+02 8.00169220e+01 1.18795120e+02 7.77161179e+01
      1.14251274e+02 9.92646255e+01 1.13123161e+02 7.75722733e+01</_>
    <_>
      1.54161713e+02 6.47965393e+01 2.02807846e+02 9.61737061e+01
      1.69165497e+02 1.32875854e+02 1.87141998e+02 9.81916046e+01</_>
    <_>
      1.03930908e+02 1.03976013e+02 1.51106491e+02 1.12028168e+02
      1.44792816e+02 1.32194168e+02 1.16573479e+02 1.22494606e+02</_>
    <_>
      9.84306335e+01 9.22766190e+01 1.38360764e+02 1.41246338e+02
      1.37523087e+02 1.07974350e+02 1.46785202e+02 1.49502457e+02</_>
    <_>
      6.86656570e+01 4.45837440e+01 1.73075012e+02 1.93444565e+02
      1.75738708e+02 1.33800568e+02 8.64259872e+01 1.54751419e+02</_>
    <_>
      6.57149048e+01 1.23305290e+02 7.98871460e+01 1.74855606e+02
      1.29401367e+02 9.31891403e+01 6.87087097e+01 1.09806854e+02</_>
    <_>
      1.41514435e+02 1.09247192e+02 1.63722763e+02 1.34121307e+02
      1.81202927e+02 1.77089233e+02 1.57703995e+02 1.89292862e+02</_>
    <_>
      1.10222885e+02 9.68256531e+01 1.82557343e+02 1.30088852e+02
      1.67553726e+02 1.22403618e+02 1.55599579e+02 1.17036331e+02</_>
    <_>
      1.22132385e+02 5.49872017e+01 1.48571915e+02 6.13198395e+01
      1.18013245e+02 9.72045746e+01 1.52295731e+02 6.21343536e+01</_>
    <_>
      7.91968613e+01 9.24447250e+01 1.02806854e+02 1.29705093e+02
      1.18614235e+02 1.08990303e+02 1.02226471e+02 1.23885529e+02</_>
    <_>
      6.92076569e+01 4.80568771e+01 1.02844109e+02 1.20706741e+02
      1.19007278e+02 8.55657883e+01 9.24188995e+01 9.98822556e+01</_>
    <_>
      3.89031601e+01 8.02537155e+01 1.11008774e+02 8.06232910e+01
      9.63895035e+01 9.62785568e+01 8.79321136e+01 8.25672836e+01</_>
    <_>
      1.47838577e+02 8.17256546e+01 1.80569336e+02 1.14329002e+02
      1.67931396e+02 1.20046234e+02 1.78195541e+02 1.20918961e+02</_>
    <_>
      9.90246887e+01 5.80706749e+01 1.45992111e+02 6.71796951e+01
      1.25954239e+02 9.06440125e+01 1.34334259e+02 7.96643524e+01</_>
    <_>
      5.51541405e+01 8.51266327e+01 1.19414070e+02 1.41131531e+02
      1.34104874e+02 1.11850716e+02 1.41306091e+02 1.44117401e+02</_>
    <_>
      6.23271294e+01 7.66670914e+01 9.46339188e+01 1.19426170e+02
      1.47885178e+02 9.69488831e+01 6.84100266e+01 7.31056824e+01</_>
    <_>
      9.12041321e+01 8.37282257e+01 1.32674881e+02 1.22844124e+02
      1.34389252e+02 1.13921112e+02 1.50717697e+02 1.46088242e+02</_>
    <_>
      9.14613113e+01 1.22475319e+02 1.44047379e+02 1.27224991e+02
      1.56997391e+02 1.25640411e+02 1.43432739e+02 1.36920120e+02</_>
    <_>
      1.14126114e+02 1.08834824e+02 1.68248627e+02 1.41640717e+02
      1.74051407e+02 1.22060799e+02 1.26670868e+02 8.79427567e+01</_>
    <_>
      1.01705246e+02 8.81745605e+01 1.38555679e+02 1.13437370e+02
      1.61077744e+02 1.08750313e+02 1.32556366e+02 1.02696350e+02</_>
    <_>
      9.63723679e+01 8.15492172e+01 1.12312637e+02 1.19477592e+02
      1.32816757e+02 1.26713318e+02 1.13695747e+02 1.20246254e+02</_>
    <_>
      8.82067795e+01 8.51965179e+01 1.19215195e+02 1.14148773e+02
      1.51658569e+02 1.14225044e+02 1.33911514e+02 1.27452095e+02</_>
    <_>
      4.34338989e+01 8.77108383e+01 1.54733200e+02 1.07093620e+02
      1.56819778e+02 1.20114769e+02 1.38237015e+02 9.03953781e+01</_>
    <_>
      1.05664536e+02 9.22928848e+01 1.08015892e+02 9.26574936e+01
      1.40926941e+02 1.63620102e+02 1.28068161e+02 1.16759224e+02</_>
    <_>
      9.06852951e+01 1.01087997e+02 7.65299530e+01 7.84567337e+01
      9.07874756e+01 8.43653564e+01 6.05946045e+01 6.80708160e+01</_>
    <_>
      5.93876114e+01 7.61996231e+01 7.09948730e+01 8.25321274e+01
      9.37240829e+01 6.19130745e+01 5.65755882e+01 6.73970261e+01</_>
    <_>
      9.59968643e+01 9.18784561e+01 1.12483498e+02 1.04021896e+02
      1.09333778e+02 8.93803482e+01 1.00822388e+02 1.26910011e+02</_>
    <_>
      8.76693039e+01 9.20101318e+01 1.32242203e+02 1.28902786e+02
      1.68951035e+02 9.61764069e+01 9.62465744e+01 1.18229729e+02</_>
    <_>
      7.41818619e+01 8.70100098e+01 1.39997375e+02 1.08653320e+02
      1.06257172e+02 1.06854652e+02 1.18129448e+02 9.96958466e+01</_>
    <_>
      1.08088104e+02 1.06486855e+02 1.39752487e+02 1.03732574e+02
      1.23152939e+02 1.12670219e+02 1.60325760e+02 1.21418289e+02</_>
    <_>
      5.75257607e+01 5.93575859e+01 7.67902985e+01 7.71453857e+01
      1.04693375e+02 5.96811829e+01 6.49416656e+01 5.72122841e+01</_>
    <_>
      1.30581680e+02 1.08650963e+02 1.95190857e+02 1.63502045e+02
      1.75983932e+02 9.40042953e+01 2.25454834e+02 1.95092651e+02</_>
    <_>
      1.56062012e+02 1.76033890e+02 2.20657120e+02 1.94025620e+02
      2.12668533e+02 1.87865707e+02 2.11617371e+02 2.00624588e+02</_>
    <_>
      5.65797501e+01 3.12449322e+01 8.23365097e+01 5.60279007e+01
      8.12756805e+01 5.87127953e+01 5.78224640e+01 4.23188629e+01</_>
    <_>
      1.02662720e+02 9.46593094e+01 1.32033447e+02 1.47611435e+02
      1.50009674e+02 7.18526993e+01 5.47720337e+01 6.08977661e+01</_>
    <_>
      8.45605698e+01 9.51175995e+01 1.71142746e+02 1.60258774e+02
      2.11573578e+02 1.67907333e+02 1.42282303e+02 1.69389801e+02</_>
    <_>
      7.49445801e+01 8.41464615e+01 1.33272446e+02 1.22767914e+02
      1.33171951e+02 1.11078957e+02 1.27812263e+02 1.41313721e+02</_>
    <_>
      9.12505875e+01 8.70269394e+01 1.17202454e+02 1.17663094e+02
      1.03695396e+02 9.92328873e+01 8.93064575e+01 9.31990051e+01</_>
    <_>
      1.82588470e+02 1.94555527e+02 1.99083908e+02 2.22888870e+02
      2.20134979e+02 2.04148880e+02 2.01274506e+02 2.26851578e+02</_>
    <_>
      4.88353424e+01 6.72971573e+01 1.05177528e+02 1.08775185e+02
      1.32938461e+02 9.21275864e+01 1.07386993e+02 9.73571396e+01</_>
    <_>
      6.92832260e+01 1.16856819e+02 1.02065056e+02 1.59155502e+02
      1.52502975e+02 1.17406242e+02 1.10906822e+02 1.54644104e+02</_>
    <_>
      6.32460556e+01 9.57683487e+01 1.06332077e+02 1.13717682e+02
      1.29421799e+02 1.40118195e+02 1.08330933e+02 1.28290314e+02</_>
    <_>
      6.91751785e+01 8.47056198e+01 1.10294067e+02 1.22348175e+02
      1.12020729e+02 9.50988693e+01 9.66061935e+01 8.94518585e+01</_>
    <_>
      4.76991882e+01 9.56978912e+01 6.85020447e+01 1.28738724e+02
      1.37443970e+02 8.34823456e+01 8.39176941e+01 1.19754410e+02</_>
    <_>
      1.12512329e+02 8.13403549e+01 1.77056412e+02 1.19665146e+02
      1.46244293e+02 9.93241272e+01 1.31255463e+02 8.48913345e+01</_>
    <_>
      6.81191788e+01 7.96476517e+01 9.44043808e+01 9.87597656e+01
      1.18459824e+02 1.16433922e+02 1.03360985e+02 1.05253250e+02</_>
    <_>
      9.14073486e+01 8.97628784e+01 1.36578964e+02 1.36020142e+02
      1.54024765e+02 1.28426483e+02 1.39417130e+02 1.42070984e+02</_>
    <_>
      8.92529221e+01 9.06785583e+01 1.51422867e+02 1.66718430e+02
      1.76612457e+02 1.07826996e+02 1.18804657e+02 1.49294510e+02</_>
    <_>
      9.52904129e+01 9.63482056e+01 1.28339462e+02 1.33619415e+02
      1.43396683e+02 1.07389870e+02 1.31998169e+02 1.25797424e+02</_>
    <_>
      6.99135971e+01 9.92454376e+01 1.94895660e+02 1.87997910e+02
      1.75584137e+02 1.37709564e+02 1.58184845e+02 1.49917389e+02</_>
    <_>
      5.40826836e+01 9.62530594e+01 1.07925179e+02 1.22807777e+02
      1.24157097e+02 1.04421837e+02 1.22298294e+02 1.10312386e+02</_>
    <_>
      1.24586235e+02 1.22131210e+02 1.48409531e+02 1.34741104e+02
      1.78057861e+02 1.47335739e+02 1.51140259e+02 1.42952133e+02</_>
    <_>
      5.42096291e+01 6.94933243e+01 1.25454613e+02 1.10589981e+02
      1.52299393e+02 7.75194244e+01 1.11250000e+02 9.53670959e+01</_>
    <_>
      1.17140030e+02 1.09611229e+02 1.29402359e+02 1.07819313e+02
      1.38840576e+02 6.33281479e+01 7.28456726e+01 4.73323212e+01</_>
    <_>
      5.26512337e+01 6.22379150e+01 1.41613281e+02 1.14583519e+02
      1.80283890e+02 1.25512238e+02 1.75996323e+02 1.16741425e+02</_>
    <_>
      6.95894089e+01 1.14452621e+02 8.85966034e+01 1.70911407e+02
      1.33724396e+02 1.11773987e+02 8.69494858e+01 1.47223129e+02</_>
    <_>
      1.35417145e+02 1.30626968e+02 1.64254562e+02 1.49627106e+02
      1.59255646e+02 1.45549591e+02 1.71818756e+02 1.56311752e+02</_>
    <_>
      8.10898819e+01 8.55347366e+01 1.40489655e+02 1.45732254e+02
      1.74442856e+02 1.16259872e+02 1.16591049e+02 1.42008224e+02</_>
    <_>
      9.68368454e+01 8.24752426e+01 1.33476959e+02 1.47338303e+02
      1.47669983e+02 1.22111740e+02 1.09619186e+02 1.34400253e+02</_>
    <_>
      9.77487411e+01 7.36111145e+01 1.19312622e+02 9.66124573e+01
      1.16852333e+02 1.10400536e+02 1.24379936e+02 1.08814667e+02</_>
    <_>
      7.33622894e+01 1.00532242e+02 9.85501404e+01 1.26648384e+02
      1.11211555e+02 8.74949341e+01 4.65886230e+01 1.22851982e+02</_>
    <_>
      2.26118103e+02 2.11909225e+02 2.35749680e+02 2.27381546e+02
      2.33718231e+02 2.17299286e+02 2.34560654e+02 2.33785889e+02</_>
    <_>
      9.06084900e+01 4.11666260e+01 1.78619232e+02 5.54700089e+01
      1.07892906e+02 1.08075172e+02 1.68136032e+02 6.13670387e+01</_>
    <_>
      1.12276672e+02 6.80020828e+01 1.46294083e+02 9.28733139e+01
      1.26038269e+02 8.40005875e+01 1.48674927e+02 1.15488167e+02</_>
    <_>
      4.67724342e+01 7.38960571e+01 5.30951042e+01 9.12765121e+01
      9.52829819e+01 9.59415359e+01 5.57814140e+01 8.76341476e+01</_>
    <_>
      1.36155807e+02 7.63117065e+01 1.91046310e+02 1.31211075e+02
      2.02784119e+02 1.35297195e+02 1.94990311e+02 1.36655380e+02</_>
    <_>
      1.24074287e+02 3.43374100e+01 1.87252274e+02 1.05899635e+02
      1.94709427e+02 1.46898636e+02 1.90464996e+02 1.15154076e+02</_>
    <_>
      1.03501030e+02 1.27249420e+02 1.56675140e+02 2.06293610e+02
      1.94070129e+02 1.39467499e+02 1.12793083e+02 1.40638535e+02</_>
    <_>
      5.34087143e+01 8.41422653e+01 1.05033623e+02 1.37245956e+02
      1.56349747e+02 1.14577553e+02 1.18436996e+02 1.38190079e+02</_>
    <_>
      8.83924866e+01 7.41549530e+01 1.45036179e+02 1.19551361e+02
      1.80236984e+02 1.04458023e+02 1.46966156e+02 1.21041687e+02</_>
    <_>
      7.67216492e+01 5.34103699e+01 1.43984482e+02 8.01753006e+01
      1.25281784e+02 1.00447838e+02 1.36388718e+02 9.08797455e+01</_>
    <_>
      8.27956543e+01 8.74866257e+01 1.40334915e+02 1.38762024e+02
      1.10437401e+02 1.04876877e+02 1.35431793e+02 1.37427658e+02</_>
    <_>
      5.75443039e+01 5.05777740e+01 6.95154877e+01 7.39816208e+01
      8.58962708e+01 7.24706650e+01 6.82667847e+01 6.29924889e+01</_>
    <_>
      1.10535713e+02 7.08333359e+01 1.62341293e+02 1.03936958e+02
      1.37100220e+02 1.07976151e+02 1.59317169e+02 1.28103348e+02</_>
    <_>
      7.69429092e+01 7.90774002e+01 1.20109062e+02 1.09230652e+02
      1.34353592e+02 1.13553879e+02 1.21403641e+02 1.29640793e+02</_>
    <_>
      1.36851669e+02 1.39601044e+02 1.75988678e+02 1.47178284e+02
      1.73072357e+02 1.71257080e+02 1.89007645e+02 1.77444519e+02</_>
    <_>
      5.90152855e+01 7.55887299e+01 9.94568253e+01 1.29155914e+02
      1.35850525e+02 7.34298096e+01 4.43537445e+01 6.16691742e+01</_>
    <_>
      2.76294460e+01 8.52369919e+01 4.27042885e+01 1.61159393e+02
      1.10761078e+02 8.13098297e+01 7.71618576e+01 1.47971039e+02</_>
    <_>
      1.00890221e+02 9.65856247e+01 1.61800842e+02 1.44992157e+02
      1.63790100e+02 7.56700134e+01 1.14289307e+02 9.91267014e+01</_>
    <_>
      8.82385101e+01 7.65900650e+01 1.30704926e+02 1.06583138e+02
      1.13653038e+02 5.98267555e+01 1.03722191e+02 9.81254807e+01</_>
    <_>
      1.61358948e+02 9.02487564e+01 1.53968781e+02 8.42721558e+01
      1.35380173e+02 8.57533340e+01 1.49125092e+02 5.45473671e+01</_>
    <_>
      1.27032631e+02 1.13441780e+02 1.64775467e+02 1.47592514e+02
      1.89482224e+02 1.06794151e+02 1.51384842e+02 1.31817596e+02</_>
    <_>
      4.72672768e+01 7.28941498e+01 1.24479012e+02 1.28340729e+02
      1.30255768e+02 1.00711250e+02 8.60889206e+01 1.07368874e+02</_>
    <_>
      8.33264694e+01 7.37757492e+01 1.30261032e+02 9.12724152e+01
      1.37972092e+02 8.39041748e+01 1.26971405e+02 9.32544861e+01</_>
    <_>
      9.36912460e+01 1.09935951e+02 1.60623520e+02 1.38912033e+02
      1.68986053e+02 1.26042992e+02 1.47568512e+02 1.37222595e+02</_>
    <_>
      8.55018616e+01 5.85996666e+01 1.50392426e+02 1.00342911e+02
      1.32794174e+02 1.35256851e+02 1.52313461e+02 1.25943649e+02</_>
    <_>
      1.79723053e+02 1.48950745e+02 1.89640213e+02 1.89363159e+02
      1.66868378e+02 1.75381363e+02 2.01816849e+02 1.97409988e+02</_>
    <_>
      8.22141266e+01 9.89871750e+01 1.33852020e+02 1.60923355e+02
      1.72685684e+02 1.25186462e+02 1.22356377e+02 1.62416718e+02</_>
    <_>
      2.61163177e+01 2.62152462e+01 1.11882874e+02 1.01268349e+02
      1.08541687e+02 8.67083817e+01 1.07457298e+02 9.54798203e+01</_>
    <_>
      8.16976318e+01 9.43437500e+01 1.40873932e+02 1.45363922e+02
      1.57088318e+02 1.09732704e+02 1.47340271e+02 1.51019272e+02</_>
    <_>
      2.15846954e+02 2.21384323e+02 2.17194641e+02 2.22577072e+02
      1.84874832e+02 2.04906403e+02 2.15302383e+02 2.21525330e+02</_>
    <_>
      7.72291794e+01 7.08875046e+01 1.15003014e+02 1.29989990e+02
      1.45494064e+02 7.79115143e+01 7.99727783e+01 1.17803596e+02</_>
    <_>
      1.25726433e+02 6.97772751e+01 1.56503098e+02 1.55393677e+02
      1.94367432e+02 1.28171158e+02 1.48511429e+02 1.20330246e+02</_>
    <_>
      7.11971893e+01 1.19281723e+02 1.04724632e+02 1.73737518e+02
      1.36771500e+02 9.11827774e+01 9.43736496e+01 1.54987732e+02</_>
    <_>
      1.06564758e+02 1.01637733e+02 1.43702530e+02 1.67342209e+02
      1.71119034e+02 1.23293442e+02 1.22530899e+02 1.53955978e+02</_>
    <_>
      1.27667580e+02 1.24720039e+02 1.61208054e+02 1.36157730e+02
      1.33123978e+02 1.13778824e+02 1.65048279e+02 1.32447327e+02</_>
    <_>
      9.75000000e+01 1.17706352e+02 1.53406311e+02 1.68665405e+02
      1.84066177e+02 1.36311172e+02 1.41653641e+02 1.14846069e+02</_>
    <_>
      1.65232117e+02 1.46539902e+02 1.80384964e+02 1.74968338e+02
      2.01354126e+02 1.30523560e+02 1.99061600e+02 1.58511612e+02</_>
    <_>
      7.83865891e+01 8.72123489e+01 1.26311752e+02 1.21731186e+02
      1.25287514e+02 1.00195076e+02 1.25099556e+02 1.13246284e+02</_>
    <_>
      6.10309105e+01 5.17287979e+01 1.06247276e+02 9.09102097e+01
      1.11299332e+02 8.82277374e+01 8.99582901e+01 7.62142868e+01</_>
    <_>
      1.04786270e+02 9.83170242e+01 1.13039085e+02 1.08036606e+02
      1.12528305e+02 1.05402420e+02 1.08800980e+02 1.13049469e+02</_>
    <_>
      1.02322250e+02 1.22205513e+02 1.41504227e+02 1.58546219e+02
      1.77948044e+02 1.25117668e+02 1.37265182e+02 1.43667282e+02</_>
    <_>
      9.89983139e+01 8.88328094e+01 1.62932068e+02 1.23975830e+02
      1.41322067e+02 1.36838715e+02 1.79053177e+02 1.58321213e+02</_>
    <_>
      5.90896530e+01 5.92427521e+01 8.85852966e+01 9.11483994e+01
      8.76282501e+01 7.89869843e+01 6.40403366e+01 8.24871597e+01</_>
    <_>
      6.33929329e+01 9.66034164e+01 1.36582626e+02 1.58393402e+02
      1.49929840e+02 1.25531822e+02 1.18094414e+02 1.38266678e+02</_>
    <_>
      8.78963928e+01 4.78536530e+01 1.55223633e+02 8.91547928e+01
      1.69579163e+02 9.97268982e+01 1.44830078e+02 7.07927628e+01</_>
    <_>
      1.33104858e+02 1.09377586e+02 1.65641312e+02 1.30038361e+02
      1.41087982e+02 1.15000832e+02 1.70367523e+02 1.35453003e+02</_>
    <_>
      7.18837738e+01 8.84419250e+01 1.14642143e+02 1.50993103e+02
      1.53350815e+02 9.41180344e+01 1.18358559e+02 1.49780136e+02</_>
    <_>
      1.77831390e+02 1.53577332e+02 2.34429810e+02 2.08558044e+02
      2.35946930e+02 2.00285507e+02 2.12692978e+02 1.87638824e+02</_>
    <_>
      8.33225479e+01 1.38761215e+02 1.51265579e+02 1.97990723e+02
      2.00855286e+02 1.14081970e+02 1.53691376e+02 1.89398407e+02</_>
    <_>
      9.60010910e+01 1.13436409e+02 1.21884956e+02 1.53419785e+02
      1.61566040e+02 1.08875488e+02 9.85008163e+01 1.13324692e+02</_>
    <_>
      7.45600281e+01 8.69824677e+01 9.99844666e+01 1.29467636e+02
      1.30867554e+02 9.52669296e+01 4.95030174e+01 1.51117935e+02</_>
    <_>
      1.19790466e+02 1.82446640e+02 1.42398468e+02 1.97501633e+02
      2.02574356e+02 1.40349716e+02 9.99646378e+01 1.28302673e+02</_>
    <_>
      1.14595398e+02 5.64382782e+01 2.18454605e+02 1.90163513e+02
      2.28823120e+02 2.19057816e+02 2.34962601e+02 2.06083557e+02</_>
    <_>
      5.03462410e+01 6.38832359e+01 7.05673676e+01 7.87309723e+01
      9.95267258e+01 5.32391014e+01 6.31469879e+01 4.96712341e+01</_>
    <_>
      6.58980255e+01 1.00731491e+02 9.50972290e+01 1.44688080e+02
      1.37743088e+02 8.79337006e+01 7.71179428e+01 9.93157120e+01</_>
    <_>
      8.10358887e+01 8.33954849e+01 1.14636719e+02 1.15174194e+02
      1.06559601e+02 9.77577133e+01 9.33026428e+01 8.79454346e+01</_>
    <_>
      8.99447861e+01 1.02014236e+02 1.51323563e+02 1.39727997e+02
      1.48464767e+02 1.33861526e+02 1.37069489e+02 1.28326675e+02</_>
    <_>
      1.42951630e+02 1.13438499e+02 1.75083405e+02 1.45556625e+02
      1.58998306e+02 1.62358063e+02 1.98257660e+02 1.80735229e+02</_>
    <_>
      1.55882141e+02 1.78864578e+02 1.90929749e+02 1.97910416e+02
      1.93154861e+02 1.68876205e+02 1.99086670e+02 1.85329330e+02</_>
    <_>
      7.48073349e+01 1.14048279e+02 1.16305870e+02 1.66108551e+02
      1.59167160e+02 1.16753700e+02 9.20606689e+01 1.36113617e+02</_>
    <_>
      5.46030235e+01 4.08669128e+01 1.41394760e+02 1.20863029e+02
      1.77935501e+02 1.29298141e+02 1.63074829e+02 1.54374908e+02</_>
    <_>
      7.66590576e+01 7.09253998e+01 1.31193298e+02 1.39430908e+02
      1.35419769e+02 8.28077621e+01 1.10863823e+02 1.27693375e+02</_>
    <_>
      1.03169548e+02 9.51414642e+01 1.18890091e+02 1.12374641e+02
      1.02369995e+02 8.59800110e+01 1.30801666e+02 1.05165749e+02</_>
    <_>
      8.03039856e+01 8.84031906e+01 1.22216904e+02 1.22167473e+02
      1.49723404e+02 1.45467392e+02 1.54245438e+02 1.54708481e+02</_>
    <_>
      2.02635406e+02 1.98657410e+02 2.20934784e+02 2.16247528e+02
      2.21199738e+02 2.13873764e+02 2.25287384e+02 2.05227005e+02</_></support_vectors>
  <decision_functions>
    <_>
      <sv_count>328</sv_count>
      <rho>2.6229358390163915e-01</rho>
      <alpha>
        4.2467677646472239e+00 2.7772322035235524e+00
        2.2909657182214545e+01 8.0638053284225855e+00
        4.3777763118596651e+00 1.0143505565253063e+01
        7.0379884429843997e-01 4.6159191895845031e-01
        1.8634515754983823e+00 8.2232315871160644e+00
        2.3155629501582426e+00 1.7810263432173191e+01
        1.3515354028603890e+00 1.7726937302853667e+00
        1.2480427930985666e+01 1.0117852523659896e+00
        1.0277373263958089e+00 3.6742361411105051e+00
        1.2003118537403935e+01 2.2122056523302769e+00
        6.5391604494648679e+00 2.2743265937220616e+00
        2.3935308958179917e+01 1.8969592858494475e+00
        4.4825186103751991e+00 3.7971123488781613e+00
        7.0363122632546267e+00 6.9626313932014483e-01
        1.6531637625964630e+00 6.4695553206403522e+00
        2.9049025456320976e-01 3.7407723914297093e+00
        3.7936724579265992e+01 5.9431815430317565e+00
        7.3431258267089143e+00 9.4839787567177647e-01
        1.5827579705019885e+00 3.1476347017691584e+01
        2.2687164258525456e+00 1.2627541851247130e+00
        1.4268506926859490e+00 3.0677818606530494e+00
        6.9514407587496603e+00 1.6240815546871259e+00
        3.5584082083669992e+00 2.2413004760869764e+00
        4.4472519320671111e+01 2.0522040101775150e+00
        7.1640185275865718e+01 7.5306830532706293e-01
        1.2957011791655257e+00 2.5781430879739444e+00
        6.7694260039316934e-01 1.1457982103700440e+01
        4.3059829076027034e+00 3.9128105422690340e+00
        6.4702323679194809e+00 2.0046017469563697e+00
        3.5563743728513377e+00 2.6146864452824659e-01
        1.7368429190328278e+01 3.6526950978309101e+00
        3.9709060123205577e+00 3.6374162269754544e+00
        5.3194622185411120e+00 3.0795421855601294e+01
        1.8863349431027480e+01 1.3229033118857572e+01
        8.0242527639750449e+01 1.7914347795918824e+00
        4.1675424248074036e+00 2.0917604012884130e+00
        2.0886832516018767e+00 4.9747260755161356e+01
        2.4250843273876463e+00 1.4842564827840020e+01
        1.3643647251969298e+00 5.4210773739062077e+00
        1.2931498246549870e+01 1.1352250866526183e+00
        4.4291914112539921e+00 6.0038503855030099e+00
        2.4728972466162745e+01 3.4144510024575569e+00
        3.8341485302386817e+00 1.5621486540924128e+00
        6.7896922345661785e+00 1.4332236259299297e+01
        1.9314151615728348e+00 2.0080763181242368e+01
        1.6048028685552922e+01 1.9185040991085558e+00
        3.5132527619085971e+00 2.4156777535785374e+00
        4.0866687688368906e+00 1.6957697182630169e+00
        4.0638190492658222e+00 1.3630920010005791e+01
        3.4639634510189330e+00 2.2123246212765523e+01
        6.3692422705238883e+01 4.8320393508220242e+01
        1.9495848137861638e+00 3.2721746821351836e+00
        5.7366831529571822e+00 4.3312468423183148e+00
        9.7449145249563482e+00 1.6361858404388419e+00
        9.3094424642413909e-01 1.7094092498233302e+00
        2.6502573930799677e+01 1.9439199960637119e+00
        9.9829160232304552e+00 4.3893617826165716e+00
        3.8746929562482344e+00 6.5518302301320830e+00
        1.8969209003267651e+00 1.2248999385922485e+01
        4.7513502626912665e+00 3.4593766297232920e+00
        2.4490065066597552e+01 1.7726570847855516e+01
        2.2097960224613629e+00 1.4943828957367810e+01
        1.6298497540340982e+01 2.9886032462854559e+00
        1.1672203170606910e+01 1.3304728749868531e+00
        1.1662793503223641e+00 3.2445109077418399e+00
        8.4979457080950223e+00 1.2529827312833213e+01
        6.7132285280259003e+00 7.4122545285016477e+00
        5.9347226842858247e-01 2.6564691930321458e+00
        2.1753244708304171e+00 1.3110907887530924e+01
        2.2325677477377837e+00 1.7647235824240393e+00
        1.4000401261122795e+01 5.7872565531204767e-01
        2.0615430623404367e+00 2.0538568748984535e+01
        5.2320570573752612e-01 2.0476311579211277e+00
        1.1143617111404041e+01 1.8892977856984519e+00
        1.9757773749970771e+00 7.4535596781108531e+00
        2.7062133833595698e+00 2.6377851871160209e+00
        4.7527306897162642e+00 4.4174646445749154e+01
        1.1589969816590688e+01 1.2650441511160084e+01
        4.4616092417478193e-01 1.6266506039167577e+01
        1.3975777100593634e+00 6.2788370922909309e-01
        3.3463259113958578e+01 3.1207854729343683e+00
        5.6804902451574977e+00 8.6316006987136600e+00
        8.4355421952135519e+00 8.6073025303501272e+00
        2.0216327178041436e+00 2.1930659295868178e+01
        2.0311539846258784e+00 1.0797596110695434e+01
        1.1128394731507768e+01 9.5494059833869127e-01
        2.8509077973434889e+00 1.0189489706447915e+01
        1.4433261981279099e+01 5.2819866863220408e+00
        1.1691409180471908e+00 7.4510914164183684e-01
        1.5407888271981269e+01 2.3792499024743621e+00
        6.9263566368778466e+00 5.9373564427299783e+00
        4.5254227736928563e+01 3.7796220802280360e+00
        4.8800330488622770e+00 1.2608835082667087e+00
        1.1834241896493738e+01 8.0945453877008191e+00
        5.2911534932522999e+00 1.4598993775513712e+01
        2.4553828990264659e+00 2.0040359467014501e+00
        4.4066816997960956e+00 9.6449258773133018e+00
        8.5597288933139311e+00 1.5702059197924223e+00
        -1.5702479338842975e+01 -1.5702479338842975e+01
        -1.5702479338842975e+01 -8.3560498144615636e+00
        -1.5702479338842975e+01 -1.1886506235794982e+01
        -3.2598722790677561e+00 -1.5702479338842975e+01
        -1.5702479338842975e+01 -2.1185842497838476e+00
        -1.5702479338842975e+01 -1.5702479338842975e+01
        -1.5702479338842975e+01 -1.5702479338842975e+01
        -1.5702479338842975e+01 -1.5702479338842975e+01
        -1.5702479338842975e+01 -1.5702479338842975e+01
        -1.5702479338842975e+01 -1.5702479338842975e+01
        -1.5702479338842975e+01 -5.9366029688361817e+00
        -1.5702479338842975e+01 -1.5702479338842975e+01
        -1.5702479338842975e+01 -1.5702479338842975e+01
        -1.1272573712534165e+01 -1.5702479338842975e+01
        -1.5702479338842975e+01 -1.0508061744311785e+00
        -1.5702479338842975e+01 -5.0934951285339558e+00
        -1.5702479338842975e+01 -1.5702479338842975e+01
        -1.5702479338842975e+01 -1.5190993313984510e+01
        -1.5702479338842975e+01 -1.5702479338842975e+01
        -1.5702479338842975e+01 -1.5702479338842975e+01
        -4.4124732509459461e+00 -1.5702479338842975e+01
        -1.5702479338842975e+01 -1.2231125240432076e+01
        -1.5702479338842975e+01 -2.1375514801380029e+00
        -1.1958031017709404e+01 -1.5702479338842975e+01
        -1.5702479338842975e+01 -1.5702479338842975e+01
        -1.5702479338842975e+01 -1.5702479338842975e+01
        -1.5702479338842975e+01 -6.4502415656089216e+00
        -1.5702479338842975e+01 -1.5702479338842975e+01
        -1.5702479338842975e+01 -1.5702479338842975e+01
        -1.5702479338842975e+01 -1.5702479338842975e+01
        -1.5702479338842975e+01 -1.5702479338842975e+01
        -1.5702479338842975e+01 -1.5702479338842975e+01
        -1.1926808893557777e+01 -1.5702479338842975e+01
        -1.5702479338842975e+01 -4.1487283464009526e+00
        -1.5664178649977658e+00 -1.5702479338842975e+01
        -1.5702479338842975e+01 -1.4857330827159112e+01
        -1.5702479338842975e+01 -1.5702479338842975e+01
        -1.5702479338842975e+01 -1.5702479338842975e+01
        -1.6478346634753673e+00 -1.5702479338842975e+01
        -1.5702479338842975e+01 -1.5702479338842975e+01
        -9.1384035319388630e+00 -1.2346542895195862e+01
        -1.5702479338842975e+01 -1.5702479338842975e+01
        -1.5702479338842975e+01 -1.5702479338842975e+01
        -1.5702479338842975e+01 -1.5702479338842975e+01
        -1.5702479338842975e+01 -3.3050427837373144e+00
        -5.9255840733286325e-01 -1.7293151011673202e+00
        -6.2072917432225516e-01 -1.5702479338842975e+01
        -9.5024693021409934e-01 -8.5414455299325525e+00
        -1.5702479338842975e+01 -1.5702479338842975e+01
        -1.5702479338842975e+01 -1.5702479338842975e+01
        -9.4522301418055417e+00 -9.5384400447011277e+00
        -1.5702479338842975e+01 -1.5702479338842975e+01
        -3.2413781518343341e+00 -1.5702479338842975e+01
        -1.5702479338842975e+01 -1.5702479338842975e+01
        -8.3247591368295062e+00 -1.5702479338842975e+01
        -1.5702479338842975e+01 -1.5702479338842975e+01
        -3.9602558382622197e+00 -1.5702479338842975e+01
        -1.5702479338842975e+01 -3.3346384510871330e+00
        -1.5702479338842975e+01 -1.5702479338842975e+01
        -1.4962990833291454e+00 -1.8404021849864522e+00
        -1.5702479338842975e+01 -1.5702479338842975e+01
        -1.5702479338842975e+01 -1.5702479338842975e+01
        -1.8486480764415369e+00 -1.5702479338842975e+01
        -1.5702479338842975e+01 -1.5702479338842975e+01
        -1.5702479338842975e+01 -8.8704317409866054e+00
        -1.5702479338842975e+01 -1.5702479338842975e+01</alpha>
      <index>
        327 326 325 324 323 322 321 320 319 318 317 316 315 314 313 312
        311 310 309 308 307 306 305 304 303 302 301 300 299 298 297 296
        295 294 293 292 291 290 289 288 132 133 134 135 136 137 138 139
        140 141 142 143 144 145 146 147 148 149 150 151 152 153 154 155
        156 157 158 159 160 161 162 163 164 165 166 167 168 169 170 171
        172 173 174 175 176 177 178 179 180 181 182 183 184 185 186 187
        188 189 190 191 192 193 194 195 196 197 198 199 200 201 202 203
        204 205 206 207 208 209 210 211 212 213 214 215 216 217 218 219
        220 221 222 223 224 225 226 227 228 229 230 231 232 233 234 235
        236 237 238 239 240 241 242 243 244 245 246 247 248 249 250 251
        252 253 254 255 256 257 258 259 260 261 262 263 264 265 266 267
        268 269 270 271 272 273 274 275 276 277 278 279 280 281 282 283
        284 285 286 287 131 130 129 128 127 126 125 124 123 122 121 120
        119 118 117 116 115 114 113 112 111 110 109 108 107 106 105 104
        103 102 101 100 99 98 97 96 95 94 93 92 91 90 89 88 87 86 85 84
        83 82 81 80 79 78 77 76 75 74 73 72 71 70 69 68 67 66 65 64 63
        62 61 60 59 58 57 56 55 54 53 52 51 50 49 48 47 46 45 44 43 42
        41 40 39 38 37 36 35 34 33 32 31 30 29 28 27 26 25 24 23 22 21
        20 19 18 17 16 15 14 13 12 11 10 9 8 7 6 5 4 3 2 1 0</index></_></decision_functions></opencv_ml_svm>
</opencv_storage>
