<?xml version="1.0"?>
<opencv_storage>
<opencv_ml_svm>
  <format>3</format>
  <svmType>C_SVC</svmType>
  <kernel>
    <type>RBF</type>
    <gamma>1.0000000000000000e-03</gamma></kernel>
  <C>1.</C>
  <term_criteria><epsilon>1.1920928955078125e-07</epsilon>
    <iterations>1000</iterations></term_criteria>
  <var_count>8</var_count>
  <class_count>2</class_count>
  <class_labels type_id="opencv-matrix">
    <rows>2</rows>
    <cols>1</cols>
    <dt>i</dt>
    <data>
      0 1</data></class_labels>
  <class_weights type_id="opencv-matrix">
    <rows>2</rows>
    <cols>1</cols>
    <dt>d</dt>
    <data>
      5.2511961722488043e-01 4.7488038277511962e-01</data></class_weights>
  <sv_total>743</sv_total>
  <support_vectors>
    <_>
      1.44966461e+02 1.39484390e+02 1.79498367e+02 1.68077133e+02
      1.80509094e+02 1.69434982e+02 1.93826385e+02 1.88249710e+02</_>
    <_>
      1.27831459e+02 9.35873108e+01 1.91470856e+02 1.50597504e+02
      1.94822403e+02 1.63733414e+02 1.83924606e+02 1.56318878e+02</_>
    <_>
      8.05475235e+01 1.32592773e+02 1.52008148e+02 1.85358398e+02
      1.91905762e+02 1.73568115e+02 1.51862656e+02 1.96951706e+02</_>
    <_>
      9.78183517e+01 1.37932266e+02 1.29374832e+02 1.75277634e+02
      1.69510330e+02 1.55614517e+02 1.39336060e+02 1.77522003e+02</_>
    <_>
      1.37391037e+02 1.07204185e+02 1.60269196e+02 1.08969566e+02
      1.91424072e+02 1.43253738e+02 1.65246338e+02 1.34724197e+02</_>
    <_>
      7.34415665e+01 5.58357468e+01 1.32755829e+02 1.07408447e+02
      1.46905487e+02 1.15093575e+02 1.34275146e+02 1.11535645e+02</_>
    <_>
      8.56988220e+01 1.25067772e+02 1.35117523e+02 1.82992722e+02
      1.65527237e+02 1.11762955e+02 1.43048828e+02 1.84123474e+02</_>
    <_>
      6.89916687e+01 9.56616974e+01 9.29560776e+01 1.23148514e+02
      1.44185577e+02 1.12356918e+02 5.69690247e+01 8.71449814e+01</_>
    <_>
      1.18154236e+02 1.20600479e+02 1.85405289e+02 1.54569016e+02
      1.90974518e+02 1.63252808e+02 1.63724350e+02 1.38214935e+02</_>
    <_>
      1.00717407e+02 1.27790878e+02 1.81153427e+02 1.84292160e+02
      1.99042175e+02 1.61925522e+02 1.97436371e+02 2.00600723e+02</_>
    <_>
      1.25254097e+02 1.64117798e+02 1.72227661e+02 2.02894028e+02
      2.08646133e+02 1.65830124e+02 1.79889008e+02 2.00310440e+02</_>
    <_>
      9.33432388e+01 9.43420944e+01 1.24951622e+02 1.65581100e+02
      1.50452728e+02 1.46158783e+02 1.39121323e+02 1.63114761e+02</_>
    <_>
      1.01885986e+02 9.26338120e+01 1.20425095e+02 1.07998352e+02
      1.28140640e+02 1.04134193e+02 1.10868507e+02 1.00797935e+02</_>
    <_>
      1.49075729e+02 1.46102036e+02 1.97131378e+02 1.88560898e+02
      1.91684097e+02 1.65933258e+02 2.18587463e+02 1.85175873e+02</_>
    <_>
      1.24340378e+02 1.36418396e+02 1.85114487e+02 1.94536133e+02
      2.01184921e+02 1.60700607e+02 1.86228333e+02 1.97901199e+02</_>
    <_>
      1.18015106e+02 1.37710358e+02 1.64976059e+02 2.00423447e+02
      1.66097839e+02 1.57628555e+02 1.31439484e+02 1.89169998e+02</_>
    <_>
      1.32504745e+02 1.29669952e+02 1.47032837e+02 1.50489502e+02
      1.91040207e+02 1.43784409e+02 1.62251450e+02 1.56357880e+02</_>
    <_>
      7.91968613e+01 9.24447250e+01 1.02806854e+02 1.29705093e+02
      1.18614235e+02 1.08990303e+02 1.02226471e+02 1.23885529e+02</_>
    <_>
      1.20143440e+02 9.22993774e+01 1.69869492e+02 1.60144760e+02
      1.91319748e+02 1.34304077e+02 1.52360168e+02 1.52188766e+02</_>
    <_>
      1.31955704e+02 1.00030533e+02 1.94568146e+02 1.52696594e+02
      1.69250778e+02 1.15294228e+02 1.76741470e+02 1.26954971e+02</_>
    <_>
      1.25163620e+02 7.45008621e+01 1.47783585e+02 1.28142120e+02
      1.62397369e+02 1.14068558e+02 1.49547943e+02 1.43537354e+02</_>
    <_>
      7.32834167e+01 9.41837540e+01 1.23935364e+02 1.45942444e+02
      1.57542343e+02 1.19265015e+02 1.32476181e+02 1.57293533e+02</_>
    <_>
      1.37659210e+02 1.18866615e+02 1.74622894e+02 1.58420242e+02
      1.71047379e+02 1.37944092e+02 1.67320068e+02 1.59321915e+02</_>
    <_>
      3.23617897e+01 3.61347809e+01 9.12732849e+01 1.03548286e+02
      1.42001175e+02 1.11476166e+02 1.22345367e+02 1.41213089e+02</_>
    <_>
      8.01937103e+01 7.89225922e+01 1.53786316e+02 1.34984695e+02
      1.56384140e+02 1.10349922e+02 1.25703644e+02 1.18653915e+02</_>
    <_>
      4.51501389e+01 5.44520760e+01 1.04859444e+02 1.09033737e+02
      1.16541542e+02 8.41668472e+01 9.69314575e+01 9.40202637e+01</_>
    <_>
      1.37886154e+02 1.12056511e+02 1.67607162e+02 1.20984848e+02
      1.54270187e+02 1.27555588e+02 1.75850266e+02 1.24546684e+02</_>
    <_>
      5.48501434e+01 1.02289970e+02 1.23095093e+02 1.61300964e+02
      1.49040375e+02 1.10191711e+02 1.24542686e+02 1.57542450e+02</_>
    <_>
      1.51998672e+02 1.50195389e+02 1.85762955e+02 1.77433853e+02
      2.00673431e+02 1.73797058e+02 1.62642700e+02 1.45068954e+02</_>
    <_>
      7.75651016e+01 9.56310501e+01 1.30630692e+02 1.37081528e+02
      1.52103989e+02 1.44616486e+02 1.42300293e+02 1.41105164e+02</_>
    <_>
      7.64502106e+01 8.74395599e+01 1.45439972e+02 1.38974655e+02
      1.62811722e+02 1.62185120e+02 1.62546768e+02 1.61559387e+02</_>
    <_>
      1.14801704e+02 1.20685669e+02 1.66856445e+02 1.52483612e+02
      1.77981796e+02 1.28265991e+02 1.50623215e+02 1.41580963e+02</_>
    <_>
      1.81033203e+02 1.25263802e+02 2.02666870e+02 1.68211426e+02
      1.96122955e+02 1.73371140e+02 1.99008865e+02 1.72502960e+02</_>
    <_>
      1.76152191e+02 1.63081390e+02 1.74019592e+02 1.98580429e+02
      1.76508881e+02 1.74671509e+02 1.69677933e+02 1.90372665e+02</_>
    <_>
      1.68718994e+02 1.11694206e+02 2.07450943e+02 1.32854797e+02
      2.05127975e+02 1.58546722e+02 2.02287415e+02 9.48434982e+01</_>
    <_>
      1.49947784e+02 1.06214287e+02 1.95781342e+02 1.49866135e+02
      1.88751480e+02 1.45120499e+02 1.58150055e+02 1.23959999e+02</_>
    <_>
      1.05970528e+02 8.21271362e+01 1.22639427e+02 1.03299530e+02
      1.29863312e+02 1.30084579e+02 1.30263031e+02 1.25670929e+02</_>
    <_>
      1.73036163e+02 1.52935776e+02 1.88795975e+02 1.72150085e+02
      1.70474503e+02 1.52342850e+02 1.90107742e+02 1.74845093e+02</_>
    <_>
      1.67364410e+02 1.94837662e+02 1.85396973e+02 2.08789017e+02
      1.90953949e+02 1.88921921e+02 1.98806808e+02 1.99601013e+02</_>
    <_>
      9.52126465e+01 5.85016708e+01 1.36513443e+02 8.71824493e+01
      1.40129089e+02 9.94484100e+01 1.15927589e+02 8.57645111e+01</_>
    <_>
      5.83841591e+01 7.03574219e+01 1.14702034e+02 1.19425087e+02
      1.44924072e+02 1.13648064e+02 1.17972755e+02 1.29476974e+02</_>
    <_>
      6.42666168e+01 6.74787598e+01 1.45041870e+02 1.26337311e+02
      1.38729630e+02 1.09698059e+02 1.10747818e+02 1.05682579e+02</_>
    <_>
      7.89764328e+01 5.23330765e+01 1.61519714e+02 1.10934341e+02
      1.64677872e+02 1.09319260e+02 1.15686668e+02 7.99261551e+01</_>
    <_>
      1.10208740e+02 9.54275436e+01 1.49248474e+02 1.29575531e+02
      1.32189011e+02 1.09345291e+02 1.19751717e+02 1.15354782e+02</_>
    <_>
      9.49311981e+01 1.12819954e+02 1.20355797e+02 1.53395874e+02
      1.57315002e+02 1.03268562e+02 9.59892654e+01 1.13717720e+02</_>
    <_>
      4.02700195e+01 3.34336586e+01 3.57792854e+01 5.48310013e+01
      3.80453682e+01 2.32577534e+01 3.29210167e+01 6.81311340e+01</_>
    <_>
      1.17422668e+02 1.49672195e+02 1.96396683e+02 1.84271408e+02
      1.88062836e+02 1.67849670e+02 1.85528687e+02 1.70563858e+02</_>
    <_>
      8.46592560e+01 5.09610176e+01 9.14794998e+01 8.05237656e+01
      1.04147858e+02 7.95444794e+01 9.61790924e+01 9.26779175e+01</_>
    <_>
      9.49475021e+01 8.61274643e+01 1.51335922e+02 1.44289337e+02
      1.77710510e+02 1.16364861e+02 1.41039673e+02 9.25025864e+01</_>
    <_>
      1.67621918e+02 1.50384552e+02 1.97590698e+02 1.87932693e+02
      2.13055740e+02 1.58683777e+02 1.74185150e+02 1.61003296e+02</_>
    <_>
      1.09036026e+02 1.06750977e+02 1.26565918e+02 1.31143173e+02
      1.34190567e+02 1.10358109e+02 1.13560257e+02 1.18290543e+02</_>
    <_>
      1.18369362e+02 1.24800636e+02 1.80860565e+02 1.58897827e+02
      1.85819046e+02 1.55794373e+02 1.95738556e+02 1.73164993e+02</_>
    <_>
      1.20603378e+02 1.07747589e+02 1.83814972e+02 1.53004196e+02
      1.84677078e+02 1.36946701e+02 1.83302551e+02 1.40603958e+02</_>
    <_>
      9.82370300e+01 1.04250000e+02 1.50285309e+02 1.49374893e+02
      1.79419357e+02 1.49040756e+02 1.76031250e+02 1.39655914e+02</_>
    <_>
      9.34087296e+01 6.25393867e+01 1.28839493e+02 1.35115234e+02
      1.62268250e+02 9.98828049e+01 1.03469749e+02 1.08674011e+02</_>
    <_>
      8.09204330e+01 6.16661949e+01 1.16656868e+02 1.00633110e+02
      1.24507263e+02 7.18566208e+01 1.11474129e+02 1.35381516e+02</_>
    <_>
      8.28631668e+01 8.38929443e+01 1.32629257e+02 1.30976074e+02
      1.55719086e+02 1.27404579e+02 1.50952332e+02 1.37725754e+02</_>
    <_>
      9.17786255e+01 1.22703568e+02 1.42119812e+02 1.60577057e+02
      1.63883133e+02 1.20071922e+02 1.27973312e+02 1.54292038e+02</_>
    <_>
      1.32598663e+02 1.34295700e+02 1.64265793e+02 1.62758484e+02
      1.90863068e+02 1.52746460e+02 1.55508987e+02 1.83627243e+02</_>
    <_>
      8.08727798e+01 7.08723984e+01 1.48394852e+02 1.26434166e+02
      1.66838623e+02 1.56108505e+02 1.97828201e+02 1.73300430e+02</_>
    <_>
      1.38933060e+02 1.04741760e+02 1.64104263e+02 1.53209045e+02
      1.79621094e+02 1.59428192e+02 1.67514694e+02 1.79420792e+02</_>
    <_>
      7.53541336e+01 1.23624252e+02 1.96407013e+02 1.54728226e+02
      1.87899872e+02 1.71658432e+02 2.13759644e+02 1.56151123e+02</_>
    <_>
      1.19029404e+02 1.53533920e+02 1.48845428e+02 1.89128342e+02
      1.68866592e+02 1.49314713e+02 1.37175842e+02 1.69936005e+02</_>
    <_>
      7.91174393e+01 8.22163925e+01 1.06675385e+02 1.06958031e+02
      1.47273956e+02 1.22123962e+02 1.16225525e+02 1.15809166e+02</_>
    <_>
      1.59445221e+02 1.65761215e+02 1.83631363e+02 1.98076050e+02
      1.74994888e+02 1.62691849e+02 1.89445465e+02 2.01227188e+02</_>
    <_>
      7.48574066e+01 1.04637024e+02 1.24402504e+02 1.42793945e+02
      1.46065918e+02 1.19394730e+02 1.29933395e+02 1.38869064e+02</_>
    <_>
      7.75453720e+01 8.62417297e+01 1.12518562e+02 1.23406189e+02
      1.74165131e+02 1.51726944e+02 1.06556694e+02 8.87254486e+01</_>
    <_>
      6.78392563e+01 1.28847839e+02 1.12177902e+02 1.80995728e+02
      1.77912109e+02 1.32696960e+02 1.05176445e+02 1.56755051e+02</_>
    <_>
      1.67456940e+02 1.39812653e+02 1.76672913e+02 1.60813141e+02
      1.92517578e+02 1.66282211e+02 1.82562225e+02 1.79444122e+02</_>
    <_>
      1.50550079e+02 1.47687103e+02 2.07466980e+02 1.92066116e+02
      1.96906403e+02 1.70051178e+02 2.12985916e+02 1.87677826e+02</_>
    <_>
      1.82934647e+02 1.16784401e+02 1.76794022e+02 1.65197830e+02
      1.93927078e+02 1.51409790e+02 1.74078873e+02 1.34195709e+02</_>
    <_>
      9.66255722e+01 7.70761337e+01 9.31995010e+01 1.00383202e+02
      1.01304840e+02 9.68116379e+01 9.27050629e+01 6.93207932e+01</_>
    <_>
      6.54421616e+01 7.97200546e+01 1.39073883e+02 1.07318634e+02 142.
      1.01898598e+02 8.84776154e+01 1.07229279e+02</_>
    <_>
      1.27002617e+02 9.54106369e+01 1.89242279e+02 1.46641663e+02
      1.68199371e+02 1.10989967e+02 1.72504379e+02 1.22822693e+02</_>
    <_>
      2.03517212e+02 2.18346893e+02 2.15294479e+02 2.15174484e+02
      2.23100372e+02 2.07711334e+02 2.26065857e+02 2.16667221e+02</_>
    <_>
      9.68881378e+01 1.07379395e+02 1.73031464e+02 1.79322342e+02
      1.93225571e+02 1.23415581e+02 1.47773270e+02 1.53517181e+02</_>
    <_>
      1.42013153e+02 8.94847794e+01 1.63907837e+02 1.46893997e+02
      1.79652176e+02 1.32496674e+02 1.69291473e+02 1.64244446e+02</_>
    <_>
      1.24348175e+02 8.43038406e+01 1.43516785e+02 9.87820816e+01
      1.37612457e+02 1.11003006e+02 1.32097687e+02 9.70152588e+01</_>
    <_>
      6.08026123e+01 8.00411758e+01 1.05919739e+02 1.29295349e+02
      1.41353439e+02 1.00958038e+02 1.13134148e+02 1.40015930e+02</_>
    <_>
      8.27552719e+01 9.02504883e+01 1.46033997e+02 1.48019226e+02
      1.56228058e+02 9.21452942e+01 1.46479263e+02 1.33036957e+02</_>
    <_>
      7.12426910e+01 9.98304749e+01 1.12340172e+02 1.56120743e+02
      1.53919632e+02 1.40621780e+02 1.19510757e+02 1.58790543e+02</_>
    <_>
      1.69627136e+02 1.24464058e+02 1.91306732e+02 1.85355103e+02
      1.86864502e+02 1.86310074e+02 2.00706299e+02 1.90762894e+02</_>
    <_>
      1.34262177e+02 9.40888367e+01 1.71673660e+02 1.70235825e+02
      1.76113159e+02 1.45617065e+02 1.64729843e+02 1.64115891e+02</_>
    <_>
      5.06687889e+01 6.61992645e+01 9.67860031e+01 1.30848557e+02
      1.34326614e+02 8.25674210e+01 6.52269974e+01 9.12249832e+01</_>
    <_>
      1.46848679e+02 1.58892609e+02 1.94585114e+02 2.04145370e+02
      2.11270660e+02 1.67324707e+02 1.86135544e+02 1.94016724e+02</_>
    <_>
      1.58308868e+02 1.47312454e+02 1.95294205e+02 1.69871292e+02
      1.73647766e+02 1.62853302e+02 1.83552948e+02 1.61755722e+02</_>
    <_>
      6.45173264e+01 7.81005325e+01 9.07833557e+01 9.64992371e+01
      1.01099815e+02 9.16031494e+01 7.16245193e+01 8.24899139e+01</_>
    <_>
      9.29758530e+01 9.44355164e+01 1.20681435e+02 1.16212868e+02
      1.26666664e+02 1.23392288e+02 9.95288391e+01 9.03940506e+01</_>
    <_>
      1.20348022e+02 1.35714279e+02 1.46106873e+02 1.86708008e+02
      1.85078873e+02 1.63092606e+02 1.56982864e+02 1.87942062e+02</_>
    <_>
      1.00159637e+02 1.01203896e+02 1.08807579e+02 1.26352089e+02
      1.26832359e+02 1.27325539e+02 1.28974808e+02 1.27753960e+02</_>
    <_>
      9.20809937e+01 1.06860382e+02 1.39994781e+02 1.27989998e+02
      1.49041565e+02 1.39154922e+02 1.53011642e+02 1.40920944e+02</_>
    <_>
      1.47630508e+02 1.32248795e+02 1.94104324e+02 1.61000702e+02
      1.69125793e+02 1.53540024e+02 1.94264587e+02 1.74131104e+02</_>
    <_>
      9.58400345e+01 7.22584915e+01 1.30108978e+02 1.04841637e+02
      1.36646957e+02 1.08191406e+02 1.38106934e+02 1.15683083e+02</_>
    <_>
      1.22461990e+02 1.46831436e+02 1.45540176e+02 1.62164673e+02
      1.60440933e+02 9.59756470e+01 1.27664612e+02 1.39785706e+02</_>
    <_>
      1.08715309e+02 8.67358322e+01 1.78822586e+02 1.39365295e+02
      1.60872070e+02 1.13894318e+02 1.48451782e+02 1.20760010e+02</_>
    <_>
      9.85505524e+01 1.00548042e+02 1.44526154e+02 1.56184357e+02
      1.63443420e+02 1.14207993e+02 1.45655334e+02 1.59363251e+02</_>
    <_>
      1.29004593e+02 1.53708817e+02 1.62052780e+02 1.85287094e+02
      1.86707977e+02 1.63843750e+02 1.64220337e+02 1.84679337e+02</_>
    <_>
      1.08178658e+02 1.16840233e+02 1.58045090e+02 1.76325317e+02
      1.94531494e+02 1.57414673e+02 1.46820068e+02 1.51645691e+02</_>
    <_>
      9.30060349e+01 1.18946075e+02 1.32524490e+02 1.44665924e+02
      1.54376511e+02 1.14176064e+02 1.14561020e+02 1.50296310e+02</_>
    <_>
      1.46017426e+02 1.46835190e+02 2.00197205e+02 1.46134247e+02
      2.01502686e+02 1.82443298e+02 2.05155273e+02 1.55680817e+02</_>
    <_>
      1.12814034e+02 7.62433014e+01 1.77272278e+02 1.08899147e+02
      1.41006516e+02 1.21408386e+02 1.61398468e+02 1.21171455e+02</_>
    <_>
      1.23015518e+02 1.02412910e+02 1.41260925e+02 1.60867172e+02
      1.44277115e+02 1.51717911e+02 1.53944672e+02 1.77104568e+02</_>
    <_>
      1.02617043e+02 7.62778473e+01 1.25047073e+02 1.08852448e+02
      1.38337570e+02 1.06538887e+02 1.23380386e+02 1.04066063e+02</_>
    <_>
      1.44629196e+02 1.19133751e+02 1.65238327e+02 1.41690079e+02
      1.58672363e+02 1.34003464e+02 1.55340149e+02 1.32617035e+02</_>
    <_>
      9.33443604e+01 6.79038696e+01 1.36412613e+02 1.65299149e+02
      1.75812149e+02 1.53860275e+02 1.49196121e+02 1.42497787e+02</_>
    <_>
      9.17447357e+01 7.33626633e+01 1.52531555e+02 1.38351730e+02
      1.85854904e+02 1.60024796e+02 2.09185715e+02 2.06685455e+02</_>
    <_>
      8.87824631e+01 8.62768631e+01 1.37289597e+02 1.34890427e+02
      1.54847580e+02 1.12426979e+02 1.30228363e+02 1.32141586e+02</_>
    <_>
      1.37930649e+02 8.61182938e+01 1.86930038e+02 1.23451317e+02
      1.95140488e+02 1.39981903e+02 1.59623962e+02 9.68874359e+01</_>
    <_>
      1.50950516e+02 1.33111969e+02 1.77322220e+02 1.68492020e+02
      1.60775681e+02 1.20578300e+02 1.48367249e+02 1.42042709e+02</_>
    <_>
      9.39774628e+01 8.35182648e+01 1.20359619e+02 1.06410042e+02
      1.14388496e+02 1.03082497e+02 1.19655106e+02 1.06638939e+02</_>
    <_>
      9.46118393e+01 1.18626724e+02 1.19852821e+02 1.53110474e+02
      1.44340836e+02 1.25501602e+02 1.31971848e+02 1.58596695e+02</_>
    <_>
      6.94285507e+01 9.11353455e+01 1.03534927e+02 1.21553246e+02
      1.10121613e+02 7.56339569e+01 9.23038406e+01 1.08524513e+02</_>
    <_>
      6.33370361e+01 4.88748283e+01 9.48019104e+01 9.64697723e+01
      1.24632797e+02 6.98218765e+01 8.93922653e+01 8.07665710e+01</_>
    <_>
      1.05526733e+02 9.84471207e+01 1.34784088e+02 1.23741066e+02
      1.57579330e+02 1.27338593e+02 1.40829086e+02 1.22273888e+02</_>
    <_>
      8.32865143e+01 1.28497818e+02 1.37868469e+02 1.73438568e+02
      1.42225098e+02 1.31393311e+02 1.32092377e+02 1.61549774e+02</_>
    <_>
      8.51770859e+01 1.71768021e+02 1.81981689e+02 2.11617584e+02
      2.03993866e+02 1.72469543e+02 2.04027679e+02 2.17488922e+02</_>
    <_>
      7.51158371e+01 8.49878693e+01 1.41319305e+02 1.35774002e+02
      1.38158585e+02 1.26425659e+02 1.41318787e+02 1.38948242e+02</_>
    <_>
      6.83771744e+01 3.68275414e+01 1.25029297e+02 7.01656036e+01
      1.32539108e+02 1.18779922e+02 1.52585922e+02 1.23046547e+02</_>
    <_>
      8.69420166e+01 8.32343903e+01 1.15400192e+02 1.09417831e+02
      1.51313446e+02 1.25778137e+02 1.25084389e+02 1.19165382e+02</_>
    <_>
      5.69856567e+01 8.41939545e+01 1.23884415e+02 1.47472229e+02
      1.54846161e+02 1.16408737e+02 1.26258484e+02 1.44703857e+02</_>
    <_>
      7.09141541e+01 9.77148972e+01 1.14936409e+02 1.27439835e+02
      1.18264069e+02 9.80633926e+01 7.60289841e+01 9.09727249e+01</_>
    <_>
      9.29791107e+01 1.07078041e+02 1.15196419e+02 1.33622971e+02
      1.63803085e+02 1.22091339e+02 1.13598289e+02 1.43511505e+02</_>
    <_>
      7.78893738e+01 7.85500793e+01 1.05770454e+02 1.01170662e+02
      1.42287506e+02 1.19234367e+02 1.15195007e+02 1.12981773e+02</_>
    <_>
      6.26359711e+01 9.11338654e+01 6.99551010e+01 7.98181839e+01
      9.04826508e+01 7.98831558e+01 8.07438126e+01 1.00892464e+02</_>
    <_>
      1.54376358e+02 1.45363098e+02 1.54759613e+02 1.41692596e+02
      1.77259399e+02 1.44373077e+02 1.46317657e+02 1.41058334e+02</_>
    <_>
      8.34789505e+01 1.16546829e+02 1.12570610e+02 1.29547302e+02
      1.01921844e+02 1.26742973e+02 1.15470840e+02 1.05552299e+02</_>
    <_>
      1.07690315e+02 6.71283035e+01 1.55187790e+02 1.39989166e+02
      1.70047836e+02 1.46513428e+02 1.56184830e+02 1.41902039e+02</_>
    <_>
      1.13926819e+02 8.91968613e+01 1.88590393e+02 1.28306259e+02
      1.54918900e+02 1.49594757e+02 1.70621552e+02 1.35212479e+02</_>
    <_>
      1.32861816e+02 1.02239098e+02 1.57601166e+02 1.37068741e+02
      1.83691208e+02 1.19749306e+02 6.73954391e+01 5.20523338e+01</_>
    <_>
      8.99311905e+01 1.04647453e+02 1.42044586e+02 1.43571915e+02
      1.46936249e+02 1.00657906e+02 1.14492119e+02 1.13547256e+02</_>
    <_>
      6.52685013e+01 6.39443436e+01 1.13282440e+02 1.21068626e+02
      1.44499039e+02 1.07796196e+02 1.09067490e+02 1.07260994e+02</_>
    <_>
      1.05487114e+02 1.15152290e+02 1.32797653e+02 1.46074432e+02
      1.42957336e+02 1.11437660e+02 1.37952789e+02 1.50367966e+02</_>
    <_>
      1.82588837e+02 1.95021057e+02 1.97202179e+02 2.21893860e+02
      2.17651276e+02 1.96043808e+02 1.99307297e+02 2.25866531e+02</_>
    <_>
      1.65700470e+02 1.35673828e+02 2.08204742e+02 1.88537064e+02
      1.96115295e+02 1.72946991e+02 2.10705338e+02 1.88021378e+02</_>
    <_>
      6.86656570e+01 4.45837440e+01 1.73075012e+02 1.93444565e+02
      1.75738708e+02 1.33800568e+02 8.64259872e+01 1.54751419e+02</_>
    <_>
      7.15623627e+01 1.01215088e+02 1.13594315e+02 1.58505722e+02
      1.57639664e+02 1.46108994e+02 1.19751457e+02 1.57801285e+02</_>
    <_>
      1.03930908e+02 1.03976013e+02 1.51106491e+02 1.12028168e+02
      1.44792816e+02 1.32194168e+02 1.16573479e+02 1.22494606e+02</_>
    <_>
      1.46069748e+02 1.04589172e+02 1.77844757e+02 1.21358429e+02
      1.69835419e+02 1.40976990e+02 1.69571564e+02 1.38225281e+02</_>
    <_>
      1.18199760e+02 1.40131836e+02 1.25508270e+02 1.80272659e+02
      1.51710297e+02 1.44417984e+02 1.39615875e+02 1.74259705e+02</_>
    <_>
      1.41514435e+02 1.09247192e+02 1.63722763e+02 1.34121307e+02
      1.81202927e+02 1.77089233e+02 1.57703995e+02 1.89292862e+02</_>
    <_>
      1.56977875e+02 9.28121567e+01 1.83574646e+02 1.07418686e+02
      1.66183243e+02 1.18320885e+02 1.38101898e+02 1.05892380e+02</_>
    <_>
      1.86111832e+02 1.76923416e+02 2.23238235e+02 2.10479187e+02
      2.17602570e+02 2.05541534e+02 2.17743881e+02 2.12130569e+02</_>
    <_>
      1.31105469e+02 1.69653976e+02 2.02934616e+02 2.00118439e+02
      2.05260681e+02 1.81395767e+02 1.96138611e+02 1.94381012e+02</_>
    <_>
      1.03515366e+02 8.37519302e+01 1.40905930e+02 1.05651344e+02
      1.46818115e+02 1.16942688e+02 1.09984604e+02 8.12349472e+01</_>
    <_>
      6.14137840e+01 4.64355469e+01 1.31497375e+02 1.55368484e+02
      1.56547821e+02 1.03828117e+02 8.09789581e+01 9.78151703e+01</_>
    <_>
      1.29510071e+02 1.79324310e+02 2.01258789e+02 2.01467453e+02
      2.19047012e+02 1.97626938e+02 1.94206955e+02 1.87372086e+02</_>
    <_>
      1.20636803e+02 1.00903137e+02 1.55723404e+02 1.28428116e+02
      1.66757034e+02 1.36059525e+02 1.42917892e+02 1.18217621e+02</_>
    <_>
      1.22995010e+02 6.64056625e+01 1.53190659e+02 1.30085342e+02
      1.78383530e+02 1.33297470e+02 1.42983612e+02 1.41028564e+02</_>
    <_>
      1.13297920e+02 9.41984177e+01 1.78393188e+02 1.36040985e+02
      1.59704681e+02 1.23918243e+02 1.59812515e+02 1.48113785e+02</_>
    <_>
      1.48585480e+02 1.13075600e+02 1.73428665e+02 1.44617310e+02
      1.91695129e+02 1.59543823e+02 1.80127609e+02 1.63869171e+02</_>
    <_>
      1.10532639e+02 6.90673141e+01 1.47442505e+02 1.29377197e+02
      1.48458084e+02 1.12863808e+02 1.44694092e+02 1.11259636e+02</_>
    <_>
      9.05229874e+01 1.04110153e+02 1.01288376e+02 1.19038528e+02
      1.20406815e+02 1.01634979e+02 1.05077843e+02 1.18939278e+02</_>
    <_>
      1.12159149e+02 1.06567749e+02 1.37786102e+02 1.22580994e+02
      1.57180542e+02 1.23079086e+02 6.92589035e+01 6.03437195e+01</_>
    <_>
      1.34917679e+02 1.30328430e+02 1.75030365e+02 1.65392365e+02
      1.66795105e+02 1.53489365e+02 1.55454025e+02 1.43545761e+02</_>
    <_>
      9.51999969e+01 8.09827347e+01 1.89410904e+02 1.53843414e+02
      2.10784668e+02 1.36039780e+02 1.64469482e+02 1.60459167e+02</_>
    <_>
      9.14613113e+01 1.22475319e+02 1.44047379e+02 1.27224991e+02
      1.56997391e+02 1.25640411e+02 1.43432739e+02 1.36920120e+02</_>
    <_>
      6.23271294e+01 7.66670914e+01 9.46339188e+01 1.19426170e+02
      1.47885178e+02 9.69488831e+01 6.84100266e+01 7.31056824e+01</_>
    <_>
      1.69812698e+02 1.69050522e+02 1.99452591e+02 2.05304947e+02
      2.18198822e+02 1.34976517e+02 1.82604706e+02 1.93316803e+02</_>
    <_>
      9.90246887e+01 5.80706749e+01 1.45992111e+02 6.71796951e+01
      1.25954239e+02 9.06440125e+01 1.34334259e+02 7.96643524e+01</_>
    <_>
      1.63550507e+02 1.50690125e+02 1.99884689e+02 1.75104050e+02
      1.78218521e+02 1.69899231e+02 1.92803741e+02 1.70338547e+02</_>
    <_>
      1.33871155e+02 1.42143707e+02 1.90867767e+02 1.88737045e+02
      1.66686737e+02 1.58756592e+02 2.03783936e+02 2.08897446e+02</_>
    <_>
      1.35599655e+02 1.30857147e+02 2.00148376e+02 1.91682510e+02
      1.97389786e+02 1.77899689e+02 1.87035522e+02 1.86252869e+02</_>
    <_>
      1.65059280e+02 1.61498306e+02 1.71264908e+02 1.82401001e+02
      1.84805634e+02 1.62303864e+02 1.80040405e+02 1.76617371e+02</_>
    <_>
      1.14965004e+02 1.30144531e+02 1.46999405e+02 1.73767715e+02
      1.61920853e+02 1.46471115e+02 1.57440109e+02 1.81201660e+02</_>
    <_>
      7.16841812e+01 7.11955338e+01 1.18921822e+02 1.10591141e+02
      1.30202347e+02 1.01322884e+02 1.15623421e+02 1.12461945e+02</_>
    <_>
      1.21459595e+02 1.19573273e+02 1.44126266e+02 1.53259323e+02
      1.49781158e+02 1.25251274e+02 1.26584717e+02 1.32765076e+02</_>
    <_>
      1.22848595e+02 1.36781387e+02 1.57046692e+02 1.88037827e+02
      1.65512314e+02 1.40167419e+02 1.41503372e+02 1.83010864e+02</_>
    <_>
      5.51541405e+01 8.51266327e+01 1.19414070e+02 1.41131531e+02
      1.34104874e+02 1.11850716e+02 1.41306091e+02 1.44117401e+02</_>
    <_>
      1.05868378e+02 8.50858536e+01 1.40080353e+02 1.18846657e+02
      1.58818176e+02 1.17169701e+02 9.79521790e+01 9.53035278e+01</_>
    <_>
      1.38381256e+02 1.19365616e+02 1.64851135e+02 1.59952026e+02
      1.64828156e+02 1.47534241e+02 1.78031708e+02 1.78795670e+02</_>
    <_>
      1.25720848e+02 1.38723450e+02 1.71607422e+02 1.87728943e+02
      1.83830719e+02 1.44447433e+02 1.78902222e+02 1.88153564e+02</_>
    <_>
      5.75257607e+01 5.93575859e+01 7.67902985e+01 7.71453857e+01
      1.04693375e+02 5.96811829e+01 6.49416656e+01 5.72122841e+01</_>
    <_>
      6.13254585e+01 5.99590645e+01 1.13865662e+02 1.55269669e+02
      1.55177979e+02 1.22703568e+02 1.28029953e+02 1.42379303e+02</_>
    <_>
      1.67755783e+02 1.60352158e+02 2.14918350e+02 1.99876724e+02
      2.05127945e+02 1.77779922e+02 2.09855637e+02 1.93419693e+02</_>
    <_>
      8.55018616e+01 5.85996666e+01 1.50392426e+02 1.00342911e+02
      1.32794174e+02 1.35256851e+02 1.52313461e+02 1.25943649e+02</_>
    <_>
      7.24015121e+01 8.88038177e+01 1.15622482e+02 1.53010315e+02
      1.54468384e+02 9.32343445e+01 1.18155701e+02 1.50291061e+02</_>
    <_>
      8.76693039e+01 9.20101318e+01 1.32242203e+02 1.28902786e+02
      1.68951035e+02 9.61764069e+01 9.62465744e+01 1.18229729e+02</_>
    <_>
      1.64573624e+02 1.29192871e+02 1.92684509e+02 1.61680023e+02
      1.86126328e+02 1.64971329e+02 1.69793732e+02 1.25535751e+02</_>
    <_>
      1.03513687e+02 9.03855362e+01 1.36852951e+02 1.28390137e+02
      1.36652359e+02 7.74464188e+01 1.15523827e+02 1.17432251e+02</_>
    <_>
      7.74846191e+01 8.28071899e+01 1.57361877e+02 1.24553726e+02
      1.39011566e+02 1.28717789e+02 1.41014862e+02 1.19014496e+02</_>
    <_>
      9.59968643e+01 9.18784561e+01 1.12483498e+02 1.04021896e+02
      1.09333778e+02 8.93803482e+01 1.00822388e+02 1.26910011e+02</_>
    <_>
      1.10643425e+02 8.34429321e+01 1.80811172e+02 1.20430588e+02
      1.85944534e+02 1.61151184e+02 1.93059174e+02 1.69218262e+02</_>
    <_>
      9.11914215e+01 1.23363449e+02 1.66250916e+02 1.64385712e+02
      1.68745819e+02 1.50434372e+02 1.46196579e+02 1.70720886e+02</_>
    <_>
      1.14126114e+02 1.08834824e+02 1.68248627e+02 1.41640717e+02
      1.74051407e+02 1.22060799e+02 1.26670868e+02 8.79427567e+01</_>
    <_>
      1.33354919e+02 8.45032349e+01 1.53268112e+02 1.51676941e+02
      1.84935074e+02 1.36300385e+02 1.64715912e+02 1.43776001e+02</_>
    <_>
      1.56062012e+02 1.76033890e+02 2.20657120e+02 1.94025620e+02
      2.12668533e+02 1.87865707e+02 2.11617371e+02 2.00624588e+02</_>
    <_>
      1.42349899e+02 1.26462654e+02 1.92005569e+02 2.08428467e+02
      2.02383743e+02 1.89829361e+02 1.98686569e+02 2.15884415e+02</_>
    <_>
      7.07192154e+01 1.12904350e+02 1.12678848e+02 1.64214020e+02
      1.54254288e+02 1.06284286e+02 9.02480316e+01 1.37380615e+02</_>
    <_>
      1.16099564e+02 1.00577667e+02 1.83451416e+02 1.96657867e+02
      1.85809280e+02 1.49544159e+02 1.50130280e+02 1.62038834e+02</_>
    <_>
      1.02323273e+02 9.38781738e+01 1.41214462e+02 1.29013062e+02
      1.35321152e+02 1.15268692e+02 1.31781906e+02 1.18847054e+02</_>
    <_>
      1.65467392e+02 1.60028870e+02 1.91473419e+02 2.17030167e+02
      2.13832199e+02 1.97443649e+02 1.94402420e+02 2.30888397e+02</_>
    <_>
      1.65309235e+02 1.55596100e+02 1.92372025e+02 1.82319809e+02
      1.92347824e+02 1.40193527e+02 1.89746536e+02 1.80494110e+02</_>
    <_>
      1.05799355e+02 1.00351097e+02 1.89879959e+02 1.97186981e+02
      2.07144897e+02 1.69431564e+02 1.86445343e+02 2.02273666e+02</_>
    <_>
      9.32078552e+01 1.09308220e+02 1.91743774e+02 1.87667236e+02
      2.09853516e+02 1.28393311e+02 1.86626389e+02 1.75594788e+02</_>
    <_>
      7.67405090e+01 5.95428581e+01 1.02512177e+02 7.66987686e+01
      1.04332451e+02 7.60385895e+01 9.23937683e+01 7.34118347e+01</_>
    <_>
      8.58637543e+01 5.40585938e+01 1.35320541e+02 9.77726517e+01
      1.50735138e+02 1.19633514e+02 1.45432755e+02 1.17892731e+02</_>
    <_>
      1.06795731e+02 8.79938126e+01 1.46457886e+02 1.06690086e+02
      9.94792633e+01 1.11698715e+02 1.36920349e+02 1.11093246e+02</_>
    <_>
      1.52618134e+02 1.39202255e+02 1.88247299e+02 1.65865692e+02
      1.56255844e+02 1.45448456e+02 1.85551819e+02 1.67447281e+02</_>
    <_>
      1.29684769e+02 1.04733528e+02 1.43884750e+02 1.27302162e+02
      1.37196854e+02 1.09014305e+02 1.08731560e+02 1.14683434e+02</_>
    <_>
      1.02662720e+02 9.46593094e+01 1.32033447e+02 1.47611435e+02
      1.50009674e+02 7.18526993e+01 5.47720337e+01 6.08977661e+01</_>
    <_>
      1.85287811e+02 1.66770340e+02 2.03611588e+02 1.88071259e+02
      1.78041855e+02 1.69890274e+02 2.06946213e+02 1.92825760e+02</_>
    <_>
      7.10209274e+01 7.57589111e+01 1.22123741e+02 1.30251526e+02
      1.28742218e+02 1.04981041e+02 1.25727005e+02 1.27149055e+02</_>
    <_>
      1.03233047e+02 7.93762589e+01 1.41369995e+02 1.07425278e+02
      1.62041672e+02 1.37246429e+02 1.46322296e+02 1.11950798e+02</_>
    <_>
      6.32460556e+01 9.57683487e+01 1.06332077e+02 1.13717682e+02
      1.29421799e+02 1.40118195e+02 1.08330933e+02 1.28290314e+02</_>
    <_>
      1.16806252e+02 1.30278091e+02 1.67148575e+02 1.63917969e+02
      1.75195206e+02 1.75488190e+02 1.77430283e+02 1.75097839e+02</_>
    <_>
      9.04566193e+01 7.55931778e+01 1.12212791e+02 1.10375076e+02
      1.18971489e+02 7.57401276e+01 9.32735519e+01 9.48721313e+01</_>
    <_>
      9.62368622e+01 1.02922997e+02 1.33671127e+02 1.29197922e+02
      1.57981857e+02 1.22444954e+02 1.76637878e+02 1.85556335e+02</_>
    <_>
      1.27906151e+02 1.89635529e+02 1.64810410e+02 1.98415344e+02
      1.92700668e+02 1.67907043e+02 1.76249451e+02 1.78770691e+02</_>
    <_>
      8.35555573e+01 8.59223328e+01 1.17736771e+02 1.07975388e+02
      1.20793816e+02 9.70531387e+01 1.18401588e+02 1.14827957e+02</_>
    <_>
      1.06223572e+02 7.91291275e+01 1.50335663e+02 1.52860413e+02
      1.65586502e+02 1.35512039e+02 1.43107651e+02 1.71805099e+02</_>
    <_>
      1.25377068e+02 1.34065552e+02 1.98756180e+02 1.73356430e+02
      2.13756165e+02 1.79988174e+02 1.92776016e+02 1.69620773e+02</_>
    <_>
      1.82588470e+02 1.94555527e+02 1.99083908e+02 2.22888870e+02
      2.20134979e+02 2.04148880e+02 2.01274506e+02 2.26851578e+02</_>
    <_>
      1.27552086e+02 8.34036331e+01 1.57148071e+02 2.01830368e+02
      1.92655533e+02 1.56399658e+02 1.50772446e+02 1.73486801e+02</_>
    <_>
      1.30567673e+02 9.77153473e+01 1.56592850e+02 1.19693024e+02
      1.54058899e+02 1.16010841e+02 1.47028015e+02 1.18733101e+02</_>
    <_>
      1.02310974e+02 1.06152870e+02 1.44042557e+02 1.63618607e+02
      1.59874756e+02 1.19375595e+02 1.48900375e+02 1.68831161e+02</_>
    <_>
      8.02549591e+01 8.05366440e+01 9.84528427e+01 9.24881744e+01
      1.00001091e+02 8.46637039e+01 1.05216759e+02 1.01896751e+02</_>
    <_>
      5.39250107e+01 4.78886070e+01 1.26146202e+02 1.03645912e+02
      1.33772919e+02 5.28500938e+01 7.84022980e+01 7.13765488e+01</_>
    <_>
      1.14545052e+02 1.15821198e+02 1.90521271e+02 1.49923294e+02
      1.95751892e+02 1.66941315e+02 1.78509018e+02 1.65472839e+02</_>
    <_>
      1.27180023e+02 9.31627884e+01 1.72751495e+02 9.65253677e+01
      1.39820068e+02 1.26019119e+02 1.72555054e+02 1.33496826e+02</_>
    <_>
      8.26764450e+01 1.03998604e+02 1.42972885e+02 1.54097015e+02
      1.64228531e+02 1.34167068e+02 1.53053101e+02 1.75629898e+02</_>
    <_>
      1.38970703e+02 8.07900543e+01 1.60751526e+02 1.22759399e+02
      1.73702454e+02 1.53116013e+02 1.70691879e+02 1.36367218e+02</_>
    <_>
      8.29616394e+01 7.73407516e+01 1.36940887e+02 8.80288925e+01
      1.34962387e+02 1.13271317e+02 1.39102188e+02 1.20585548e+02</_>
    <_>
      1.19884033e+02 1.30043472e+02 1.71920532e+02 1.77097031e+02
      2.04929062e+02 1.66263062e+02 1.58711960e+02 1.72746262e+02</_>
    <_>
      1.38166351e+02 1.15828583e+02 1.76034851e+02 2.01510071e+02
      1.89867691e+02 1.39986649e+02 1.67902527e+02 1.79138306e+02</_>
    <_>
      1.42050964e+02 1.33241943e+02 1.55004074e+02 1.52814636e+02
      1.54788300e+02 1.59010208e+02 1.53817978e+02 1.50720352e+02</_>
    <_>
      3.48964691e+01 3.79953613e+01 1.03863663e+02 1.31140121e+02
      1.54975311e+02 1.31978012e+02 1.23812737e+02 1.49297974e+02</_>
    <_>
      1.29243668e+02 9.21540833e+01 1.52311539e+02 1.18430298e+02
      1.32750000e+02 1.05617455e+02 1.59770432e+02 1.32813919e+02</_>
    <_>
      5.33086052e+01 1.12156128e+02 1.25156876e+02 1.63020401e+02
      1.68137177e+02 1.42355972e+02 1.35911407e+02 1.68466354e+02</_>
    <_>
      1.20566673e+02 8.40110321e+01 1.43190399e+02 1.10868904e+02
      1.21334106e+02 1.09694756e+02 1.16711861e+02 1.15314384e+02</_>
    <_>
      6.76038055e+01 7.00522461e+01 1.13570747e+02 1.18698349e+02
      1.31795532e+02 6.94097748e+01 7.26128616e+01 7.94404297e+01</_>
    <_>
      1.71254791e+02 1.80319473e+02 1.67682098e+02 1.87799072e+02
      1.91813034e+02 1.75813721e+02 1.67668137e+02 1.77128174e+02</_>
    <_>
      1.31348526e+02 8.62352905e+01 1.72721512e+02 1.24983902e+02
      1.60267075e+02 1.25475609e+02 1.57743408e+02 1.16458115e+02</_>
    <_>
      1.19133484e+02 1.17152954e+02 1.49936081e+02 1.51143631e+02
      1.58831528e+02 1.12743347e+02 1.45526505e+02 1.42401932e+02</_>
    <_>
      1.17140030e+02 1.09611229e+02 1.29402359e+02 1.07819313e+02
      1.38840576e+02 6.33281479e+01 7.28456726e+01 4.73323212e+01</_>
    <_>
      1.30108582e+02 9.21924515e+01 1.41813736e+02 1.11497009e+02
      1.30568039e+02 1.06490234e+02 1.36045761e+02 1.08088898e+02</_>
    <_>
      1.07789482e+02 9.24196091e+01 1.49333694e+02 1.38256409e+02
      1.48214996e+02 1.20592422e+02 7.99381790e+01 9.77161865e+01</_>
    <_>
      1.58841553e+02 1.46392105e+02 1.86456863e+02 1.68459717e+02
      1.92333923e+02 1.45368042e+02 1.73564743e+02 1.60060654e+02</_>
    <_>
      1.38162354e+02 1.42819962e+02 1.76227982e+02 1.57387207e+02
      1.94518661e+02 1.77746582e+02 1.60648087e+02 1.76327271e+02</_>
    <_>
      1.35417145e+02 1.30626968e+02 1.64254562e+02 1.49627106e+02
      1.59255646e+02 1.45549591e+02 1.71818756e+02 1.56311752e+02</_>
    <_>
      1.56960815e+02 1.82432404e+02 2.10150269e+02 2.08456482e+02
      2.10391602e+02 1.94258301e+02 2.03754974e+02 2.01433395e+02</_>
    <_>
      8.22618332e+01 1.31853928e+02 1.17997665e+02 1.61870590e+02
      1.49286133e+02 1.10828445e+02 1.19255638e+02 1.56905914e+02</_>
    <_>
      1.47628494e+02 1.27873520e+02 1.84657776e+02 1.58372086e+02
      1.92298798e+02 1.29038055e+02 1.81149994e+02 1.73351746e+02</_>
    <_>
      8.32846069e+01 1.30376968e+02 1.50518280e+02 2.02038895e+02
      1.84069061e+02 1.57310913e+02 1.37754425e+02 1.93473526e+02</_>
    <_>
      1.13418556e+02 1.20292717e+02 1.87884720e+02 1.89658920e+02
      1.99473465e+02 1.34186478e+02 1.61985733e+02 1.59503296e+02</_>
    <_>
      8.72345581e+01 8.83371201e+01 1.61457611e+02 1.56400116e+02
      1.99534012e+02 1.62963394e+02 1.16410973e+02 1.35643188e+02</_>
    <_>
      7.44489670e+01 8.22989197e+01 1.09346107e+02 1.15399445e+02
      1.34303131e+02 7.61688690e+01 9.61301346e+01 1.02840553e+02</_>
    <_>
      1.53671188e+02 1.05961411e+02 1.61297348e+02 1.53321152e+02
      1.91160126e+02 1.52734909e+02 1.69617767e+02 1.58827164e+02</_>
    <_>
      1.20461143e+02 1.21835098e+02 1.68337250e+02 1.48966339e+02
      1.67651886e+02 1.31743347e+02 1.60768021e+02 1.34699997e+02</_>
    <_>
      1.79285629e+02 1.46659958e+02 1.90639465e+02 1.50942688e+02
      2.02832764e+02 1.74156830e+02 1.80096832e+02 1.67586914e+02</_>
    <_>
      7.39814758e+01 5.78011436e+01 9.46204758e+01 8.99553986e+01
      1.20198021e+02 6.38661003e+01 4.04080391e+01 4.85084343e+01</_>
    <_>
      9.68312988e+01 1.19846855e+02 1.22687622e+02 1.55554794e+02
      1.51296951e+02 1.32129852e+02 1.33697525e+02 1.59550659e+02</_>
    <_>
      1.37763870e+02 1.00210823e+02 1.52356430e+02 1.01545876e+02
      1.32964645e+02 1.10533684e+02 1.44265778e+02 9.80272522e+01</_>
    <_>
      1.64391098e+02 1.21811264e+02 2.00276154e+02 1.48598312e+02
      1.95293365e+02 1.53010696e+02 1.99620041e+02 1.64470566e+02</_>
    <_>
      1.07804413e+02 1.00903999e+02 1.67791260e+02 1.41734497e+02
      1.65633179e+02 1.49465347e+02 1.56005707e+02 1.35098831e+02</_>
    <_>
      1.34894730e+02 1.27562134e+02 1.57493240e+02 1.54623718e+02
      1.51812057e+02 1.40357742e+02 1.39142181e+02 1.42554703e+02</_>
    <_>
      1.02831398e+02 1.23918526e+02 1.50443375e+02 1.50097229e+02
      1.58490448e+02 1.36525162e+02 1.57786575e+02 1.60855194e+02</_>
    <_>
      1.07583374e+02 1.20289207e+02 1.18842300e+02 1.30691956e+02
      1.36646637e+02 1.18030472e+02 1.16573334e+02 1.37534271e+02</_>
    <_>
      1.53238174e+02 1.39409088e+02 1.83322525e+02 1.98702316e+02
      1.92935547e+02 1.42613144e+02 1.52533905e+02 1.03406250e+02</_>
    <_>
      1.20558395e+02 1.23653252e+02 1.57505722e+02 1.91135620e+02
      1.74763855e+02 1.34386185e+02 1.27940697e+02 1.46358627e+02</_>
    <_>
      1.14216171e+02 9.75363388e+01 1.63446365e+02 1.23967857e+02
      1.49332474e+02 1.20456642e+02 1.67666992e+02 1.26680969e+02</_>
    <_>
      1.37625519e+02 1.95904144e+02 1.33458649e+02 2.15566940e+02
      1.85118820e+02 1.31178680e+02 1.00165550e+02 1.73126266e+02</_>
    <_>
      1.49758057e+02 1.77402435e+02 1.80585526e+02 2.09268463e+02
      1.76158600e+02 1.87209717e+02 1.85346573e+02 2.05295029e+02</_>
    <_>
      1.03136635e+02 9.94829102e+01 1.38273026e+02 1.40588333e+02
      1.47730789e+02 1.16178925e+02 1.24443604e+02 1.22920753e+02</_>
    <_>
      6.64753036e+01 9.12058563e+01 1.03488068e+02 1.35796661e+02
      1.35207336e+02 9.24459152e+01 9.26476288e+01 1.16631706e+02</_>
    <_>
      1.24668098e+02 1.21041832e+02 1.68029922e+02 1.67087769e+02
      1.98813309e+02 1.73618851e+02 1.80333191e+02 1.92669098e+02</_>
    <_>
      4.61856384e+01 5.21739311e+01 1.21620522e+02 1.24594894e+02
      1.61867340e+02 7.42398758e+01 8.59747543e+01 6.87825851e+01</_>
    <_>
      9.11955643e+01 1.00694794e+02 1.22098679e+02 1.25180122e+02
      1.69483459e+02 1.23131424e+02 1.15348572e+02 1.35107941e+02</_>
    <_>
      1.32078461e+02 1.28757263e+02 1.56306137e+02 1.35517410e+02
      1.69104843e+02 1.60192535e+02 1.70044891e+02 1.52654587e+02</_>
    <_>
      1.62354736e+02 1.83014923e+02 1.97218124e+02 2.21482361e+02
      2.12712463e+02 1.89015793e+02 2.05041016e+02 2.19889679e+02</_>
    <_>
      1.61358948e+02 9.02487564e+01 1.53968781e+02 8.42721558e+01
      1.35380173e+02 8.57533340e+01 1.49125092e+02 5.45473671e+01</_>
    <_>
      1.93869568e+02 1.81952499e+02 2.22997513e+02 2.15960983e+02
      2.14253891e+02 2.13711685e+02 2.12382629e+02 2.10084061e+02</_>
    <_>
      1.52444977e+02 1.24777939e+02 1.77638290e+02 1.86926529e+02
      2.00389267e+02 1.81456146e+02 1.80168457e+02 159.</_>
    <_>
      1.07644691e+02 1.28252136e+02 1.48784149e+02 1.74831375e+02
      1.74733627e+02 1.34212158e+02 1.43865402e+02 1.82113144e+02</_>
    <_>
      1.14905754e+02 6.75255966e+01 1.61293503e+02 1.01001419e+02
      1.68033569e+02 1.34440399e+02 1.58478851e+02 1.01771896e+02</_>
    <_>
      5.96480255e+01 9.28304901e+01 1.02467224e+02 1.50370163e+02
      1.46393158e+02 9.57063675e+01 9.91670761e+01 1.31888626e+02</_>
    <_>
      4.72672768e+01 7.28941498e+01 1.24479012e+02 1.28340729e+02
      1.30255768e+02 1.00711250e+02 8.60889206e+01 1.07368874e+02</_>
    <_>
      1.02304344e+02 1.76692581e+02 1.87969391e+02 2.16181076e+02
      2.20548859e+02 1.98588150e+02 1.98655029e+02 2.24782669e+02</_>
    <_>
      5.90152855e+01 7.55887299e+01 9.94568253e+01 1.29155914e+02
      1.35850525e+02 7.34298096e+01 4.43537445e+01 6.16691742e+01</_>
    <_>
      9.63655396e+01 1.32037064e+02 1.51610764e+02 1.74032700e+02
      1.56702026e+02 9.80040970e+01 1.39154175e+02 1.56631866e+02</_>
    <_>
      1.07130684e+02 8.70023651e+01 1.63631699e+02 1.20723305e+02
      1.48849625e+02 1.35930130e+02 1.63036041e+02 1.14964417e+02</_>
    <_>
      8.33264694e+01 7.37757492e+01 1.30261032e+02 9.12724152e+01
      1.37972092e+02 8.39041748e+01 1.26971405e+02 9.32544861e+01</_>
    <_>
      9.30447083e+01 9.50311508e+01 1.47024841e+02 1.39768280e+02
      1.53892532e+02 9.59384155e+01 1.48235916e+02 1.43333115e+02</_>
    <_>
      1.17493263e+02 9.57594910e+01 1.58723297e+02 1.55102112e+02
      1.73054153e+02 1.18189621e+02 1.60125778e+02 1.40185684e+02</_>
    <_>
      1.64431152e+02 1.65944962e+02 1.88451096e+02 2.12981796e+02
      2.11358810e+02 1.93445709e+02 1.96813599e+02 2.29328598e+02</_>
    <_>
      9.72316742e+01 9.91135101e+01 1.22101021e+02 1.25802605e+02
      1.37573898e+02 1.19818710e+02 1.30570663e+02 1.29748825e+02</_>
    <_>
      1.12687332e+02 1.37673477e+02 1.57704422e+02 1.98010117e+02
      1.72985367e+02 1.38955765e+02 1.13993393e+02 1.57418762e+02</_>
    <_>
      1.56365387e+02 1.88533813e+02 1.90537125e+02 2.12547943e+02
      2.19482407e+02 1.68208298e+02 1.80484940e+02 2.02744751e+02</_>
    <_>
      1.19982162e+02 1.60579926e+02 1.70702362e+02 2.01218521e+02
      2.08442184e+02 1.69819992e+02 1.75259842e+02 1.97464539e+02</_>
    <_>
      1.79723053e+02 1.48950745e+02 1.89640213e+02 1.89363159e+02
      1.66868378e+02 1.75381363e+02 2.01816849e+02 1.97409988e+02</_>
    <_>
      1.29953491e+02 1.53584030e+02 2.02607986e+02 1.90444839e+02
      1.99635986e+02 1.80026459e+02 2.19563431e+02 1.80127579e+02</_>
    <_>
      9.13731995e+01 1.16872536e+02 1.59084824e+02 1.55986023e+02
      1.62764999e+02 1.52185654e+02 1.50429596e+02 1.55024475e+02</_>
    <_>
      1.03784302e+02 1.36261398e+02 1.88291046e+02 1.42809692e+02
      1.89293533e+02 1.63664581e+02 1.83066193e+02 1.56515839e+02</_>
    <_>
      9.17821579e+01 6.46406403e+01 1.54657486e+02 1.10861198e+02
      1.43133484e+02 1.41252075e+02 1.65521713e+02 1.25183624e+02</_>
    <_>
      2.61163177e+01 2.62152462e+01 1.11882874e+02 1.01268349e+02
      1.08541687e+02 8.67083817e+01 1.07457298e+02 9.54798203e+01</_>
    <_>
      1.08770538e+02 1.16871544e+02 1.58974091e+02 1.44689468e+02
      1.33485931e+02 1.39738007e+02 1.54698166e+02 1.39295044e+02</_>
    <_>
      1.15915779e+02 7.92147522e+01 1.37723297e+02 1.39032898e+02
      1.57858139e+02 1.25927673e+02 1.38304352e+02 1.50721786e+02</_>
    <_>
      5.74846039e+01 7.19617691e+01 1.01065033e+02 1.30702545e+02
      1.40537201e+02 7.79167480e+01 4.52955170e+01 6.43554230e+01</_>
    <_>
      6.10309105e+01 5.17287979e+01 1.06247276e+02 9.09102097e+01
      1.11299332e+02 8.82277374e+01 8.99582901e+01 7.62142868e+01</_>
    <_>
      1.82465714e+02 1.36835083e+02 1.93116226e+02 1.45994736e+02
      1.79196838e+02 1.32291611e+02 1.72397415e+02 1.41747375e+02</_>
    <_>
      1.02834129e+02 8.30339279e+01 1.37682373e+02 1.36132523e+02
      1.62022812e+02 1.20190842e+02 1.02567863e+02 1.01842598e+02</_>
    <_>
      7.62354279e+01 9.66315765e+01 1.62181931e+02 1.81614349e+02
      1.79316299e+02 1.28940292e+02 1.48223663e+02 1.66100006e+02</_>
    <_>
      9.02279663e+01 1.03876144e+02 1.16567368e+02 1.18824463e+02
      1.32911285e+02 1.07512138e+02 1.21488991e+02 1.25243546e+02</_>
    <_>
      7.66288681e+01 1.14514511e+02 1.50726913e+02 1.76309357e+02
      1.87334595e+02 1.53780853e+02 1.72916977e+02 1.85341064e+02</_>
    <_>
      1.15786842e+02 1.29646027e+02 1.87784500e+02 1.93805786e+02
      2.08217987e+02 1.53150833e+02 1.86307281e+02 1.93627960e+02</_>
    <_>
      9.37727432e+01 5.26214561e+01 1.16900955e+02 8.61768036e+01
      1.36426376e+02 7.49489975e+01 9.84280777e+01 7.49318161e+01</_>
    <_>
      8.00032425e+01 9.31229935e+01 1.14329399e+02 9.65601273e+01
      1.01991135e+02 1.14887436e+02 1.29069244e+02 1.16758812e+02</_>
    <_>
      8.58036575e+01 1.17267723e+02 1.26352585e+02 1.45094559e+02
      1.57241501e+02 1.29198837e+02 1.30729523e+02 1.49063690e+02</_>
    <_>
      1.00920105e+02 7.89418182e+01 1.51652832e+02 1.33370560e+02
      1.65638474e+02 1.48166672e+02 1.73449173e+02 1.47997101e+02</_>
    <_>
      1.22001236e+02 1.57244644e+02 1.53146454e+02 1.92991867e+02
      1.77805756e+02 1.57252014e+02 1.38895416e+02 1.72262177e+02</_>
    <_>
      1.03734779e+02 1.06752708e+02 1.58131744e+02 1.63684845e+02
      1.50719299e+02 1.15961655e+02 1.26788918e+02 1.29712341e+02</_>
    <_>
      7.18837738e+01 8.84419250e+01 1.14642143e+02 1.50993103e+02
      1.53350815e+02 9.41180344e+01 1.18358559e+02 1.49780136e+02</_>
    <_>
      8.43276062e+01 1.34059341e+02 1.24184196e+02 1.37323090e+02
      1.05435127e+02 1.40851089e+02 1.29563217e+02 1.29971054e+02</_>
    <_>
      5.72334328e+01 8.89962387e+01 1.23261414e+02 1.24772865e+02
      1.38083252e+02 1.22050484e+02 1.18654457e+02 1.36209137e+02</_>
    <_>
      9.13423843e+01 1.09997780e+02 1.48401703e+02 1.31059830e+02
      1.73411240e+02 1.31357208e+02 1.39899490e+02 1.47931839e+02</_>
    <_>
      1.67063675e+02 1.18727592e+02 1.91512283e+02 1.46349594e+02
      1.83824112e+02 1.64026474e+02 2.03275620e+02 1.57671967e+02</_>
    <_>
      1.45031128e+02 1.55609024e+02 1.81654495e+02 1.88691711e+02
      1.91879150e+02 1.49197311e+02 1.71601212e+02 1.81754471e+02</_>
    <_>
      1.02479767e+02 1.06509880e+02 1.30479202e+02 1.40592850e+02
      1.78544449e+02 1.36894730e+02 1.54339127e+02 1.53921646e+02</_>
    <_>
      1.39281189e+02 1.59102173e+02 1.68160889e+02 2.01687592e+02
      1.58748764e+02 1.85012283e+02 1.69117874e+02 2.07312042e+02</_>
    <_>
      1.27208923e+02 1.08150978e+02 1.39005829e+02 1.24608643e+02
      1.27218399e+02 1.08798653e+02 1.45630539e+02 1.28785126e+02</_>
    <_>
      1.61987717e+02 1.19083580e+02 1.73292023e+02 1.73400314e+02
      1.69861603e+02 1.43637894e+02 1.67408112e+02 1.49208191e+02</_>
    <_>
      1.09265388e+02 1.07022926e+02 1.56957840e+02 1.42178207e+02
      1.65559616e+02 1.22130630e+02 1.25808105e+02 1.31906967e+02</_>
    <_>
      1.39346832e+02 1.02481361e+02 1.79266174e+02 1.91258194e+02
      1.92941315e+02 1.67188461e+02 1.75518036e+02 1.88473251e+02</_>
    <_>
      4.31068382e+01 9.22091293e+01 9.04213486e+01 1.45352036e+02
      1.31298294e+02 9.11982651e+01 8.78134003e+01 1.45873367e+02</_>
    <_>
      1.82886429e+02 1.80346512e+02 1.98547012e+02 1.88733154e+02
      1.99672867e+02 1.64400269e+02 1.82654938e+02 2.03975693e+02</_>
    <_>
      1.22024437e+02 1.29246857e+02 1.81265305e+02 1.71870132e+02
      1.57997070e+02 1.18169945e+02 1.51422363e+02 1.41821243e+02</_>
    <_>
      6.72073441e+01 9.61479568e+01 1.03084267e+02 1.15069145e+02
      1.03173981e+02 9.74858475e+01 9.72044296e+01 1.18877678e+02</_>
    <_>
      8.13559341e+01 5.35331116e+01 1.61814072e+02 1.46435394e+02
      1.91190338e+02 1.57099411e+02 1.94975815e+02 1.82178970e+02</_>
    <_>
      8.16976318e+01 9.43437500e+01 1.40873932e+02 1.45363922e+02
      1.57088318e+02 1.09732704e+02 1.47340271e+02 1.51019272e+02</_>
    <_>
      9.56782837e+01 8.88011856e+01 1.36839081e+02 1.28819717e+02
      1.38699310e+02 1.02380020e+02 1.36591461e+02 1.18327698e+02</_>
    <_>
      1.09847397e+02 1.22972466e+02 1.50787720e+02 1.40017334e+02
      1.28751602e+02 1.43187073e+02 1.50752899e+02 1.45080933e+02</_>
    <_>
      1.33339539e+02 9.93398819e+01 1.58185654e+02 1.21026199e+02
      1.45009186e+02 1.19500854e+02 1.69865417e+02 1.43134476e+02</_>
    <_>
      6.91824722e+01 7.02453003e+01 6.04821663e+01 1.28610458e+02
      1.69683441e+02 7.82554932e+01 2.42964764e+01 1.03037521e+02</_>
    <_>
      1.06202164e+02 1.41248062e+02 1.18149406e+02 1.53427353e+02
      1.35889267e+02 1.13362823e+02 1.58323227e+02 1.51218002e+02</_>
    <_>
      7.04860229e+01 7.60356522e+01 1.22996559e+02 1.31260315e+02
      1.31402084e+02 1.08541397e+02 1.25122810e+02 1.26534836e+02</_>
    <_>
      9.85284119e+01 1.12555878e+02 1.36096313e+02 1.34749985e+02
      1.38495255e+02 1.15340225e+02 1.32677872e+02 1.41744873e+02</_>
    <_>
      1.70370590e+02 1.33210114e+02 2.15553635e+02 1.62188171e+02
      1.79218430e+02 1.74142090e+02 2.21174332e+02 1.44742752e+02</_>
    <_>
      1.03707069e+02 5.70735703e+01 1.41336288e+02 1.03318680e+02
      1.40765869e+02 1.16014206e+02 1.25268867e+02 8.84622650e+01</_>
    <_>
      7.15213013e+01 9.89971085e+01 1.01474800e+02 1.51594025e+02
      1.32096024e+02 8.49048462e+01 9.00030365e+01 1.23351715e+02</_>
    <_>
      5.34775734e+01 9.56169815e+01 6.00394745e+01 1.62295761e+02
      1.25288841e+02 1.07747368e+02 8.48156815e+01 1.72551468e+02</_>
    <_>
      9.83066330e+01 9.40992889e+01 1.53016632e+02 1.38349060e+02
      1.33626556e+02 1.18487732e+02 1.23364586e+02 1.24941307e+02</_>
    <_>
      1.33303329e+02 1.44042557e+02 1.49858307e+02 1.44623718e+02
      1.70711029e+02 1.43654999e+02 1.52756622e+02 1.23744827e+02</_>
    <_>
      5.27299614e+01 1.42264481e+02 6.86050491e+01 1.85432068e+02
      1.59410461e+02 1.05026176e+02 7.57845306e+01 1.80691223e+02</_>
    <_>
      8.65318756e+01 1.57953659e+02 9.64277954e+01 2.02077652e+02
      1.77174911e+02 1.35657959e+02 1.63557755e+02 1.73648193e+02</_>
    <_>
      1.31090240e+02 1.62410980e+02 2.06599838e+02 1.87722549e+02
      2.10078796e+02 1.55500778e+02 2.04847687e+02 1.35565796e+02</_>
    <_>
      5.52784004e+01 1.24950745e+02 8.73559036e+01 1.67256058e+02
      1.29168488e+02 9.56827011e+01 8.95643845e+01 1.38700195e+02</_>
    <_>
      8.11901321e+01 7.77864227e+01 1.26734177e+02 1.30183990e+02
      1.65408371e+02 7.57452469e+01 8.54542465e+01 9.33794098e+01</_>
    <_>
      7.88903503e+01 7.54192352e+01 1.00543571e+02 8.61398621e+01
      1.27605927e+02 7.53667679e+01 8.20404739e+01 6.89220657e+01</_>
    <_>
      8.87518768e+01 1.82894547e+02 1.21037666e+02 2.13197968e+02
      1.76751266e+02 1.59067520e+02 1.10297867e+02 1.52208893e+02</_>
    <_>
      5.98419151e+01 4.97764816e+01 9.46422806e+01 7.35731354e+01
      1.31613190e+02 7.86835327e+01 9.30999527e+01 9.50328369e+01</_>
    <_>
      1.52078430e+02 1.55207291e+02 1.35644730e+02 1.48720947e+02
      1.56693588e+02 1.37684982e+02 1.10860741e+02 1.15310646e+02</_>
    <_>
      5.31445808e+01 7.58723297e+01 1.30796371e+02 1.29093369e+02
      1.47349091e+02 1.10107704e+02 1.63682953e+02 1.36725113e+02</_>
    <_>
      4.04000168e+01 2.97489872e+01 9.96795502e+01 3.27485657e+01
      9.32478790e+01 6.55662842e+01 1.17461601e+02 4.00522957e+01</_>
    <_>
      1.00623962e+02 1.26531387e+02 1.38094147e+02 1.52734894e+02
      1.58411377e+02 1.41718475e+02 1.27478111e+02 1.63304642e+02</_>
    <_>
      1.29493607e+02 9.29778290e+01 1.65886047e+02 1.16149872e+02
      1.22447212e+02 8.15970840e+01 1.09906052e+02 9.55184250e+01</_>
    <_>
      7.78304596e+01 1.04977272e+02 1.40720108e+02 1.38728851e+02
      1.52986023e+02 1.29758209e+02 1.59072922e+02 1.43550629e+02</_>
    <_>
      7.06553879e+01 8.32286301e+01 8.42139359e+01 1.50314377e+02
      1.46024063e+02 1.31202499e+02 1.02780464e+02 1.65831284e+02</_>
    <_>
      1.07633331e+02 4.44645309e+01 1.29998642e+02 1.05704506e+02
      1.39571899e+02 9.19410782e+01 1.21731468e+02 1.10863808e+02</_>
    <_>
      1.69939346e+02 1.55848892e+02 2.03661743e+02 1.88378006e+02
      1.73379623e+02 1.63945343e+02 2.02995041e+02 1.76916824e+02</_>
    <_>
      5.61642342e+01 9.86489029e+01 8.60768204e+01 1.24135391e+02
      1.16897491e+02 9.11050873e+01 8.57791138e+01 1.29201202e+02</_>
    <_>
      5.90829773e+01 1.48194000e+02 9.35823059e+01 1.80741943e+02
      1.44948593e+02 9.53836823e+01 7.60859070e+01 1.51782242e+02</_>
    <_>
      7.70389633e+01 1.16010864e+02 1.12169098e+02 1.54921005e+02
      1.54443100e+02 1.15290726e+02 1.15446671e+02 1.70634491e+02</_>
    <_>
      1.17919716e+02 6.90468979e+01 1.50277023e+02 7.81390762e+01
      1.33900406e+02 1.09628571e+02 1.54028259e+02 1.03445587e+02</_>
    <_>
      5.85662422e+01 1.46372650e+02 8.76222000e+01 1.97723145e+02
      1.39298325e+02 1.23373276e+02 8.75007935e+01 1.98964462e+02</_>
    <_>
      1.25696945e+02 7.04970322e+01 1.71287186e+02 7.74003372e+01
      1.13229607e+02 1.03790672e+02 1.71182861e+02 9.19422455e+01</_>
    <_>
      4.40524712e+01 5.26114616e+01 1.46903534e+02 1.46951233e+02
      1.84945358e+02 1.56676422e+02 1.43940750e+02 1.64673004e+02</_>
    <_>
      1.17595490e+02 1.27631767e+02 1.42345703e+02 1.95985214e+02
      2.09880386e+02 1.54944351e+02 1.28855331e+02 2.35241669e+02</_>
    <_>
      5.87380486e+01 6.28607178e+01 7.95519562e+01 9.01046677e+01
      8.38311691e+01 9.41094284e+01 1.05162376e+02 9.05334473e+01</_>
    <_>
      9.37924805e+01 7.28086014e+01 1.37195038e+02 1.16437012e+02
      1.53417435e+02 1.10823990e+02 1.43715790e+02 1.52192398e+02</_>
    <_>
      4.24797325e+01 4.05780220e+01 1.24055534e+02 1.40045868e+02
      1.69351257e+02 1.29307526e+02 1.54586487e+02 1.81156845e+02</_>
    <_>
      8.33432693e+01 1.30153778e+02 1.04554955e+02 1.75702225e+02
      1.59750717e+02 1.38221375e+02 9.90268402e+01 1.58518311e+02</_>
    <_>
      3.20731010e+01 3.88879051e+01 1.43282440e+02 1.36469894e+02
      1.80326981e+02 1.51865555e+02 1.61040161e+02 1.71315994e+02</_>
    <_>
      9.24466095e+01 1.40752853e+02 1.00190636e+02 1.67919647e+02
      1.70234711e+02 1.17987160e+02 6.80560226e+01 1.16665398e+02</_>
    <_>
      1.87248516e+01 3.49291649e+01 5.51478004e+01 5.11047974e+01
      9.25245895e+01 7.07550735e+01 8.85397797e+01 6.03253975e+01</_>
    <_>
      5.82350464e+01 6.59195404e+01 9.29228668e+01 1.20618584e+02
      1.87921463e+02 1.12808090e+02 1.30188095e+02 1.32070251e+02</_>
    <_>
      1.46455536e+02 1.23855629e+02 1.98533829e+02 1.51248047e+02
      1.61367813e+02 1.58378159e+02 1.96929855e+02 1.50767700e+02</_>
    <_>
      1.61381790e+02 1.16156006e+02 2.02350449e+02 1.31282104e+02
      1.78138962e+02 1.54405136e+02 2.11715469e+02 1.42397797e+02</_>
    <_>
      3.00416660e+01 3.65478973e+01 7.05644608e+01 8.34390564e+01
      1.48113693e+02 1.34664597e+02 9.19259567e+01 1.02372894e+02</_>
    <_>
      2.79124069e+01 6.33850746e+01 5.68280792e+01 1.03957474e+02
      1.01996735e+02 7.52419968e+01 5.05954208e+01 7.43292084e+01</_>
    <_>
      8.61088715e+01 1.14893272e+02 1.03905594e+02 1.73703568e+02
      1.78779388e+02 1.24671715e+02 1.18590752e+02 1.91397568e+02</_>
    <_>
      1.67452682e+02 1.49745911e+02 2.14721619e+02 1.41135010e+02
      1.97305176e+02 1.97292648e+02 1.87335785e+02 1.15176033e+02</_>
    <_>
      7.15062027e+01 8.01152878e+01 1.46853729e+02 1.68081360e+02
      1.42176865e+02 1.08254204e+02 1.19015907e+02 1.12710953e+02</_>
    <_>
      1.54022827e+02 1.64712646e+02 1.72228912e+02 1.78784760e+02
      1.96160889e+02 1.65058197e+02 1.64001053e+02 1.45027878e+02</_>
    <_>
      4.32457695e+01 7.77399216e+01 4.54745712e+01 1.17403320e+02
      1.34429611e+02 4.52127838e+01 2.40420456e+01 5.05942993e+01</_>
    <_>
      6.41048660e+01 1.50288010e+02 1.10143288e+02 1.92373688e+02
      2.09828049e+02 1.44979584e+02 1.12443680e+02 1.93914474e+02</_>
    <_>
      5.03890152e+01 9.42094040e+01 2.97939205e+01 1.57014633e+02
      1.13084511e+02 6.53278351e+01 6.93183613e+00 1.07903824e+02</_>
    <_>
      1.12062263e+02 1.43058212e+02 1.50181259e+02 1.76155380e+02
      1.68430878e+02 1.45772583e+02 1.40658951e+02 1.85105057e+02</_>
    <_>
      2.96075916e+01 5.34820175e+01 4.44058533e+01 7.39105225e+01
      8.50592346e+01 5.44390755e+01 3.93607635e+01 4.82156601e+01</_>
    <_>
      1.39494247e+02 1.27389168e+02 1.77185944e+02 1.66030823e+02
      1.75540543e+02 1.35983383e+02 1.71924484e+02 1.42014023e+02</_>
    <_>
      8.54266052e+01 1.61318237e+02 9.18795013e+01 1.86551971e+02
      1.36837418e+02 1.27997963e+02 8.56246185e+01 1.67826050e+02</_>
    <_>
      7.11971893e+01 1.19281723e+02 1.04724632e+02 1.73737518e+02
      1.36771500e+02 9.11827774e+01 9.43736496e+01 1.54987732e+02</_>
    <_>
      4.64493828e+01 8.91259613e+01 1.14397789e+02 1.19747345e+02
      8.19404373e+01 8.53461533e+01 7.18015137e+01 9.72142868e+01</_>
    <_>
      9.75924149e+01 3.14864864e+01 1.56819565e+02 5.06299095e+01
      1.49453964e+02 5.84413261e+01 6.16892548e+01 3.10399380e+01</_>
    <_>
      1.35414307e+02 1.26576385e+02 1.61944794e+02 1.89303284e+02
      1.48854034e+02 1.63113144e+02 1.41973816e+02 1.85067230e+02</_>
    <_>
      9.68153381e+01 1.08392326e+02 1.75040314e+02 1.38973587e+02
      1.45017670e+02 1.38573807e+02 1.86720337e+02 1.35720367e+02</_>
    <_>
      4.28465004e+01 1.25609909e+02 6.45530548e+01 1.58894745e+02
      1.45907898e+02 9.89922256e+01 6.49616241e+01 1.39073212e+02</_>
    <_>
      1.08583549e+02 8.55810242e+01 1.82388443e+02 1.09995888e+02
      1.38737457e+02 1.39324768e+02 2.08969650e+02 1.17006485e+02</_>
    <_>
      1.21283546e+02 9.24619446e+01 1.59088699e+02 1.39287369e+02
      1.70188736e+02 1.33556274e+02 1.62588058e+02 1.62088608e+02</_>
    <_>
      1.65232117e+02 1.46539902e+02 1.80384964e+02 1.74968338e+02
      2.01354126e+02 1.30523560e+02 1.99061600e+02 1.58511612e+02</_>
    <_>
      6.09124565e+01 5.09232216e+01 1.01150215e+02 7.11203766e+01
      1.00497177e+02 6.60220261e+01 9.27150269e+01 6.52593765e+01</_>
    <_>
      8.40237045e+01 4.67766418e+01 1.08679436e+02 5.46779900e+01
      1.04501877e+02 6.60325775e+01 7.92840805e+01 4.42861443e+01</_>
    <_>
      9.23273468e+01 9.91479568e+01 1.22488770e+02 1.27304161e+02
      1.21465691e+02 9.14270248e+01 1.18531960e+02 1.19947830e+02</_>
    <_>
      5.80247154e+01 1.13490082e+02 5.92413292e+01 7.81323624e+01
      1.00629082e+02 1.03431511e+02 7.21266785e+01 8.77278519e+01</_>
    <_>
      6.97618713e+01 6.54500122e+01 1.14775467e+02 1.07650948e+02
      1.07831345e+02 7.49498596e+01 8.63008423e+01 8.27559509e+01</_>
    <_>
      1.11822807e+02 1.77874100e+02 1.56144104e+02 1.65483521e+02
      2.17626205e+02 1.81134247e+02 1.33000229e+02 1.42102325e+02</_>
    <_>
      6.70188675e+01 1.07401665e+02 9.84629288e+01 1.26450180e+02
      1.25693970e+02 1.19987389e+02 1.04123207e+02 1.31236115e+02</_>
    <_>
      6.74832458e+01 1.30304245e+02 1.31004822e+02 1.37399719e+02
      1.73843979e+02 1.14878357e+02 1.03596527e+02 1.63696915e+02</_>
    <_>
      3.69632149e+01 6.69124451e+01 7.30838165e+01 1.06493843e+02
      1.35325470e+02 8.78426056e+01 7.44740601e+01 6.96931839e+01</_>
    <_>
      3.29540367e+01 5.84049530e+01 9.61215210e+01 1.26743034e+02
      1.29683929e+02 8.31964569e+01 1.11237846e+02 1.69333481e+02</_>
    <_>
      7.29453049e+01 4.56532249e+01 9.07860031e+01 5.80997162e+01
      9.29064941e+01 6.54909592e+01 9.42381592e+01 7.89331436e+01</_>
    <_>
      4.03977966e+01 8.76032639e+01 8.63763962e+01 1.42266617e+02
      1.23266968e+02 8.91741943e+01 8.34363861e+01 1.41186157e+02</_>
    <_>
      2.76278267e+01 7.80931702e+01 3.29107513e+01 1.22465149e+02
      1.07162468e+02 7.57916946e+01 6.26391830e+01 1.17743912e+02</_>
    <_>
      1.75352493e+02 1.48590240e+02 2.12402618e+02 1.68775467e+02
      1.82950256e+02 1.45409088e+02 1.86985535e+02 1.52815628e+02</_>
    <_>
      5.06933556e+01 5.07070999e+01 1.42544418e+02 1.51418945e+02
      1.56612076e+02 1.01900337e+02 9.46590576e+01 1.12280708e+02</_>
    <_>
      1.46744843e+02 1.57166763e+02 1.50119843e+02 1.70860367e+02
      1.77190186e+02 1.70933426e+02 1.42508301e+02 1.72848587e+02</_>
    <_>
      4.76979256e+01 1.08710861e+02 1.20105446e+02 1.61201874e+02
      2.13966583e+02 1.51436111e+02 1.12878799e+02 1.38720291e+02</_>
    <_>
      6.37516022e+01 5.46100082e+01 9.37022781e+01 6.50624084e+01
      1.13401413e+02 8.82964859e+01 1.02993958e+02 7.20163193e+01</_>
    <_>
      2.98236523e+01 3.56514359e+01 3.69391823e+01 4.56249123e+01
      5.03713570e+01 4.34132729e+01 3.74226379e+01 4.33583908e+01</_>
    <_>
      6.17364693e+01 1.09635475e+02 8.47855759e+01 1.70722595e+02
      1.19695656e+02 8.28624649e+01 5.91868439e+01 1.70131302e+02</_>
    <_>
      1.24574280e+02 1.07073997e+02 1.33447205e+02 1.25932640e+02
      1.39416229e+02 1.34912216e+02 1.13947937e+02 1.21889275e+02</_>
    <_>
      8.00998459e+01 1.34940079e+02 1.52648468e+02 1.87481079e+02
      1.90409424e+02 1.41787704e+02 1.48976456e+02 1.72939529e+02</_>
    <_>
      8.99512177e+01 9.63730011e+01 1.63385101e+02 1.03999863e+02
      1.00897957e+02 1.13322250e+02 1.44774200e+02 1.10043526e+02</_>
    <_>
      1.02104210e+02 1.02078354e+02 1.34148285e+02 1.42289978e+02
      1.37706131e+02 1.07067924e+02 1.45728363e+02 1.51129807e+02</_>
    <_>
      7.27448807e+01 4.81789551e+01 1.47516983e+02 8.77979813e+01
      1.16554825e+02 9.08216629e+01 1.24300026e+02 6.36067009e+01</_>
    <_>
      6.08404160e+01 7.43993988e+01 1.01415741e+02 1.16043396e+02
      1.21186234e+02 8.71114502e+01 9.43938828e+01 1.01840477e+02</_>
    <_>
      6.07393532e+01 1.05180626e+02 8.27983246e+01 1.48209915e+02
      1.31389465e+02 7.42851334e+01 9.81522827e+01 1.32871765e+02</_>
    <_>
      5.27663536e+01 6.89589996e+01 1.08407288e+02 1.31087158e+02
      1.24181396e+02 7.22445145e+01 8.17188644e+01 1.03385452e+02</_>
    <_>
      1.36086502e+02 7.52306671e+01 1.34574814e+02 7.27676010e+01
      1.11882355e+02 8.04596939e+01 1.27059433e+02 5.22555923e+01</_>
    <_>
      1.28451431e+02 7.47090759e+01 1.65113312e+02 1.04692474e+02
      1.86356400e+02 1.17961853e+02 1.54598679e+02 1.06579628e+02</_>
    <_>
      1.15836288e+02 1.62515518e+02 1.67800400e+02 1.72188019e+02
      1.31799103e+02 1.11750000e+02 1.25199593e+02 1.43929520e+02</_>
    <_>
      1.67712280e+02 1.31647385e+02 2.04753738e+02 1.70742142e+02
      1.64972733e+02 1.64091995e+02 2.13435623e+02 1.75234665e+02</_>
    <_>
      1.77479233e+02 1.65961670e+02 1.94859543e+02 1.79464584e+02
      1.80906448e+02 1.75895035e+02 1.93952148e+02 1.76157776e+02</_>
    <_>
      2.58923721e+01 5.65635338e+01 1.07139374e+02 1.08537720e+02
      1.19449730e+02 1.04666473e+02 1.10938263e+02 1.05547287e+02</_>
    <_>
      1.02993942e+02 8.25441742e+01 1.25592140e+02 1.32986786e+02
      1.30825577e+02 1.12231743e+02 1.16969017e+02 1.34571884e+02</_>
    <_>
      7.35859375e+01 1.23189667e+02 1.08321877e+02 1.66143066e+02
      1.58291611e+02 1.00973183e+02 7.33988342e+01 1.22168541e+02</_>
    <_>
      3.28340950e+01 4.03906670e+01 5.32090263e+01 5.57423782e+01
      5.93041115e+01 3.85229721e+01 6.02112389e+01 6.15927467e+01</_>
    <_>
      1.00497505e+02 1.16066330e+02 1.36563171e+02 1.35254364e+02
      1.39193527e+02 1.34425125e+02 1.20143616e+02 1.18644241e+02</_>
    <_>
      3.18685741e+01 2.13624821e+01 5.86536064e+01 6.75367203e+01
      6.67314377e+01 3.72359734e+01 3.70442619e+01 3.58302612e+01</_>
    <_>
      8.77839127e+01 1.15116287e+02 1.30824905e+02 1.56748260e+02
      1.58660706e+02 1.03780167e+02 1.32761169e+02 1.42549438e+02</_>
    <_>
      1.39849411e+02 1.21870125e+02 1.88578751e+02 1.40033020e+02
      1.50263519e+02 1.12055733e+02 2.05098083e+02 1.07636375e+02</_>
    <_>
      1.12541893e+02 8.11620102e+01 1.78142319e+02 1.20017487e+02
      1.46727921e+02 1.18126755e+02 1.18917992e+02 8.82106094e+01</_>
    <_>
      2.05075574e+00 4.03394661e+01 5.67576170e+00 1.18494026e+02
      8.41928558e+01 3.41892624e+01 1.11842644e+00 3.71105194e+01</_>
    <_>
      5.96005592e+01 4.56761055e+01 8.00382767e+01 5.96525536e+01
      7.98827438e+01 5.53692055e+01 6.85833817e+01 5.43451195e+01</_>
    <_>
      9.41828384e+01 1.14613449e+02 1.11114037e+02 1.32503296e+02
      1.39382507e+02 1.27443542e+02 9.63255539e+01 1.22403152e+02</_>
    <_>
      5.15988121e+01 1.52209635e+01 1.20263229e+02 4.90097198e+01
      1.10404877e+02 8.40343475e+01 4.91517296e+01 6.88755751e+00</_>
    <_>
      1.17337433e+02 1.57343079e+02 1.75746048e+02 1.69441620e+02
      1.94946548e+02 9.95696869e+01 1.80498672e+02 1.58903320e+02</_>
    <_>
      5.70370674e+01 3.51105003e+01 7.34426727e+01 3.14824829e+01
      5.09593582e+01 5.06361694e+01 6.62113037e+01 3.73397903e+01</_>
    <_>
      9.75790863e+01 3.44819603e+01 1.54448593e+02 3.52570953e+01
      9.88705215e+01 9.76623611e+01 1.55070190e+02 4.71581726e+01</_>
    <_>
      7.38779373e+01 8.87261429e+01 1.07034409e+02 1.39698196e+02
      1.52940567e+02 1.20373131e+02 1.59769104e+02 1.28879272e+02</_>
    <_>
      4.39652672e+01 8.47117996e+01 5.35342331e+01 1.24164360e+02
      8.92971497e+01 4.48592148e+01 4.23821259e+01 8.55289230e+01</_>
    <_>
      8.76114197e+01 9.05915146e+01 1.90835495e+02 1.42224060e+02
      1.54579483e+02 1.29904755e+02 1.85598480e+02 1.81198181e+02</_>
    <_>
      8.91616898e+01 1.05747314e+02 1.46958603e+02 1.63292191e+02
      2.05776443e+02 8.45721664e+01 1.00615852e+02 1.25468887e+02</_>
    <_>
      1.18222855e+02 8.37558670e+01 1.45888809e+02 1.04552185e+02
      1.49117874e+02 1.20849968e+02 1.46596375e+02 1.20820442e+02</_>
    <_>
      6.16035767e+01 9.41216507e+01 7.77619247e+01 1.52209793e+02
      8.86639099e+01 7.07352371e+01 6.22869225e+01 1.09831490e+02</_>
    <_>
      8.89270554e+01 1.23307388e+02 1.18254921e+02 1.34313660e+02
      1.45983566e+02 1.20467079e+02 1.36980316e+02 1.43994553e+02</_>
    <_>
      1.00669731e+02 9.03761444e+01 9.97808685e+01 1.56047516e+02
      1.32725433e+02 1.21456779e+02 9.84253311e+01 1.60671844e+02</_>
    <_>
      4.61081429e+01 3.04170361e+01 6.08731995e+01 3.41895409e+01
      6.55953064e+01 5.00036774e+01 4.91673660e+01 2.57105255e+01</_>
    <_>
      8.36266556e+01 1.00433815e+02 1.29176346e+02 1.44366913e+02
      1.70178909e+02 1.26552643e+02 1.20966652e+02 1.25484207e+02</_>
    <_>
      5.99923325e+01 5.70569801e+01 9.89459534e+01 8.88216858e+01
      1.00193649e+02 9.32455215e+01 1.02697807e+02 9.24213867e+01</_>
    <_>
      9.04141922e+01 5.67511978e+01 1.62138657e+02 1.32798477e+02
      1.77762680e+02 8.47193451e+01 1.11650848e+02 7.98400497e+01</_>
    <_>
      1.01756683e+02 1.14505531e+02 1.35669067e+02 1.60799622e+02
      1.41661682e+02 1.10527283e+02 1.31126587e+02 1.65548843e+02</_>
    <_>
      6.38753624e+01 1.50183670e+02 1.55202469e+02 2.02449799e+02
      1.63824020e+02 1.12466881e+02 1.14793556e+02 1.60213364e+02</_>
    <_>
      8.96079330e+01 6.54241714e+01 1.82721725e+02 1.22680313e+02
      1.60948517e+02 8.96793289e+01 1.72719330e+02 1.36641876e+02</_>
    <_>
      9.33519516e+01 1.09722466e+02 1.03748428e+02 1.30997833e+02
      1.03714287e+02 7.29810410e+01 6.57581558e+01 8.54329987e+01</_>
    <_>
      6.18556824e+01 4.49367332e+01 1.19744881e+02 7.30203171e+01
      1.45939941e+02 9.08283081e+01 1.21144691e+02 9.98788376e+01</_>
    <_>
      5.42144203e+01 9.04147873e+01 1.18936577e+02 1.58994507e+02
      1.84511597e+02 1.28173187e+02 1.12017517e+02 1.64014679e+02</_>
    <_>
      1.47100891e+02 1.68049713e+02 1.53905090e+02 1.65476883e+02
      1.73703949e+02 1.60130798e+02 1.29812958e+02 1.50901260e+02</_>
    <_>
      3.37089767e+01 1.42565323e+02 6.94944687e+01 2.03078232e+02
      1.31324478e+02 1.06731926e+02 7.09663391e+01 1.85861526e+02</_>
    <_>
      6.84434662e+01 7.76766357e+01 1.80737183e+02 1.66524109e+02
      2.14533173e+02 1.52504211e+02 2.06840027e+02 1.69494919e+02</_>
    <_>
      7.35405960e+01 4.83621445e+01 1.12667282e+02 8.44156265e+01
      1.29209503e+02 8.95657272e+01 1.09541908e+02 8.28619080e+01</_>
    <_>
      1.07566048e+02 1.84906570e+02 1.54909271e+02 1.74973495e+02
      1.72273254e+02 1.24593170e+02 1.02046692e+02 1.50150131e+02</_>
    <_>
      1.56225119e+01 1.58289902e+02 1.95173092e+01 2.08663010e+02
      1.69819504e+02 1.11058365e+02 4.22229881e+01 1.93925308e+02</_>
    <_>
      2.22579300e+02 2.36618805e+02 2.29855621e+02 2.38121704e+02
      2.36098831e+02 2.28892624e+02 2.30388626e+02 2.32495239e+02</_>
    <_>
      1.57351410e+02 1.75067322e+02 1.73202637e+02 1.88129501e+02
      2.01903030e+02 1.41851654e+02 1.84559479e+02 1.88549469e+02</_>
    <_>
      9.64137802e+01 1.47677811e+02 1.04074669e+02 1.65901764e+02
      1.40837906e+02 7.01288376e+01 1.01761276e+02 1.57827347e+02</_>
    <_>
      9.36003036e+01 5.53091240e+01 1.25916061e+02 8.63551178e+01
      1.37667877e+02 8.97056961e+01 1.07339478e+02 6.81157761e+01</_>
    <_>
      5.61142082e+01 9.58314896e+01 7.98967438e+01 1.43769119e+02
      1.72645935e+02 9.77808838e+01 7.56356812e+01 1.56443512e+02</_>
    <_>
      4.05964127e+01 6.96961670e+01 5.70914536e+01 1.39941483e+02
      1.09861053e+02 6.90611649e+01 6.43324890e+01 1.32223892e+02</_>
    <_>
      9.54212952e+01 1.27998161e+02 1.03064140e+02 1.57587112e+02
      1.08324532e+02 1.16596497e+02 1.08082207e+02 1.45053909e+02</_>
    <_>
      5.44183197e+01 1.30506699e+02 7.32165985e+01 1.74128052e+02
      1.30906113e+02 1.21217842e+02 6.72188339e+01 1.53778824e+02</_>
    <_>
      1.75070404e+02 1.54352997e+02 2.34144379e+02 2.10539368e+02
      2.35299591e+02 1.98983231e+02 2.09735703e+02 1.90721115e+02</_>
    <_>
      1.11567894e+02 8.90042038e+01 1.38970490e+02 1.47184723e+02
      1.75986969e+02 1.48198059e+02 1.54925491e+02 8.58656464e+01</_>
    <_>
      1.37891342e+02 1.03768272e+02 1.64516693e+02 1.29793015e+02
      1.61286469e+02 1.52204590e+02 1.67908249e+02 1.40341736e+02</_>
    <_>
      2.16877258e+02 1.84430115e+02 2.17764954e+02 1.90491745e+02
      2.16147461e+02 2.12775726e+02 2.22497726e+02 2.26613815e+02</_>
    <_>
      8.78938980e+01 7.77753296e+01 1.61411209e+02 1.34867752e+02
      1.39795258e+02 1.33004211e+02 1.35506058e+02 1.21017105e+02</_>
    <_>
      1.76827469e+02 1.52618881e+02 1.79252258e+02 1.75078918e+02
      1.67780884e+02 1.50011246e+02 1.75979935e+02 1.71940140e+02</_>
    <_>
      6.40521774e+01 7.96389999e+01 8.40569992e+01 1.04046234e+02
      9.11771317e+01 8.20703278e+01 8.75390549e+01 1.03559464e+02</_>
    <_>
      9.84786530e+01 1.19196526e+02 1.52944473e+02 1.38930222e+02
      1.64009399e+02 1.29009445e+02 1.39306793e+02 1.29975082e+02</_>
    <_>
      6.19500008e+01 2.07756100e+01 9.28111267e+01 3.76475983e+01
      6.86622772e+01 2.84828262e+01 6.99851990e+01 4.09175415e+01</_>
    <_>
      3.53549805e+01 1.11631287e+02 5.46862564e+01 1.59604141e+02
      1.14344124e+02 1.23033440e+02 6.33893929e+01 1.51687622e+02</_>
    <_>
      1.17594719e+02 1.11516525e+02 1.72378387e+02 1.34113327e+02
      1.68395432e+02 1.36747482e+02 1.65138138e+02 1.42314987e+02</_>
    <_>
      1.22132385e+02 5.49872017e+01 1.48571915e+02 6.13198395e+01
      1.18013245e+02 9.72045746e+01 1.52295731e+02 6.21343536e+01</_>
    <_>
      5.98304749e+01 6.60019531e+01 1.03187035e+02 1.04837662e+02
      1.21695862e+02 8.53049164e+01 8.83956833e+01 1.00753143e+02</_>
    <_>
      6.02442207e+01 1.00594513e+02 1.01578476e+02 1.58644104e+02
      1.52884445e+02 1.30281601e+02 1.31686432e+02 1.79665833e+02</_>
    <_>
      9.84306335e+01 9.22766190e+01 1.38360764e+02 1.41246338e+02
      1.37523087e+02 1.07974350e+02 1.46785202e+02 1.49502457e+02</_>
    <_>
      1.21859177e+02 7.77592697e+01 1.68398682e+02 8.02633896e+01
      1.52358292e+02 1.21164825e+02 1.68484238e+02 9.34927139e+01</_>
    <_>
      1.73643875e+01 2.60797920e+01 8.47565918e+01 1.07716484e+02
      1.42955994e+02 1.17306458e+02 1.43137344e+02 1.78326797e+02</_>
    <_>
      9.63831100e+01 1.02881706e+02 1.40763489e+02 1.72606918e+02
      1.67597107e+02 1.20933708e+02 1.00190498e+02 1.05464676e+02</_>
    <_>
      1.19610291e+02 1.35974670e+02 1.95970963e+02 2.16241104e+02
      2.11547195e+02 1.78110550e+02 2.06449341e+02 2.06602966e+02</_>
    <_>
      9.70171432e+01 1.03618240e+02 1.13619644e+02 1.24820190e+02
      1.18384979e+02 1.07869514e+02 1.10757317e+02 1.17811607e+02</_>
    <_>
      9.55063858e+01 7.81245651e+01 1.38009247e+02 1.29792862e+02
      1.51683762e+02 1.12401138e+02 1.38720627e+02 1.12430786e+02</_>
    <_>
      1.09283005e+02 1.34705307e+02 1.36496704e+02 2.11704498e+02
      2.07172455e+02 1.78090240e+02 1.42019913e+02 2.11310852e+02</_>
    <_>
      6.16270256e+01 9.45496521e+01 9.63287582e+01 1.56300858e+02
      1.07016876e+02 1.15957108e+02 1.05276176e+02 1.63562500e+02</_>
    <_>
      3.50548286e+01 7.13071136e+01 7.15545197e+01 1.20807312e+02
      1.58144135e+02 6.85474243e+01 5.58639603e+01 1.02276962e+02</_>
    <_>
      6.83571167e+01 8.67776489e+01 7.61326981e+01 9.07784805e+01
      1.00284004e+02 7.73318329e+01 5.35302582e+01 8.26188049e+01</_>
    <_>
      7.50280991e+01 1.25852005e+02 1.03303612e+02 1.66765274e+02
      1.44083084e+02 1.15010857e+02 1.18496346e+02 1.44028610e+02</_>
    <_>
      5.64183464e+01 8.13767700e+01 1.14474701e+02 1.37267792e+02
      1.54504578e+02 1.02947670e+02 1.09058411e+02 1.25475204e+02</_>
    <_>
      3.89031601e+01 8.02537155e+01 1.11008774e+02 8.06232910e+01
      9.63895035e+01 9.62785568e+01 8.79321136e+01 8.25672836e+01</_>
    <_>
      4.98486404e+01 8.90645981e+01 1.05596970e+02 1.41462784e+02
      1.41040436e+02 9.95513687e+01 8.87387161e+01 1.15005669e+02</_>
    <_>
      1.09218201e+02 3.96144638e+01 1.56368484e+02 5.03561935e+01
      1.38803787e+02 1.13170013e+02 1.66230453e+02 8.10586014e+01</_>
    <_>
      1.14419533e+02 8.73669205e+01 1.54492752e+02 1.16405273e+02
      1.47973145e+02 1.07205460e+02 1.29013718e+02 9.99073257e+01</_>
    <_>
      7.91991119e+01 8.70394821e+01 1.28019958e+02 1.43940735e+02
      1.10333336e+02 1.00983147e+02 1.30830399e+02 1.43479843e+02</_>
    <_>
      2.02357903e+01 5.48191414e+01 4.45792427e+01 1.05509697e+02
      1.20771225e+02 5.32384834e+01 1.58974257e+01 4.30941849e+01</_>
    <_>
      7.01179581e+01 1.35676880e+02 1.06745583e+02 1.76204483e+02
      1.66427658e+02 1.40447433e+02 1.15371124e+02 1.80269699e+02</_>
    <_>
      1.24235435e+02 8.12008362e+01 1.77699295e+02 1.18981934e+02
      1.44755417e+02 1.02439270e+02 1.46807587e+02 1.01181694e+02</_>
    <_>
      2.77777596e+01 3.61954384e+01 2.75927982e+01 4.57463112e+01
      3.37783928e+01 3.03143883e+01 2.57115726e+01 3.84148598e+01</_>
    <_>
      8.09110031e+01 2.17228146e+01 1.33176865e+02 5.66082268e+01
      1.25429909e+02 8.54594955e+01 1.08721596e+02 3.71799469e+01</_>
    <_>
      9.67429886e+01 7.75396576e+01 1.00052261e+02 8.51671982e+01
      1.04966370e+02 9.39844894e+01 9.56305618e+01 7.97665100e+01</_>
    <_>
      8.96777115e+01 1.13496811e+02 1.05330086e+02 1.43785995e+02
      1.50132584e+02 1.10773392e+02 9.43920898e+01 1.31568573e+02</_>
    <_>
      7.21989899e+01 6.43810120e+01 1.23637886e+02 1.12205368e+02
      1.42441254e+02 1.14792511e+02 1.33532654e+02 1.22435905e+02</_>
    <_>
      6.40847778e+01 7.10951157e+01 1.08789719e+02 1.36224533e+02
      1.75254105e+02 1.16416367e+02 1.43559265e+02 1.39272446e+02</_>
    <_>
      5.72147560e+01 2.27457619e+01 9.61752853e+01 3.67467918e+01
      6.66063995e+01 2.85414009e+01 6.08734741e+01 4.83361855e+01</_>
    <_>
      1.27329277e+02 9.29812546e+01 1.66701279e+02 8.66386261e+01
      1.07047676e+02 1.37790817e+02 1.71703842e+02 9.84701614e+01</_>
    <_>
      9.63723679e+01 8.15492172e+01 1.12312637e+02 1.19477592e+02
      1.32816757e+02 1.26713318e+02 1.13695747e+02 1.20246254e+02</_>
    <_>
      8.82067795e+01 8.51965179e+01 1.19215195e+02 1.14148773e+02
      1.51658569e+02 1.14225044e+02 1.33911514e+02 1.27452095e+02</_>
    <_>
      4.34338989e+01 8.77108383e+01 1.54733200e+02 1.07093620e+02
      1.56819778e+02 1.20114769e+02 1.38237015e+02 9.03953781e+01</_>
    <_>
      9.12041321e+01 8.37282257e+01 1.32674881e+02 1.22844124e+02
      1.34389252e+02 1.13921112e+02 1.50717697e+02 1.46088242e+02</_>
    <_>
      2.75161877e+01 7.47508698e+01 3.37791405e+01 1.71786545e+02
      1.53523422e+02 7.41071243e+01 3.16201859e+01 1.39469650e+02</_>
    <_>
      7.03759079e+01 7.88309097e+01 1.22911102e+02 1.29488983e+02
      1.47067490e+02 9.53743744e+01 1.19415230e+02 1.14621231e+02</_>
    <_>
      1.05664536e+02 9.22928848e+01 1.08015892e+02 9.26574936e+01
      1.40926941e+02 1.63620102e+02 1.28068161e+02 1.16759224e+02</_>
    <_>
      5.33041687e+01 7.04425430e+01 6.00060120e+01 7.74363708e+01
      9.61060104e+01 7.21653366e+01 5.67777596e+01 6.86931000e+01</_>
    <_>
      2.49529419e+01 9.23067017e+01 5.21442528e+01 1.66092300e+02
      1.50969345e+02 1.08298904e+02 5.94456367e+01 1.61382660e+02</_>
    <_>
      1.42681870e+02 1.23873566e+02 1.91657684e+02 1.62399765e+02
      1.79093063e+02 1.63742676e+02 2.01573929e+02 1.61968155e+02</_>
    <_>
      1.31498596e+02 1.10432861e+02 1.50645523e+02 1.50139191e+02
      1.72154053e+02 1.28021912e+02 1.58287537e+02 1.46230408e+02</_>
    <_>
      1.71800293e+02 1.21940895e+02 1.88241684e+02 1.37168350e+02
      1.86938553e+02 1.60498169e+02 1.51587494e+02 1.69073792e+02</_>
    <_>
      7.52150040e+01 9.52930374e+01 1.19421669e+02 1.21838593e+02
      1.31044037e+02 9.23181915e+01 1.25423225e+02 1.22577019e+02</_>
    <_>
      6.80407333e+01 1.09827995e+02 1.06409966e+02 1.36582596e+02
      1.25461975e+02 8.84943695e+01 8.64875336e+01 1.02604622e+02</_>
    <_>
      7.10163574e+01 4.02912979e+01 1.21572441e+02 6.59814987e+01
      1.14830719e+02 7.63227158e+01 8.07893448e+01 4.38675537e+01</_>
    <_>
      1.40672729e+02 1.28196655e+02 1.73121368e+02 1.50441483e+02
      1.67468231e+02 1.32674622e+02 1.72147781e+02 1.61455856e+02</_>
    <_>
      1.36647476e+02 9.34716339e+01 1.80243179e+02 1.35236923e+02
      1.55582443e+02 1.03729904e+02 1.64069763e+02 1.20852989e+02</_>
    <_>
      5.97478943e+01 9.55682220e+01 1.19605812e+02 1.25828400e+02
      1.32906769e+02 1.01355522e+02 1.32805038e+02 1.37675781e+02</_>
    <_>
      7.36411057e+01 1.33687622e+02 9.51957092e+01 1.90405594e+02
      1.37830429e+02 1.24497368e+02 1.11940437e+02 1.92235916e+02</_>
    <_>
      1.37540588e+02 1.22291122e+02 1.87402252e+02 1.39919983e+02
      2.06068649e+02 1.50568756e+02 1.92508743e+02 1.45828598e+02</_>
    <_>
      5.71545410e+01 5.51908798e+01 8.33698502e+01 8.12078247e+01
      9.29758301e+01 7.88677750e+01 9.54161835e+01 8.14115295e+01</_>
    <_>
      6.28832169e+01 9.88489227e+01 1.13718330e+02 1.75721161e+02
      1.54251434e+02 1.17115326e+02 8.53054504e+01 1.55438538e+02</_>
    <_>
      1.44214035e+02 6.86855316e+01 2.14454269e+02 9.27125854e+01
      1.38292328e+02 1.47543732e+02 2.02996414e+02 1.02940132e+02</_>
    <_>
      4.54829216e+01 9.30446854e+01 9.53284607e+01 1.50772156e+02
      1.36744812e+02 7.36169968e+01 7.27466660e+01 1.10058228e+02</_>
    <_>
      9.29635315e+01 9.55257263e+01 1.44483261e+02 1.38179138e+02
      1.58869232e+02 1.11269264e+02 1.42086273e+02 1.20211357e+02</_>
    <_>
      8.55599670e+01 1.05713760e+02 1.35114746e+02 1.49056915e+02
      1.77545303e+02 1.50052444e+02 1.51774017e+02 1.79556946e+02</_>
    <_>
      7.49445801e+01 8.41464615e+01 1.33272446e+02 1.22767914e+02
      1.33171951e+02 1.11078957e+02 1.27812263e+02 1.41313721e+02</_>
    <_>
      1.08088104e+02 1.06486855e+02 1.39752487e+02 1.03732574e+02
      1.23152939e+02 1.12670219e+02 1.60325760e+02 1.21418289e+02</_>
    <_>
      9.30919037e+01 2.68472137e+01 1.70512482e+02 4.81928444e+01
      1.43333755e+02 7.57150650e+01 1.30570038e+02 4.76106911e+01</_>
    <_>
      4.14162674e+01 8.90355911e+01 8.23871002e+01 1.55688080e+02
      1.36227280e+02 9.80484161e+01 8.98933334e+01 1.52989685e+02</_>
    <_>
      1.40994431e+02 1.63062012e+02 1.89862411e+02 2.30363785e+02
      1.73986084e+02 1.79806717e+02 1.93056076e+02 2.00260590e+02</_>
    <_>
      1.51048553e+02 1.25836601e+02 1.79437897e+02 1.67607391e+02
      1.76335999e+02 1.37933487e+02 1.75285156e+02 1.78919922e+02</_>
    <_>
      5.20067101e+01 7.79147110e+01 1.32496567e+02 1.37547760e+02
      1.68080566e+02 1.34885803e+02 1.38237549e+02 1.42464539e+02</_>
    <_>
      3.91565781e+01 2.05607681e+01 1.39707962e+02 1.58729263e+02
      1.74345718e+02 1.52384186e+02 1.38816956e+02 1.70433380e+02</_>
    <_>
      8.40581741e+01 1.01128426e+02 1.12212372e+02 1.50826050e+02
      1.45460342e+02 1.31219391e+02 1.15609695e+02 1.63826645e+02</_>
    <_>
      5.87138901e+01 9.92221069e+01 1.09874893e+02 1.58196274e+02
      1.96903091e+02 1.26061554e+02 8.21831970e+01 1.70701035e+02</_>
    <_>
      7.11271515e+01 1.07932274e+02 1.37813339e+02 1.54894867e+02
      1.97398849e+02 1.34435867e+02 1.03194229e+02 1.64778549e+02</_>
    <_>
      7.60092316e+01 9.60266876e+01 8.99417496e+01 1.59250885e+02
      1.36994705e+02 1.42174866e+02 8.70098953e+01 1.36590622e+02</_>
    <_>
      1.21039421e+02 9.92610092e+01 1.51292526e+02 1.29269470e+02
      1.46915878e+02 1.04990028e+02 1.29641129e+02 1.02995659e+02</_>
    <_>
      1.83597321e+02 1.54274094e+02 1.76693390e+02 1.61850845e+02
      1.79082611e+02 1.65876602e+02 1.88901962e+02 1.56485825e+02</_>
    <_>
      1.30794830e+02 9.77306824e+01 1.52778946e+02 1.16484047e+02
      1.40881332e+02 1.37720901e+02 1.77742630e+02 1.33674164e+02</_>
    <_>
      5.39160881e+01 9.15046310e+01 1.48850662e+02 2.03227448e+02
      2.09781891e+02 1.92672974e+02 1.92482132e+02 2.27808578e+02</_>
    <_>
      5.65467834e+01 9.64341888e+01 9.14956512e+01 1.47473053e+02
      1.37154633e+02 1.34740234e+02 1.08994614e+02 1.56976868e+02</_>
    <_>
      1.52803757e+02 1.30525452e+02 2.14320831e+02 1.69261673e+02
      1.65443665e+02 1.42343384e+02 1.36494202e+02 1.57547119e+02</_>
    <_>
      6.08592148e+01 5.51911316e+01 9.08719482e+01 1.06108894e+02
      1.40812637e+02 9.59775314e+01 1.09294434e+02 1.37937790e+02</_>
    <_>
      1.28615570e+02 1.12836151e+02 1.61360138e+02 1.69721710e+02
      2.08349884e+02 1.65837402e+02 1.71485626e+02 1.92681259e+02</_>
    <_>
      1.42978058e+02 1.38973526e+02 1.58678619e+02 1.55308746e+02
      1.71565750e+02 1.44610016e+02 1.55547501e+02 1.53722977e+02</_>
    <_>
      1.34408188e+02 1.86150879e+02 1.38149521e+02 2.24242111e+02
      1.84248825e+02 1.87157089e+02 1.74710587e+02 2.27327377e+02</_>
    <_>
      1.17015175e+02 1.40117615e+02 1.63017303e+02 1.63872223e+02
      2.03468750e+02 1.50203659e+02 1.59348236e+02 1.60889221e+02</_>
    <_>
      1.05350960e+02 7.32048721e+01 1.52855591e+02 8.38241882e+01
      1.39363739e+02 9.25460129e+01 1.40315002e+02 8.52398529e+01</_>
    <_>
      1.19011154e+02 1.32673782e+02 1.55013580e+02 1.32437836e+02
      1.73740540e+02 1.69807190e+02 1.74007706e+02 1.78622803e+02</_>
    <_>
      7.39499969e+01 5.20300827e+01 1.02843719e+02 5.92668800e+01
      1.08091370e+02 8.72849655e+01 1.10406403e+02 7.40813370e+01</_>
    <_>
      3.24023895e+01 2.88750000e+01 1.69326416e+02 1.34280273e+02
      1.19172226e+02 1.05927338e+02 1.29173584e+02 1.65305222e+02</_>
    <_>
      7.78377609e+01 1.10860001e+02 1.15153458e+02 1.50719833e+02
      1.37299652e+02 9.64614639e+01 1.24941902e+02 1.44708221e+02</_>
    <_>
      6.96883469e+01 1.01490608e+02 1.72044281e+02 1.56968369e+02
      1.74228699e+02 1.44225952e+02 1.72434357e+02 1.56477814e+02</_>
    <_>
      1.85072632e+02 1.45678513e+02 2.25548080e+02 1.99096893e+02
      2.28208466e+02 1.97631332e+02 2.11544479e+02 1.79603470e+02</_>
    <_>
      1.42592102e+02 1.73541107e+02 1.68046799e+02 2.01239456e+02
      1.72357895e+02 1.47957489e+02 1.34427353e+02 1.57229034e+02</_>
    <_>
      1.31528412e+02 9.53293915e+01 1.89505310e+02 1.24835091e+02
      1.47905731e+02 1.47050735e+02 1.98681396e+02 1.39932297e+02</_>
    <_>
      1.02057426e+02 1.15630104e+02 1.62766296e+02 1.65848099e+02
      1.54157669e+02 1.20671005e+02 1.61066299e+02 1.45207672e+02</_>
    <_>
      9.74499435e+01 5.37052994e+01 1.33506454e+02 6.13919411e+01
      7.61582336e+01 8.69105453e+01 1.29102493e+02 6.81084976e+01</_>
    <_>
      6.91751785e+01 8.47056198e+01 1.10294067e+02 1.22348175e+02
      1.12020729e+02 9.50988693e+01 9.66061935e+01 8.94518585e+01</_>
    <_>
      1.49165207e+02 1.40417480e+02 1.87249603e+02 1.88764542e+02
      1.49691650e+02 1.34773560e+02 1.69246124e+02 1.67477264e+02</_>
    <_>
      5.52226105e+01 5.02903938e+01 1.18853966e+02 1.30576599e+02
      1.33827759e+02 1.32539474e+02 1.34350281e+02 1.33968994e+02</_>
    <_>
      4.65061646e+01 9.44162674e+01 9.78759689e+01 1.32878464e+02
      1.18341347e+02 6.68047180e+01 9.21770706e+01 8.39317322e+01</_>
    <_>
      1.57963898e+02 1.27044586e+02 2.04518402e+02 1.14592468e+02
      1.62936050e+02 1.74173294e+02 2.25063629e+02 1.60929688e+02</_>
    <_>
      1.48231628e+02 1.16986687e+02 1.86153397e+02 1.11387871e+02
      1.48465805e+02 1.60175903e+02 2.05473831e+02 1.51092270e+02</_>
    <_>
      4.77924995e+01 1.84073975e+02 1.25059303e+02 2.07170715e+02
      1.89414154e+02 1.55804398e+02 1.56284256e+02 2.09732010e+02</_>
    <_>
      8.13278503e+01 7.78442612e+01 1.53800690e+02 1.29761902e+02
      1.45849152e+02 8.16091003e+01 9.65377579e+01 6.94774780e+01</_>
    <_>
      4.46611061e+01 7.79535370e+01 1.26045746e+02 1.37055725e+02
      1.47090256e+02 1.03116974e+02 1.26501389e+02 1.12553329e+02</_>
    <_>
      4.64290657e+01 7.38305740e+01 7.75119781e+01 1.31490021e+02
      1.58619354e+02 6.87932587e+01 8.52605286e+01 8.48159180e+01</_>
    <_>
      4.17344055e+01 2.19164047e+01 8.40650024e+01 7.94483109e+01
      7.67243805e+01 9.86650543e+01 1.14860153e+02 1.14918060e+02</_>
    <_>
      1.45860291e+02 1.28289566e+02 1.59160583e+02 1.19237404e+02
      1.26557549e+02 1.27062355e+02 1.55613113e+02 1.20969902e+02</_>
    <_>
      1.25597366e+02 1.06133232e+02 1.96941635e+02 1.25221886e+02
      2.11393173e+02 1.50379288e+02 1.79121567e+02 9.37763062e+01</_>
    <_>
      7.76020203e+01 8.61194611e+01 8.31821747e+01 1.23151764e+02
      1.17050781e+02 1.09423325e+02 1.01604156e+02 1.55104874e+02</_>
    <_>
      5.76002579e+01 1.67243137e+01 1.04059196e+02 3.40136414e+01
      7.55912399e+01 4.94706573e+01 9.28982697e+01 4.10237083e+01</_>
    <_>
      1.19633667e+02 8.05500031e+01 1.72807831e+02 1.60025726e+02
      1.87171722e+02 1.28133286e+02 1.53291306e+02 1.73937576e+02</_>
    <_>
      5.26512337e+01 6.22379150e+01 1.41613281e+02 1.14583519e+02
      1.80283890e+02 1.25512238e+02 1.75996323e+02 1.16741425e+02</_>
    <_>
      9.52904129e+01 9.63482056e+01 1.28339462e+02 1.33619415e+02
      1.43396683e+02 1.07389870e+02 1.31998169e+02 1.25797424e+02</_>
    <_>
      8.01495285e+01 8.83396149e+01 1.68713089e+02 2.27175278e+02
      2.01794067e+02 1.97942825e+02 1.75823746e+02 2.27535187e+02</_>
    <_>
      8.50164795e+01 7.75835037e+01 1.23191643e+02 1.11104103e+02
      1.50009125e+02 6.32958298e+01 6.26796722e+01 6.02037621e+01</_>
    <_>
      9.59561234e+01 1.30119751e+02 1.36037857e+02 1.78624329e+02
      2.03557053e+02 8.90063095e+01 8.79482193e+01 1.38482452e+02</_>
    <_>
      5.40826836e+01 9.62530594e+01 1.07925179e+02 1.22807777e+02
      1.24157097e+02 1.04421837e+02 1.22298294e+02 1.10312386e+02</_>
    <_>
      1.64114838e+02 1.62315781e+02 2.28687683e+02 2.21197830e+02
      2.41485489e+02 2.29331604e+02 2.42069717e+02 2.38198868e+02</_>
    <_>
      7.56425400e+01 9.01322937e+01 1.02138283e+02 1.27605972e+02
      1.24039543e+02 9.80565414e+01 9.71878204e+01 9.40614471e+01</_>
    <_>
      9.09963913e+01 7.73386307e+01 1.14914757e+02 1.13029289e+02
      9.06533737e+01 8.55372086e+01 9.18630676e+01 8.08017197e+01</_>
    <_>
      1.54399475e+02 8.31371155e+01 1.85871887e+02 1.17120155e+02
      1.93610367e+02 1.33451553e+02 1.81024979e+02 1.19655235e+02</_>
    <_>
      2.26118103e+02 2.11909225e+02 2.35749680e+02 2.27381546e+02
      2.33718231e+02 2.17299286e+02 2.34560654e+02 2.33785889e+02</_>
    <_>
      9.66437531e+01 5.84646225e+01 1.27477097e+02 8.41396408e+01
      1.41884033e+02 1.03137314e+02 1.09549133e+02 7.33851471e+01</_>
    <_>
      9.77487411e+01 7.36111145e+01 1.19312622e+02 9.66124573e+01
      1.16852333e+02 1.10400536e+02 1.24379936e+02 1.08814667e+02</_>
    <_>
      1.24074287e+02 3.43374100e+01 1.87252274e+02 1.05899635e+02
      1.94709427e+02 1.46898636e+02 1.90464996e+02 1.15154076e+02</_>
    <_>
      1.12276672e+02 6.80020828e+01 1.46294083e+02 9.28733139e+01
      1.26038269e+02 8.40005875e+01 1.48674927e+02 1.15488167e+02</_>
    <_>
      6.12637711e+01 1.29487061e+02 7.60633774e+01 1.36602615e+02
      1.59383865e+02 1.22630760e+02 9.36557236e+01 1.54115967e+02</_>
    <_>
      7.33622894e+01 1.00532242e+02 9.85501404e+01 1.26648384e+02
      1.11211555e+02 8.74949341e+01 4.65886230e+01 1.22851982e+02</_>
    <_>
      5.53606224e+01 9.72039261e+01 1.33885315e+02 1.68169846e+02
      1.73069626e+02 1.53994644e+02 1.66563858e+02 1.74351089e+02</_>
    <_>
      4.29033585e+01 5.23738937e+01 6.57764053e+01 8.37538910e+01
      1.52914719e+02 6.72678757e+01 9.28013458e+01 7.53383484e+01</_>
    <_>
      9.06084900e+01 4.11666260e+01 1.78619232e+02 5.54700089e+01
      1.07892906e+02 1.08075172e+02 1.68136032e+02 6.13670387e+01</_>
    <_>
      1.94976616e+01 2.28781948e+01 2.03512707e+01 2.45584888e+01
      2.70016441e+01 1.97717876e+01 1.78703747e+01 2.48097210e+01</_>
    <_>
      1.26098015e+02 6.20741997e+01 1.68470825e+02 1.07922684e+02
      1.64372253e+02 1.20345566e+02 1.65402710e+02 1.31041290e+02</_>
    <_>
      9.86732941e+01 6.18350830e+01 1.80452484e+02 1.33708313e+02
      1.53831619e+02 1.48081329e+02 1.73855331e+02 1.26453957e+02</_>
    <_>
      4.67724342e+01 7.38960571e+01 5.30951042e+01 9.12765121e+01
      9.52829819e+01 9.59415359e+01 5.57814140e+01 8.76341476e+01</_>
    <_>
      8.75039062e+01 1.33810486e+02 1.11777626e+02 1.76530655e+02
      1.53475372e+02 1.20811623e+02 1.04974770e+02 1.68589203e+02</_>
    <_>
      6.00468979e+01 7.53033142e+01 8.81508636e+01 1.17333908e+02
      1.20972923e+02 7.28485031e+01 6.87467346e+01 8.76912689e+01</_>
    <_>
      9.30481491e+01 1.23853058e+02 1.13204491e+02 1.39847198e+02
      1.27534225e+02 1.11885674e+02 9.42550659e+01 1.17787842e+02</_>
    <_>
      8.99351501e+01 8.07731476e+01 9.57392273e+01 1.20775635e+02
      1.12792877e+02 5.61664658e+01 6.75154266e+01 1.10514282e+02</_>
    <_>
      9.66962204e+01 9.89565659e+01 1.03215378e+02 9.59019470e+01
      1.26514511e+02 1.07482224e+02 1.01733749e+02 1.01283714e+02</_>
    <_>
      9.38245392e+01 4.99170990e+01 1.27826424e+02 1.11293640e+02
      1.59096100e+02 1.22875740e+02 1.46792786e+02 1.16617706e+02</_>
    <_>
      1.94967941e+02 2.01406738e+02 2.26710358e+02 2.30852173e+02
      2.33628250e+02 2.17403595e+02 2.16321777e+02 2.20462708e+02</_>
    <_>
      4.71759377e+01 3.97440262e+01 9.78082657e+01 3.13203983e+01
      8.52167664e+01 8.63585434e+01 5.30178185e+01 2.56255436e+01</_>
    <_>
      7.61004562e+01 5.97000008e+01 1.50784317e+02 9.69254379e+01
      1.27167961e+02 7.52918549e+01 1.35583328e+02 1.04877213e+02</_>
    <_>
      6.02112885e+01 9.32806549e+01 9.19997177e+01 1.21193878e+02
      1.40401932e+02 1.09584541e+02 9.91897964e+01 1.32569138e+02</_>
    <_>
      5.93398781e+01 5.76719322e+01 1.00918701e+02 9.12411728e+01
      1.27970413e+02 7.67725143e+01 8.20463104e+01 7.42564163e+01</_>
    <_>
      4.55741730e+01 5.30757027e+01 8.96017456e+01 7.07000351e+01
      7.98537750e+01 6.87592545e+01 6.61176071e+01 5.55343781e+01</_>
    <_>
      2.40817356e+01 2.15930729e+01 1.41471436e+02 1.15254433e+02
      1.17116920e+02 1.11940323e+02 1.50999359e+02 1.59286026e+02</_>
    <_>
      8.27956543e+01 8.74866257e+01 1.40334915e+02 1.38762024e+02
      1.10437401e+02 1.04876877e+02 1.35431793e+02 1.37427658e+02</_>
    <_>
      7.78243942e+01 1.14791954e+02 7.21893463e+01 1.24816650e+02
      1.29163300e+02 1.02715630e+02 8.86819687e+01 1.34265549e+02</_>
    <_>
      9.80536804e+01 1.34676361e+02 1.55668549e+02 1.58910904e+02
      1.26553360e+02 1.16266670e+02 1.26303436e+02 1.50334793e+02</_>
    <_>
      1.11919212e+02 4.02957497e+01 1.16283928e+02 8.99128418e+01
      1.72898102e+02 8.47914886e+01 9.96709290e+01 1.05821281e+02</_>
    <_>
      4.72402420e+01 8.51423874e+01 7.94131165e+01 9.18953476e+01
      9.57286835e+01 7.00937805e+01 6.93631973e+01 6.57541580e+01</_>
    <_>
      7.21871262e+01 9.46532059e+01 1.11815582e+02 1.49330917e+02
      1.50945374e+02 1.00339455e+02 9.49745407e+01 1.11816658e+02</_>
    <_>
      1.54553711e+02 1.46981750e+02 1.43863800e+02 1.37016357e+02
      1.22562859e+02 9.11418304e+01 1.07082161e+02 1.04567841e+02</_>
    <_>
      7.53909225e+01 7.29343567e+01 1.24677673e+02 1.17315430e+02
      1.50730103e+02 6.42966232e+01 6.18721008e+01 6.12617874e+01</_>
    <_>
      5.19993019e+01 1.12930717e+02 7.47163086e+01 1.78500198e+02
      1.86907791e+02 1.24181068e+02 7.46511307e+01 1.77279892e+02</_>
    <_>
      5.46598740e+01 6.90481796e+01 7.43864975e+01 1.03536087e+02
      8.99381638e+01 5.41373749e+01 4.34336433e+01 7.57039566e+01</_>
    <_>
      2.84743137e+01 5.38240128e+01 6.26355553e+01 1.39028381e+02
      1.21680290e+02 5.81167793e+01 4.56540565e+01 9.53486710e+01</_>
    <_>
      9.78528671e+01 6.40355988e+01 7.56766586e+01 1.01934570e+02
      9.00261536e+01 7.77454529e+01 5.41484833e+01 9.04557114e+01</_>
    <_>
      7.98700104e+01 7.40620728e+01 1.50725677e+02 7.05846100e+01
      1.36561905e+02 8.54251404e+01 9.95357895e+01 1.09109695e+02</_>
    <_>
      1.72463627e+01 1.97014637e+01 2.97499580e+01 4.37138214e+01
      5.19322205e+01 1.19801636e+01 1.20930119e+01 1.10284433e+01</_>
    <_>
      1.27032631e+02 1.13441780e+02 1.64775467e+02 1.47592514e+02
      1.89482224e+02 1.06794151e+02 1.51384842e+02 1.31817596e+02</_>
    <_>
      1.07415146e+02 9.55337677e+01 1.73623566e+02 1.84745636e+02
      1.66657578e+02 1.42797638e+02 1.64273224e+02 1.70864334e+02</_>
    <_>
      4.22339363e+01 4.49947319e+01 6.28130569e+01 7.69118652e+01
      1.04669823e+02 6.03084106e+01 4.76262169e+01 5.83537750e+01</_>
    <_>
      1.00890221e+02 9.65856247e+01 1.61800842e+02 1.44992157e+02
      1.63790100e+02 7.56700134e+01 1.14289307e+02 9.91267014e+01</_>
    <_>
      8.77286072e+01 6.19947090e+01 1.29756042e+02 1.02413567e+02
      8.66847916e+01 7.26086349e+01 1.12006088e+02 8.52911682e+01</_>
    <_>
      8.31615067e+01 4.30214081e+01 1.21968384e+02 9.10423889e+01
      1.23035614e+02 6.23024139e+01 1.07214867e+02 6.99151993e+01</_>
    <_>
      6.50065536e+01 1.04522896e+02 1.12417061e+02 1.47086868e+02
      1.52035217e+02 8.45034866e+01 1.38336243e+02 1.11764870e+02</_>
    <_>
      1.83398178e+02 1.56015274e+02 1.90688812e+02 1.55984100e+02
      1.82663101e+02 1.51139877e+02 1.62997009e+02 1.44446259e+02</_>
    <_>
      9.14224701e+01 7.44213638e+01 1.10486305e+02 1.11621536e+02
      1.32978897e+02 7.98550720e+01 7.84649734e+01 7.30008850e+01</_>
    <_>
      2.76294460e+01 8.52369919e+01 4.27042885e+01 1.61159393e+02
      1.10761078e+02 8.13098297e+01 7.71618576e+01 1.47971039e+02</_>
    <_>
      8.76483994e+01 8.02101440e+01 1.37137222e+02 9.31005936e+01
      1.30677719e+02 1.08990166e+02 1.35208267e+02 1.07836380e+02</_>
    <_>
      1.20712929e+02 1.28475693e+02 1.64930237e+02 1.58966141e+02
      1.73236557e+02 1.59839218e+02 1.93271118e+02 1.73508743e+02</_>
    <_>
      6.96891556e+01 1.07032753e+02 1.09531975e+02 1.42134232e+02
      1.59457718e+02 1.26514221e+02 1.16970627e+02 1.54859344e+02</_>
    <_>
      1.46779068e+02 4.30696754e+01 2.08638443e+02 6.01883316e+01
      1.57281860e+02 8.95059814e+01 1.65929504e+02 4.60127335e+01</_>
    <_>
      7.25495529e+01 9.66691589e+01 1.11963234e+02 1.49304916e+02
      1.54621643e+02 1.04474144e+02 9.76693878e+01 1.17473473e+02</_>
    <_>
      1.46922836e+02 1.40923248e+02 1.72228363e+02 1.83602722e+02
      1.88154999e+02 1.45849838e+02 1.52645981e+02 1.75705841e+02</_>
    <_>
      1.22162331e+02 1.05019341e+02 1.40752014e+02 1.16078766e+02
      1.36649414e+02 1.13119225e+02 1.64279465e+02 1.18681450e+02</_>
    <_>
      5.67652016e+01 4.90897636e+01 6.26616898e+01 5.37332878e+01
      5.37292938e+01 3.86879311e+01 4.74508018e+01 3.65679665e+01</_>
    <_>
      9.36912460e+01 1.09935951e+02 1.60623520e+02 1.38912033e+02
      1.68986053e+02 1.26042992e+02 1.47568512e+02 1.37222595e+02</_>
    <_>
      9.01819763e+01 8.63047314e+00 1.43839142e+02 2.59860897e+01
      9.95584717e+01 5.57931023e+01 1.30431839e+02 2.77292137e+01</_>
    <_>
      7.69313812e+01 1.07021568e+02 1.01996773e+02 1.46942535e+02
      1.59707367e+02 1.21587494e+02 1.22760422e+02 1.48483307e+02</_>
    <_>
      1.12377701e+02 7.89083633e+01 1.68421265e+02 1.17998672e+02
      1.28729126e+02 1.17543144e+02 1.71427383e+02 1.24478577e+02</_>
    <_>
      1.04077858e+02 3.62849541e+01 1.60443344e+02 4.85740166e+01
      1.47536957e+02 6.40918732e+01 1.32186981e+02 5.32946510e+01</_>
    <_>
      1.19844826e+02 1.21133331e+02 1.67137344e+02 1.51627716e+02
      1.80304962e+02 1.35219376e+02 1.48395447e+02 1.45723846e+02</_>
    <_>
      1.80931870e+02 1.34533203e+02 1.87141113e+02 1.33389587e+02
      1.72036728e+02 1.33236801e+02 1.56385788e+02 1.23520905e+02</_>
    <_>
      7.19076691e+01 1.67201889e+02 8.51584320e+01 2.08943741e+02
      1.78377625e+02 1.26817123e+02 7.48742599e+01 1.98418915e+02</_>
    <_>
      6.21656647e+01 7.83766937e+01 5.79863091e+01 1.23196747e+02
      1.46138870e+02 7.11979523e+01 9.39584274e+01 1.35099197e+02</_>
    <_>
      5.38672676e+01 7.80921326e+01 7.56757889e+01 1.06623123e+02
      1.57344528e+02 6.69470901e+01 6.26217308e+01 8.99014511e+01</_>
    <_>
      1.15616898e+02 8.70062027e+01 1.54978210e+02 1.14826691e+02
      1.44856766e+02 1.02946396e+02 1.31630402e+02 1.00562363e+02</_>
    <_>
      6.88487244e+01 7.78863525e+01 7.40747299e+01 1.19783089e+02
      1.08715034e+02 1.09109482e+02 9.83661957e+01 1.30409698e+02</_>
    <_>
      9.95536346e+01 1.94177460e+02 1.26869888e+02 2.08652939e+02
      2.18356522e+02 1.65730667e+02 1.38227692e+02 1.90308548e+02</_>
    <_>
      2.92193890e+01 8.25615463e+01 4.05747681e+01 1.14829094e+02
      9.45563354e+01 6.82713928e+01 4.14077606e+01 1.01054375e+02</_>
    <_>
      1.53611359e+02 1.68936722e+02 1.47883408e+02 1.82621704e+02
      1.92942749e+02 1.59369843e+02 1.21004921e+02 1.22986404e+02</_>
    <_>
      9.77605438e+01 8.83658600e+01 1.46258209e+02 1.17537979e+02
      1.10298531e+02 8.19795685e+01 1.20464470e+02 8.75299377e+01</_>
    <_>
      5.73695450e+01 5.48803024e+01 1.25185234e+02 1.12167397e+02
      1.45811722e+02 1.33461029e+02 1.51258118e+02 1.41427734e+02</_>
    <_>
      9.36118546e+01 6.98428802e+01 1.11811905e+02 8.46587219e+01
      1.14559319e+02 1.00457222e+02 1.22080605e+02 9.40810471e+01</_>
    <_>
      1.04663620e+02 9.11828537e+01 1.48473114e+02 1.38404938e+02
      1.34685593e+02 1.10164925e+02 1.21214691e+02 1.28895187e+02</_>
    <_>
      1.04971893e+02 1.27359520e+02 1.06448273e+02 1.80939713e+02
      1.64451721e+02 1.48602600e+02 1.38195496e+02 1.94436066e+02</_>
    <_>
      1.06358154e+02 1.06484451e+02 1.38630920e+02 1.90336349e+02
      1.52516876e+02 1.02030350e+02 1.43035294e+02 1.48062988e+02</_>
    <_>
      1.50220261e+02 1.56919968e+02 1.91359207e+02 1.59518570e+02
      1.75571671e+02 1.51113464e+02 2.04463928e+02 1.62116058e+02</_>
    <_>
      7.84970932e+01 1.32563293e+02 1.08432007e+02 1.79087402e+02
