<?xml version="1.0"?>
<opencv_storage>
<opencv_ml_svm>
  <format>3</format>
  <svmType>C_SVC</svmType>
  <kernel>
    <type>LINEAR</type></kernel>
  <C>1.0000000000000000e-02</C>
  <term_criteria><epsilon>1.1920928955078125e-07</epsilon>
    <iterations>1000</iterations></term_criteria>
  <var_count>8</var_count>
  <class_count>2</class_count>
  <class_labels type_id="opencv-matrix">
    <rows>2</rows>
    <cols>1</cols>
    <dt>i</dt>
    <data>
      0 1</data></class_labels>
  <class_weights type_id="opencv-matrix">
    <rows>2</rows>
    <cols>1</cols>
    <dt>d</dt>
    <data>
      5.2511961722488043e-01 4.7488038277511962e-01</data></class_weights>
  <sv_total>1</sv_total>
  <support_vectors>
    <_>
      -9.64913866e-04 3.73492157e-03 2.64733826e-04 5.02394559e-03
      -3.06890695e-03 4.35943529e-03 2.01428542e-03 -1.12020651e-04</_></support_vectors>
  <uncompressed_sv_total>30</uncompressed_sv_total>
  <uncompressed_support_vectors>
    <_>
      1.68718994e+02 1.11694206e+02 2.07450943e+02 1.32854797e+02
      2.05127975e+02 1.58546722e+02 2.02287415e+02 9.48434982e+01</_>
    <_>
      4.02700195e+01 3.34336586e+01 3.57792854e+01 5.48310013e+01
      3.80453682e+01 2.32577534e+01 3.29210167e+01 6.81311340e+01</_>
    <_>
      7.75453720e+01 8.62417297e+01 1.12518562e+02 1.23406189e+02
      1.74165131e+02 1.51726944e+02 1.06556694e+02 8.87254486e+01</_>
    <_>
      9.66255722e+01 7.70761337e+01 9.31995010e+01 1.00383202e+02
      1.01304840e+02 9.68116379e+01 9.27050629e+01 6.93207932e+01</_>
    <_>
      2.03517212e+02 2.18346893e+02 2.15294479e+02 2.15174484e+02
      2.23100372e+02 2.07711334e+02 2.26065857e+02 2.16667221e+02</_>
    <_>
      6.45173264e+01 7.81005325e+01 9.07833557e+01 9.64992371e+01
      1.01099815e+02 9.16031494e+01 7.16245193e+01 8.24899139e+01</_>
    <_>
      6.26359711e+01 9.11338654e+01 6.99551010e+01 7.98181839e+01
      9.04826508e+01 7.98831558e+01 8.07438126e+01 1.00892464e+02</_>
    <_>
      1.12159149e+02 1.06567749e+02 1.37786102e+02 1.22580994e+02
      1.57180542e+02 1.23079086e+02 6.92589035e+01 6.03437195e+01</_>
    <_>
      5.75257607e+01 5.93575859e+01 7.67902985e+01 7.71453857e+01
      1.04693375e+02 5.96811829e+01 6.49416656e+01 5.72122841e+01</_>
    <_>
      1.65467392e+02 1.60028870e+02 1.91473419e+02 2.17030167e+02
      2.13832199e+02 1.97443649e+02 1.94402420e+02 2.30888397e+02</_>
    <_>
      1.82588470e+02 1.94555527e+02 1.99083908e+02 2.22888870e+02
      2.20134979e+02 2.04148880e+02 2.01274506e+02 2.26851578e+02</_>
    <_>
      7.39814758e+01 5.78011436e+01 9.46204758e+01 8.99553986e+01
      1.20198021e+02 6.38661003e+01 4.04080391e+01 4.85084343e+01</_>
    <_>
      1.93869568e+02 1.81952499e+02 2.22997513e+02 2.15960983e+02
      2.14253891e+02 2.13711685e+02 2.12382629e+02 2.10084061e+02</_>
    <_>
      1.02304344e+02 1.76692581e+02 1.87969391e+02 2.16181076e+02
      2.20548859e+02 1.98588150e+02 1.98655029e+02 2.24782669e+02</_>
    <_>
      6.91824722e+01 7.02453003e+01 6.04821663e+01 1.28610458e+02
      1.69683441e+02 7.82554932e+01 2.42964764e+01 1.03037521e+02</_>
    <_>
      9.85284119e+01 1.12555878e+02 1.36096313e+02 1.34749985e+02
      1.38495255e+02 1.15340225e+02 1.32677872e+02 1.41744873e+02</_>
    <_>
      7.06553879e+01 8.32286301e+01 8.42139359e+01 1.50314377e+02
      1.46024063e+02 1.31202499e+02 1.02780464e+02 1.65831284e+02</_>
    <_>
      1.17595490e+02 1.27631767e+02 1.42345703e+02 1.95985214e+02
      2.09880386e+02 1.54944351e+02 1.28855331e+02 2.35241669e+02</_>
    <_>
      9.75924149e+01 3.14864864e+01 1.56819565e+02 5.06299095e+01
      1.49453964e+02 5.84413261e+01 6.16892548e+01 3.10399380e+01</_>
    <_>
      3.29540367e+01 5.84049530e+01 9.61215210e+01 1.26743034e+02
      1.29683929e+02 8.31964569e+01 1.11237846e+02 1.69333481e+02</_>
    <_>
      2.05075574e+00 4.03394661e+01 5.67576170e+00 1.18494026e+02
      8.41928558e+01 3.41892624e+01 1.11842644e+00 3.71105194e+01</_>
    <_>
      2.22579300e+02 2.36618805e+02 2.29855621e+02 2.38121704e+02
      2.36098831e+02 2.28892624e+02 2.30388626e+02 2.32495239e+02</_>
    <_>
      5.72147560e+01 2.27457619e+01 9.61752853e+01 3.67467918e+01
      6.66063995e+01 2.85414009e+01 6.08734741e+01 4.83361855e+01</_>
    <_>
      2.75161877e+01 7.47508698e+01 3.37791405e+01 1.71786545e+02
      1.53523422e+02 7.41071243e+01 3.16201859e+01 1.39469650e+02</_>
    <_>
      1.64114838e+02 1.62315781e+02 2.28687683e+02 2.21197830e+02
      2.41485489e+02 2.29331604e+02 2.42069717e+02 2.38198868e+02</_>
    <_>
      2.26118103e+02 2.11909225e+02 2.35749680e+02 2.27381546e+02
      2.33718231e+02 2.17299286e+02 2.34560654e+02 2.33785889e+02</_>
    <_>
      1.94976616e+01 2.28781948e+01 2.03512707e+01 2.45584888e+01
      2.70016441e+01 1.97717876e+01 1.78703747e+01 2.48097210e+01</_>
    <_>
      1.72463627e+01 1.97014637e+01 2.97499580e+01 4.37138214e+01
      5.19322205e+01 1.19801636e+01 1.20930119e+01 1.10284433e+01</_>
    <_>
      9.01819763e+01 8.63047314e+00 1.43839142e+02 2.59860897e+01
      9.95584717e+01 5.57931023e+01 1.30431839e+02 2.77292137e+01</_>
    <_>
      9.58733749e+01 1.50775284e+02 1.88270554e+02 2.24422195e+02
      2.02566818e+02 1.73988342e+02 1.95809738e+02 2.22518097e+02</_></uncompressed_support_vectors>
  <decision_functions>
    <_>
      <sv_count>1</sv_count>
      <rho>1.2632277688999050e+00</rho>
      <alpha>
        1.</alpha>
      <index>
        0</index></_></decision_functions></opencv_ml_svm>
</opencv_storage>
