<?xml version="1.0"?>
<opencv_storage>
<opencv_ml_svm>
  <format>3</format>
  <svmType>C_SVC</svmType>
  <kernel>
    <type>RBF</type>
    <gamma>1.0000000000000000e-04</gamma></kernel>
  <C>100.</C>
  <term_criteria><epsilon>1.1920928955078125e-07</epsilon>
    <iterations>1000</iterations></term_criteria>
  <var_count>8</var_count>
  <class_count>2</class_count>
  <class_labels type_id="opencv-matrix">
    <rows>2</rows>
    <cols>1</cols>
    <dt>i</dt>
    <data>
      0 1</data></class_labels>
  <class_weights type_id="opencv-matrix">
    <rows>2</rows>
    <cols>1</cols>
    <dt>d</dt>
    <data>
      9.6318493150684936e-01 3.6815068493150686e-02</data></class_weights>
  <sv_total>168</sv_total>
  <support_vectors>
    <_>
      1.03707069e+02 5.70735703e+01 1.41336288e+02 1.03318680e+02
      1.40765869e+02 1.16014206e+02 1.25268867e+02 8.84622650e+01</_>
    <_>
      5.70370674e+01 3.51105003e+01 7.34426727e+01 3.14824829e+01
      5.09593582e+01 5.06361694e+01 6.62113037e+01 3.73397903e+01</_>
    <_>
      4.61081429e+01 3.04170361e+01 6.08731995e+01 3.41895409e+01
      6.55953064e+01 5.00036774e+01 4.91673660e+01 2.57105255e+01</_>
    <_>
      2.58923721e+01 5.65635338e+01 1.07139374e+02 1.08537720e+02
      1.19449730e+02 1.04666473e+02 1.10938263e+02 1.05547287e+02</_>
    <_>
      5.85662422e+01 1.46372650e+02 8.76222000e+01 1.97723145e+02
      1.39298325e+02 1.23373276e+02 8.75007935e+01 1.98964462e+02</_>
    <_>
      1.19034782e+02 1.66571640e+02 1.56492584e+02 1.79926086e+02
      1.96206894e+02 1.65466110e+02 1.52859070e+02 1.64875366e+02</_>
    <_>
      5.03890152e+01 9.42094040e+01 2.97939205e+01 1.57014633e+02
      1.13084511e+02 6.53278351e+01 6.93183613e+00 1.07903824e+02</_>
    <_>
      1.29958847e+02 1.25298752e+02 1.48163437e+02 1.74130737e+02
      1.48126144e+02 1.51997955e+02 1.41352524e+02 1.89649658e+02</_>
    <_>
      1.32493866e+02 5.02683983e+01 1.93384766e+02 1.35147598e+02
      1.97637833e+02 1.56945770e+02 1.95058319e+02 1.30993652e+02</_>
    <_>
      2.22579300e+02 2.36618805e+02 2.29855621e+02 2.38121704e+02
      2.36098831e+02 2.28892624e+02 2.30388626e+02 2.32495239e+02</_>
    <_>
      4.16298409e+01 2.93683949e+01 7.26597824e+01 1.11461731e+02
      1.54517639e+02 9.60790100e+01 7.55180054e+01 1.72940567e+02</_>
    <_>
      1.07566048e+02 1.84906570e+02 1.54909271e+02 1.74973495e+02
      1.72273254e+02 1.24593170e+02 1.02046692e+02 1.50150131e+02</_>
    <_>
      9.36003036e+01 5.53091240e+01 1.25916061e+02 8.63551178e+01
      1.37667877e+02 8.97056961e+01 1.07339478e+02 6.81157761e+01</_>
    <_>
      8.56630554e+01 8.42966003e+01 1.06900925e+02 1.03221916e+02
      1.13451134e+02 8.91768646e+01 1.11229965e+02 1.00470413e+02</_>
    <_>
      1.06635849e+02 1.19202843e+02 1.37816833e+02 1.48697647e+02
      1.40496964e+02 1.22192383e+02 1.30721405e+02 1.38920334e+02</_>
    <_>
      1.52803757e+02 1.30525452e+02 2.14320831e+02 1.69261673e+02
      1.65443665e+02 1.42343384e+02 1.36494202e+02 1.57547119e+02</_>
    <_>
      1.00623962e+02 1.26531387e+02 1.38094147e+02 1.52734894e+02
      1.58411377e+02 1.41718475e+02 1.27478111e+02 1.63304642e+02</_>
    <_>
      9.67429886e+01 7.75396576e+01 1.00052261e+02 8.51671982e+01
      1.04966370e+02 9.39844894e+01 9.56305618e+01 7.97665100e+01</_>
    <_>
      1.72463627e+01 1.97014637e+01 2.97499580e+01 4.37138214e+01
      5.19322205e+01 1.19801636e+01 1.20930119e+01 1.10284433e+01</_>
    <_>
      1.27797348e+02 1.12273155e+02 1.87472015e+02 1.68377045e+02
      2.10229584e+02 1.76212463e+02 1.73109604e+02 1.93602066e+02</_>
    <_>
      6.23271294e+01 7.66670914e+01 9.46339188e+01 1.19426170e+02
      1.47885178e+02 9.69488831e+01 6.84100266e+01 7.31056824e+01</_>
    <_>
      9.62368622e+01 1.02922997e+02 1.33671127e+02 1.29197922e+02
      1.57981857e+02 1.22444954e+02 1.76637878e+02 1.85556335e+02</_>
    <_>
      1.10773697e+02 9.46448135e+01 1.73685028e+02 1.76881989e+02
      1.87282242e+02 1.67342545e+02 1.92029907e+02 1.76690475e+02</_>
    <_>
      5.39160881e+01 9.15046310e+01 1.48850662e+02 2.03227448e+02
      2.09781891e+02 1.92672974e+02 1.92482132e+02 2.27808578e+02</_>
    <_>
      1.26098015e+02 6.20741997e+01 1.68470825e+02 1.07922684e+02
      1.64372253e+02 1.20345566e+02 1.65402710e+02 1.31041290e+02</_>
    <_>
      1.58841553e+02 1.46392105e+02 1.86456863e+02 1.68459717e+02
      1.92333923e+02 1.45368042e+02 1.73564743e+02 1.60060654e+02</_>
    <_>
      4.29033585e+01 5.23738937e+01 6.57764053e+01 8.37538910e+01
      1.52914719e+02 6.72678757e+01 9.28013458e+01 7.53383484e+01</_>
    <_>
      1.52078430e+02 1.55207291e+02 1.35644730e+02 1.48720947e+02
      1.56693588e+02 1.37684982e+02 1.10860741e+02 1.15310646e+02</_>
    <_>
      9.06852951e+01 1.01087997e+02 7.65299530e+01 7.84567337e+01
      9.07874756e+01 8.43653564e+01 6.05946045e+01 6.80708160e+01</_>
    <_>
      1.23756035e+02 1.36596695e+02 1.75613846e+02 1.76488541e+02
      2.02183151e+02 1.82035522e+02 1.65718536e+02 1.69491882e+02</_>
    <_>
      2.98236523e+01 3.56514359e+01 3.69391823e+01 4.56249123e+01
      5.03713570e+01 4.34132729e+01 3.74226379e+01 4.33583908e+01</_>
    <_>
      1.03077942e+02 1.12161201e+02 1.42919510e+02 1.52557053e+02
      1.49927872e+02 1.23951607e+02 1.29322083e+02 1.37291245e+02</_>
    <_>
      2.77777596e+01 3.61954384e+01 2.75927982e+01 4.57463112e+01
      3.37783928e+01 3.03143883e+01 2.57115726e+01 3.84148598e+01</_>
    <_>
      1.77831390e+02 1.53577332e+02 2.34429810e+02 2.08558044e+02
      2.35946930e+02 2.00285507e+02 2.12692978e+02 1.87638824e+02</_>
    <_>
      8.59131393e+01 1.09412193e+02 1.30811905e+02 1.48389023e+02
      1.61988464e+02 1.33818237e+02 1.44423737e+02 1.48367874e+02</_>
    <_>
      3.74145966e+01 8.18681641e+01 6.27291985e+01 1.64057663e+02
      1.33268997e+02 7.81452103e+01 5.91810951e+01 1.53989182e+02</_>
    <_>
      3.37840805e+01 1.04379166e+02 4.53049011e+01 1.38968689e+02
      9.04733658e+01 6.45206375e+01 4.60359116e+01 1.27844940e+02</_>
    <_>
      1.16949188e+02 4.19239044e+01 1.55481628e+02 3.93986626e+01
      1.39083725e+02 7.07692642e+01 1.31799866e+02 6.08020744e+01</_>
    <_>
      1.06479050e+02 1.26734467e+02 1.26012177e+02 1.66952988e+02
      1.53709061e+02 1.19385101e+02 1.31351776e+02 1.55174500e+02</_>
    <_>
      1.64114838e+02 1.62315781e+02 2.28687683e+02 2.21197830e+02
      2.41485489e+02 2.29331604e+02 2.42069717e+02 2.38198868e+02</_>
    <_>
      2.67755642e+01 3.24616699e+01 4.53892784e+01 5.51623077e+01
      4.21642952e+01 3.75724678e+01 4.30468140e+01 4.86974716e+01</_>
    <_>
      1.31090240e+02 1.62410980e+02 2.06599838e+02 1.87722549e+02
      2.10078796e+02 1.55500778e+02 2.04847687e+02 1.35565796e+02</_>
    <_>
      5.98419151e+01 4.97764816e+01 9.46422806e+01 7.35731354e+01
      1.31613190e+02 7.86835327e+01 9.30999527e+01 9.50328369e+01</_>
    <_>
      6.89916687e+01 9.56616974e+01 9.29560776e+01 1.23148514e+02
      1.44185577e+02 1.12356918e+02 5.69690247e+01 8.71449814e+01</_>
    <_>
      8.05475235e+01 1.32592773e+02 1.52008148e+02 1.85358398e+02
      1.91905762e+02 1.73568115e+02 1.51862656e+02 1.96951706e+02</_>
    <_>
      1.31758451e+01 5.10303421e+01 2.00909100e+01 7.26153412e+01
      6.44841690e+01 5.01323471e+01 1.64907284e+01 4.84937019e+01</_>
    <_>
      1.07633331e+02 4.44645309e+01 1.29998642e+02 1.05704506e+02
      1.39571899e+02 9.19410782e+01 1.21731468e+02 1.10863808e+02</_>
    <_>
      1.11017799e+02 1.50524643e+02 2.08892227e+02 1.76780289e+02
      1.94569229e+02 1.59199661e+02 1.75390106e+02 1.56814713e+02</_>
    <_>
      8.59116058e+01 137. 1.00512634e+02 1.97511002e+02 1.63264679e+02
      1.30519394e+02 1.03601433e+02 2.00302017e+02</_>
    <_>
      1.83242920e+02 1.53032059e+02 2.14022598e+02 1.70830704e+02
      1.85500000e+02 1.70217392e+02 1.64796326e+02 1.33945129e+02</_>
    <_>
      4.57650452e+01 1.08745979e+02 3.31905174e+01 1.45692917e+02
      7.45398331e+01 4.69351540e+01 4.37135658e+01 1.19758827e+02</_>
    <_>
      1.25163620e+02 7.45008621e+01 1.47783585e+02 1.28142120e+02
      1.62397369e+02 1.14068558e+02 1.49547943e+02 1.43537354e+02</_>
    <_>
      1.51998672e+02 1.50195389e+02 1.85762955e+02 1.77433853e+02
      2.00673431e+02 1.73797058e+02 1.62642700e+02 1.45068954e+02</_>
    <_>
      3.23617897e+01 3.61347809e+01 9.12732849e+01 1.03548286e+02
      1.42001175e+02 1.11476166e+02 1.22345367e+02 1.41213089e+02</_>
    <_>
      1.14983841e+02 1.11784782e+02 1.47161835e+02 1.64610779e+02
      1.66953354e+02 1.28046844e+02 1.76537491e+02 1.93751785e+02</_>
    <_>
      1.14310417e+02 1.26446274e+02 1.27801125e+02 1.38424408e+02
      1.53273590e+02 1.37483902e+02 1.43866699e+02 1.57835388e+02</_>
    <_>
      1.87248516e+01 3.49291649e+01 5.51478004e+01 5.11047974e+01
      9.25245895e+01 7.07550735e+01 8.85397797e+01 6.03253975e+01</_>
    <_>
      8.81651382e+01 1.24090912e+02 1.72809265e+02 1.69333450e+02
      1.98812714e+02 1.86099213e+02 1.72888184e+02 1.79919235e+02</_>
    <_>
      1.81323700e+02 1.67353516e+02 2.19560532e+02 1.96220230e+02
      2.33255005e+02 2.19076233e+02 2.21848312e+02 2.18897079e+02</_>
    <_>
      3.00416660e+01 3.65478973e+01 7.05644608e+01 8.34390564e+01
      1.48113693e+02 1.34664597e+02 9.19259567e+01 1.02372894e+02</_>
    <_>
      9.52126465e+01 5.85016708e+01 1.36513443e+02 8.71824493e+01
      1.40129089e+02 9.94484100e+01 1.15927589e+02 8.57645111e+01</_>
    <_>
      8.54266052e+01 1.61318237e+02 9.18795013e+01 1.86551971e+02
      1.36837418e+02 1.27997963e+02 8.56246185e+01 1.67826050e+02</_>
    <_>
      7.52981720e+01 1.75376755e+02 1.56960037e+02 2.10366821e+02
      2.31072037e+02 2.24442993e+02 2.11641342e+02 2.10167816e+02</_>
    <_>
      8.11110382e+01 7.03746948e+01 9.65875931e+01 1.05684105e+02
      1.51223251e+02 1.10589104e+02 1.09607430e+02 9.97991943e+01</_>
    <_>
      4.02700195e+01 3.34336586e+01 3.57792854e+01 5.48310013e+01
      3.80453682e+01 2.32577534e+01 3.29210167e+01 6.81311340e+01</_>
    <_>
      7.98012543e+01 7.66853790e+01 1.17422684e+02 1.32878159e+02
      1.37784393e+02 1.13478867e+02 1.19011124e+02 1.07775887e+02</_>
    <_>
      7.88984680e+01 1.50156387e+02 7.83639526e+01 1.51904800e+02
      1.23859917e+02 7.64112625e+01 7.02260513e+01 1.56605103e+02</_>
    <_>
      5.80247154e+01 1.13490082e+02 5.92413292e+01 7.81323624e+01
      1.00629082e+02 1.03431511e+02 7.21266785e+01 8.77278519e+01</_>
    <_>
      1.27831459e+02 9.35873108e+01 1.91470856e+02 1.50597504e+02
      1.94822403e+02 1.63733414e+02 1.83924606e+02 1.56318878e+02</_>
    <_>
      1.35414307e+02 1.26576385e+02 1.61944794e+02 1.89303284e+02
      1.48854034e+02 1.63113144e+02 1.41973816e+02 1.85067230e+02</_>
    <_>
      1.32598663e+02 1.34295700e+02 1.64265793e+02 1.62758484e+02
      1.90863068e+02 1.52746460e+02 1.55508987e+02 1.83627243e+02</_>
    <_>
      9.17786255e+01 1.22703568e+02 1.42119812e+02 1.60577057e+02
      1.63883133e+02 1.20071922e+02 1.27973312e+02 1.54292038e+02</_>
    <_>
      3.69632149e+01 6.69124451e+01 7.30838165e+01 1.06493843e+02
      1.35325470e+02 8.78426056e+01 7.44740601e+01 6.96931839e+01</_>
    <_>
      7.66288681e+01 1.14514511e+02 1.50726913e+02 1.76309357e+02
      1.87334595e+02 1.53780853e+02 1.72916977e+02 1.85341064e+02</_>
    <_>
      1.20467583e+02 7.79078064e+01 1.69816971e+02 1.23682816e+02
      1.53303055e+02 1.07830055e+02 1.49463303e+02 1.58331482e+02</_>
    <_>
      3.29540367e+01 5.84049530e+01 9.61215210e+01 1.26743034e+02
      1.29683929e+02 8.31964569e+01 1.11237846e+02 1.69333481e+02</_>
    <_>
      1.48306763e+02 1.25882591e+02 2.00626602e+02 1.81223419e+02
      1.84737778e+02 1.61265823e+02 1.78145905e+02 1.76996185e+02</_>
    <_>
      2.84256897e+01 3.56318398e+01 9.55129395e+01 1.06338493e+02
      1.52578735e+02 1.16565849e+02 1.21527412e+02 1.45356384e+02</_>
    <_>
      1.16644279e+02 4.96994553e+01 1.65602448e+02 7.30843506e+01
      1.56355698e+02 1.05753899e+02 1.55402451e+02 1.04746544e+02</_>
    <_>
      1.75352493e+02 1.48590240e+02 2.12402618e+02 1.68775467e+02
      1.82950256e+02 1.45409088e+02 1.86985535e+02 1.52815628e+02</_>
    <_>
      1.15836288e+02 1.62515518e+02 1.67800400e+02 1.72188019e+02
      1.31799103e+02 1.11750000e+02 1.25199593e+02 1.43929520e+02</_>
    <_>
      1.47963470e+02 1.30199905e+02 1.45480164e+02 1.30845825e+02
      1.28785126e+02 1.44372299e+02 1.18694588e+02 1.36542725e+02</_>
    <_>
      9.66255722e+01 7.70761337e+01 9.31995010e+01 1.00383202e+02
      1.01304840e+02 9.68116379e+01 9.27050629e+01 6.93207932e+01</_>
    <_>
      1.34125824e+02 5.24698448e+01 1.59880737e+02 8.03660126e+01
      1.51981018e+02 1.02297997e+02 1.64287704e+02 9.17662201e+01</_>
    <_>
      1.51418442e+02 9.25186691e+01 1.80743851e+02 1.60945343e+02
      1.73956635e+02 1.28306366e+02 1.49104065e+02 1.52342957e+02</_>
    <_>
      1.12481804e+02 1.19383110e+02 1.62376083e+02 1.60518814e+02
      1.80518066e+02 1.55539719e+02 1.45945297e+02 1.67959122e+02</_>
    <_>
      5.40576744e+01 9.94645996e+01 1.10173454e+02 1.33527527e+02
      1.18434601e+02 9.54552994e+01 1.16398491e+02 1.00664467e+02</_>
    <_>
      1.23015518e+02 1.02412910e+02 1.41260925e+02 1.60867172e+02
      1.44277115e+02 1.51717911e+02 1.53944672e+02 1.77104568e+02</_>
    <_>
      9.33519516e+01 1.09722466e+02 1.03748428e+02 1.30997833e+02
      1.03714287e+02 7.29810410e+01 6.57581558e+01 8.54329987e+01</_>
    <_>
      9.17447357e+01 7.33626633e+01 1.52531555e+02 1.38351730e+02
      1.85854904e+02 1.60024796e+02 2.09185715e+02 2.06685455e+02</_>
    <_>
      9.46118393e+01 1.18626724e+02 1.19852821e+02 1.53110474e+02
      1.44340836e+02 1.25501602e+02 1.31971848e+02 1.58596695e+02</_>
    <_>
      8.32865143e+01 1.28497818e+02 1.37868469e+02 1.73438568e+02
      1.42225098e+02 1.31393311e+02 1.32092377e+02 1.61549774e+02</_>
    <_>
      1.37563019e+02 1.55029602e+02 1.76865219e+02 1.68433014e+02
      1.92734024e+02 1.47765732e+02 1.59338821e+02 1.47052368e+02</_>
    <_>
      1.45383591e+02 1.07176468e+02 1.83031815e+02 1.70764252e+02
      1.97118210e+02 1.80327301e+02 1.62362885e+02 1.50423553e+02</_>
    <_>
      7.35405960e+01 4.83621445e+01 1.12667282e+02 8.44156265e+01
      1.29209503e+02 8.95657272e+01 1.09541908e+02 8.28619080e+01</_>
    <_>
      4.05964127e+01 6.96961670e+01 5.70914536e+01 1.39941483e+02
      1.09861053e+02 6.90611649e+01 6.43324890e+01 1.32223892e+02</_>
    <_>
      6.38753624e+01 1.50183670e+02 1.55202469e+02 2.02449799e+02
      1.63824020e+02 1.12466881e+02 1.14793556e+02 1.60213364e+02</_>
    <_>
      1.47100891e+02 1.68049713e+02 1.53905090e+02 1.65476883e+02
      1.73703949e+02 1.60130798e+02 1.29812958e+02 1.50901260e+02</_>
    <_>
      4.52890635e+00 3.24874535e+01 6.15402336e+01 1.28624496e+02
      1.52859009e+02 1.38476654e+02 1.10054176e+02 1.79018051e+02</_>
    <_>
      1.22380737e+02 1.19007408e+02 1.42296967e+02 1.47923233e+02
      1.50493652e+02 1.24880829e+02 1.28853302e+02 1.34369598e+02</_>
    <_>
      1.03881943e+02 8.00169220e+01 1.18795120e+02 7.77161179e+01
      1.14251274e+02 9.92646255e+01 1.13123161e+02 7.75722733e+01</_>
    <_>
      3.53549805e+01 1.11631287e+02 5.46862564e+01 1.59604141e+02
      1.14344124e+02 1.23033440e+02 6.33893929e+01 1.51687622e+02</_>
    <_>
      1.09218201e+02 3.96144638e+01 1.56368484e+02 5.03561935e+01
      1.38803787e+02 1.13170013e+02 1.66230453e+02 8.10586014e+01</_>
    <_>
      1.21994164e+02 6.75098953e+01 1.84954208e+02 1.46159805e+02
      1.94362747e+02 1.47229416e+02 1.91279205e+02 1.39420120e+02</_>
    <_>
      8.65654144e+01 7.48553162e+01 1.37106781e+02 1.05648682e+02
      1.36053879e+02 1.23001923e+02 1.23923279e+02 7.73396988e+01</_>
    <_>
      1.29510071e+02 1.79324310e+02 2.01258789e+02 2.01467453e+02
      2.19047012e+02 1.97626938e+02 1.94206955e+02 1.87372086e+02</_>
    <_>
      1.12159149e+02 1.06567749e+02 1.37786102e+02 1.22580994e+02
      1.57180542e+02 1.23079086e+02 6.92589035e+01 6.03437195e+01</_>
    <_>
      1.04878342e+02 1.54659744e+02 1.70728882e+02 1.74937683e+02
      1.84708923e+02 1.55378815e+02 1.55583328e+02 1.76598206e+02</_>
    <_>
      2.75161877e+01 7.47508698e+01 3.37791405e+01 1.71786545e+02
      1.53523422e+02 7.41071243e+01 3.16201859e+01 1.39469650e+02</_>
    <_>
      1.15492134e+02 1.23026405e+02 1.34020782e+02 1.41773010e+02
      1.57296753e+02 1.30745667e+02 1.29816772e+02 1.28567734e+02</_>
    <_>
      4.33789215e+01 8.71428909e+01 6.00856514e+01 1.61914154e+02
      1.28169022e+02 1.09662704e+02 7.67452316e+01 1.68180389e+02</_>
    <_>
      8.77652359e+01 5.56580315e+01 1.17258240e+02 9.09438553e+01
      1.56562637e+02 8.34779510e+01 7.84015656e+01 5.95162048e+01</_>
    <_>
      1.15974518e+02 5.93908463e+01 1.47015106e+02 8.56834106e+01
      1.41051483e+02 1.16517632e+02 1.33975647e+02 1.02086388e+02</_>
    <_>
      1.71800293e+02 1.21940895e+02 1.88241684e+02 1.37168350e+02
      1.86938553e+02 1.60498169e+02 1.51587494e+02 1.69073792e+02</_>
    <_>
      1.05799355e+02 1.00351097e+02 1.89879959e+02 1.97186981e+02
      2.07144897e+02 1.69431564e+02 1.86445343e+02 2.02273666e+02</_>
    <_>
      1.47835464e+02 1.10397766e+02 1.90669846e+02 1.55801376e+02
      1.85030548e+02 1.40308151e+02 1.49207809e+02 1.25326904e+02</_>
    <_>
      7.36411057e+01 1.33687622e+02 9.51957092e+01 1.90405594e+02
      1.37830429e+02 1.24497368e+02 1.11940437e+02 1.92235916e+02</_>
    <_>
      1.28615570e+02 1.12836151e+02 1.61360138e+02 1.69721710e+02
      2.08349884e+02 1.65837402e+02 1.71485626e+02 1.92681259e+02</_>
    <_>
      5.85597610e+01 9.01968460e+01 8.46217346e+01 1.65793503e+02
      1.34864227e+02 1.04310081e+02 9.27640610e+01 1.81256500e+02</_>
    <_>
      6.08592148e+01 5.51911316e+01 9.08719482e+01 1.06108894e+02
      1.40812637e+02 9.59775314e+01 1.09294434e+02 1.37937790e+02</_>
    <_>
      1.09569138e+02 1.29704941e+02 1.34548309e+02 1.65250702e+02
      1.52796051e+02 1.36796814e+02 1.40167587e+02 1.58778748e+02</_>
    <_>
      4.88353424e+01 6.72971573e+01 1.05177528e+02 1.08775185e+02
      1.32938461e+02 9.21275864e+01 1.07386993e+02 9.73571396e+01</_>
    <_>
      1.85072632e+02 1.45678513e+02 2.25548080e+02 1.99096893e+02
      2.28208466e+02 1.97631332e+02 2.11544479e+02 1.79603470e+02</_>
    <_>
      4.93690758e+01 1.18573540e+02 6.95514832e+01 1.47606781e+02
      1.23999771e+02 1.09611504e+02 6.24041252e+01 1.17524895e+02</_>
    <_>
      1.38162354e+02 1.42819962e+02 1.76227982e+02 1.57387207e+02
      1.94518661e+02 1.77746582e+02 1.60648087e+02 1.76327271e+02</_>
    <_>
      1.19884033e+02 1.30043472e+02 1.71920532e+02 1.77097031e+02
      2.04929062e+02 1.66263062e+02 1.58711960e+02 1.72746262e+02</_>
    <_>
      1.02029625e+02 6.67708359e+01 1.15329643e+02 1.06575493e+02
      1.42501022e+02 9.97588043e+01 9.84816513e+01 9.20800629e+01</_>
    <_>
      5.56623001e+01 2.01882553e+01 8.55888138e+01 1.74082012e+01
      7.46012650e+01 5.38810387e+01 9.04081497e+01 1.84408092e+01</_>
    <_>
      8.61088715e+01 1.14893272e+02 1.03905594e+02 1.73703568e+02
      1.78779388e+02 1.24671715e+02 1.18590752e+02 1.91397568e+02</_>
    <_>
      9.86732941e+01 6.18350830e+01 1.80452484e+02 1.33708313e+02
      1.53831619e+02 1.48081329e+02 1.73855331e+02 1.26453957e+02</_>
    <_>
      1.10894951e+02 1.30782303e+02 1.38110138e+02 1.40432587e+02
      1.40558243e+02 1.33513519e+02 1.37536209e+02 1.34932831e+02</_>
    <_>
      2.26118103e+02 2.11909225e+02 2.35749680e+02 2.27381546e+02
      2.33718231e+02 2.17299286e+02 2.34560654e+02 2.33785889e+02</_>
    <_>
      1.32941696e+02 1.65914139e+02 1.46081131e+02 1.75966278e+02
      1.60969193e+02 1.40461838e+02 1.10334312e+02 1.76482117e+02</_>
    <_>
      8.22618332e+01 1.31853928e+02 1.17997665e+02 1.61870590e+02
      1.49286133e+02 1.10828445e+02 1.19255638e+02 1.56905914e+02</_>
    <_>
      1.24074287e+02 3.43374100e+01 1.87252274e+02 1.05899635e+02
      1.94709427e+02 1.46898636e+02 1.90464996e+02 1.15154076e+02</_>
    <_>
      1.09032677e+02 1.23948418e+02 1.29323792e+02 1.70978088e+02
      1.55826355e+02 1.10012466e+02 1.21583130e+02 1.57704102e+02</_>
    <_>
      6.87047501e+01 8.49385071e+01 1.29894424e+02 1.43705765e+02
      1.56019791e+02 1.31987793e+02 1.71979889e+02 1.77593948e+02</_>
    <_>
      4.71759377e+01 3.97440262e+01 9.78082657e+01 3.13203983e+01
      8.52167664e+01 8.63585434e+01 5.30178185e+01 2.56255436e+01</_>
    <_>
      1.06635849e+02 1.19202843e+02 1.37816833e+02 1.48697647e+02
      1.40496964e+02 1.22192383e+02 1.30721405e+02 1.38920334e+02</_>
    <_>
      1.10535713e+02 7.08333359e+01 1.62341293e+02 1.03936958e+02
      1.37100220e+02 1.07976151e+02 1.59317169e+02 1.28103348e+02</_>
    <_>
      8.56420593e+01 1.02921097e+02 1.39064850e+02 1.80527924e+02
      1.83533691e+02 1.59018143e+02 1.52322525e+02 1.76452805e+02</_>
    <_>
      4.61856384e+01 5.21739311e+01 1.21620522e+02 1.24594894e+02
      1.61867340e+02 7.42398758e+01 8.59747543e+01 6.87825851e+01</_>
    <_>
      6.10799713e+01 3.88485374e+01 9.97233200e+01 6.20637169e+01
      1.36080032e+02 6.19002914e+01 1.07854218e+02 1.11035713e+02</_>
    <_>
      1.24668098e+02 1.21041832e+02 1.68029922e+02 1.67087769e+02
      1.98813309e+02 1.73618851e+02 1.80333191e+02 1.92669098e+02</_>
    <_>
      9.14912643e+01 1.11155121e+02 1.41720947e+02 1.71597488e+02
      1.48765625e+02 1.32079834e+02 9.78737869e+01 1.29794403e+02</_>
    <_>
      1.46779068e+02 4.30696754e+01 2.08638443e+02 6.01883316e+01
      1.57281860e+02 8.95059814e+01 1.65929504e+02 4.60127335e+01</_>
    <_>
      1.04983215e+02 1.23609596e+02 1.39263931e+02 1.43293030e+02
      1.57550674e+02 1.26439323e+02 1.50215286e+02 1.64395248e+02</_>
    <_>
      1.04077858e+02 3.62849541e+01 1.60443344e+02 4.85740166e+01
      1.47536957e+02 6.40918732e+01 1.32186981e+02 5.32946510e+01</_>
    <_>
      5.67652016e+01 4.90897636e+01 6.26616898e+01 5.37332878e+01
      5.37292938e+01 3.86879311e+01 4.74508018e+01 3.65679665e+01</_>
    <_>
      5.62347603e+01 4.98559685e+01 1.70312225e+02 1.40907288e+02
      1.42236786e+02 1.34114792e+02 1.19531204e+02 1.05483406e+02</_>
    <_>
      5.38672676e+01 7.80921326e+01 7.56757889e+01 1.06623123e+02
      1.57344528e+02 6.69470901e+01 6.26217308e+01 8.99014511e+01</_>
    <_>
      2.61163177e+01 2.62152462e+01 1.11882874e+02 1.01268349e+02
      1.08541687e+02 8.67083817e+01 1.07457298e+02 9.54798203e+01</_>
    <_>
      1.43416428e+02 1.13563194e+02 1.82137909e+02 1.68889999e+02
      1.87647263e+02 1.49268829e+02 1.65110397e+02 1.84331436e+02</_>
    <_>
      7.44959335e+01 1.44318161e+02 1.15429863e+02 2.02038925e+02
      2.00012070e+02 1.85753357e+02 1.50063110e+02 2.19268738e+02</_>
    <_>
      1.61421097e+02 1.08744499e+02 1.87648834e+02 1.60705551e+02
      2.18457001e+02 1.80818192e+02 1.55394852e+02 1.74120224e+02</_>
    <_>
      1.15339340e+02 6.26518860e+01 1.45792038e+02 1.21616463e+02
      1.53017593e+02 1.13068703e+02 1.42268692e+02 9.27597580e+01</_>
    <_>
      1.09228333e+02 1.22295876e+02 1.58390244e+02 1.35001511e+02
      1.63603806e+02 1.37819427e+02 1.17432594e+02 1.46219116e+02</_>
    <_>
      1.28138855e+02 1.27530273e+02 1.52582397e+02 1.59057541e+02
      1.51353745e+02 1.39484146e+02 1.32965668e+02 1.41458694e+02</_>
    <_>
      8.58036575e+01 1.17267723e+02 1.26352585e+02 1.45094559e+02
      1.57241501e+02 1.29198837e+02 1.30729523e+02 1.49063690e+02</_>
    <_>
      1.19790466e+02 1.82446640e+02 1.42398468e+02 1.97501633e+02
      2.02574356e+02 1.40349716e+02 9.99646378e+01 1.28302673e+02</_>
    <_>
      1.40609360e+02 1.48552246e+02 1.71455307e+02 1.80282333e+02
      1.59958557e+02 1.10296761e+02 1.26471878e+02 1.44228180e+02</_>
    <_>
      9.45920715e+01 8.30768509e+01 1.59368820e+02 1.77315628e+02
      1.76607849e+02 1.60146591e+02 1.39494202e+02 1.68356232e+02</_>
    <_>
      7.45600281e+01 8.69824677e+01 9.99844666e+01 1.29467636e+02
      1.30867554e+02 9.52669296e+01 4.95030174e+01 1.51117935e+02</_>
    <_>
      9.96095581e+01 1.00053459e+02 1.40888657e+02 1.43369614e+02
      1.42162231e+02 1.18811493e+02 1.57180267e+02 1.55011368e+02</_>
    <_>
      1.42554611e+02 1.21799957e+02 2.05947586e+02 2.13879639e+02
      2.40293381e+02 2.19459427e+02 2.01387482e+02 2.28707626e+02</_>
    <_>
      3.37089767e+01 1.42565323e+02 6.94944687e+01 2.03078232e+02
      1.31324478e+02 1.06731926e+02 7.09663391e+01 1.85861526e+02</_>
    <_>
      1.39331100e+02 1.84681061e+02 2.09089142e+02 2.21722809e+02
      2.20668304e+02 1.91902267e+02 1.96532669e+02 2.15369843e+02</_>
    <_>
      1.35046036e+02 5.78089561e+01 1.97258957e+02 1.15825356e+02
      1.97933105e+02 1.42940079e+02 1.93384430e+02 1.30642929e+02</_></support_vectors>
  <decision_functions>
    <_>
      <sv_count>168</sv_count>
      <rho>-9.3146274973939547e-01</rho>
      <alpha>
        1.1459435090142802e+00 6.9405858720857694e-01
        1.7095974500363227e+00 6.9438594023104719e-02
        7.6899503775800437e-01 8.8435121192042465e-01
        3.0297764066474088e-02 3.5298078677325391e+00
        1.1130102303702551e+00 3.7594062132944372e-01
        3.7901044396337247e-01 2.3932909930799592e-01
        2.9119611830321728e+00 2.9352460544849746e-01
        8.1273242106143606e-01 5.5357568561322812e-01
        4.7707347830435765e-01 1.3346977346194282e+00
        1.6448156767424016e+00 2.3976061770758479e+00
        2.2519770451339585e+00 5.7183751642569269e-01
        1.7180696756060243e+00 8.2660546430846282e-01
        4.5433178062657742e-01 6.1669563764313429e-01
        5.4126520980389410e+00 1.4665765155663493e-01
        2.2052864932631397e-01 1.3144050169123342e+00
        6.3700445283605445e-01 4.5610838951399330e-01
        2.5765720158427946e-01 1.7822593391068158e+00
        1.2651409041322357e+00 8.0637588465087207e-01
        6.0935736695023002e-01 1.2772311854855467e+00
        1.8011886274264577e+00 5.0299144791904027e-01
        8.4358748238905948e-02 6.8356654294399166e-01
        1.2450818538457524e+00 5.5357789095269416e-01
        3.3288429929656624e+00 8.6214345292418182e-01
        1.1058973544946089e+00 2.7720662486318493e-01
        4.1245977447883669e-01 1.9576725028752906e+00
        1.0295502164318615e+00 1.8860769257893006e+00
        4.8415501845746847e-02 7.4387205113791832e-01
        1.9301763531947154e+00 1.1545896980881150e+00
        2.2510024285240810e-02 2.3662960099476664e+00
        2.6414901643129651e-02 2.4891701909472999e+00
        6.8182934037885712e-01 3.1551100748077843e-01
        4.8248977938220987e+00 8.4948082462878799e-02
        2.0199915667461343e-01 2.0565277143757732e+00
        4.1497524297593225e-01 2.7329250212041578e-01
        4.3830188145196597e-01 1.0530580323419731e+00
        3.4232429639421511e+00 3.1139064992694516e+00
        3.7298571638696643e-01 1.4841426035208178e+00
        1.1725633138441555e-01 8.0552120986210340e-01
        2.7057425317147397e+00 1.5696845006261972e-01
        1.6220208747019373e+00 2.8651676550450231e-02
        1.6615494514961024e-01 1.1562904698388556e+00
        1.7389823185283724e+00 2.5013257752001130e+00
        2.0098175685261226e+00 5.9149608944747434e-01
        1.1546570293657284e-01 2.5116684874622996e-01
        2.3586034773325892e-01 2.7424111605243628e+00
        6.7520497755141268e-02 1.7455423455951696e-01
        1.3107113556431658e+00 4.3051811519069982e+00
        2.4321854774587632e+00 6.2875760188845520e-01
        1.4437092502706976e+00 1.0298998478666024e-02
        4.6933540248312994e-01 1.0815236377268040e+00
        1.6186315720554414e-01 7.5106999392620821e-01
        1.1480843935213734e+00 3.6601089679031745e-01
        1.0820633044875150e-01 1.1423004057655228e+00
        3.6013961916213422e-01 7.3601687544392697e-02
        2.5784860758408756e+00 2.7874100798209227e+00
        7.9045280909169353e+00 5.2446908764470246e-01
        2.0563102320310356e+00 3.0977932826262322e-01
        4.4554455110403118e-01 1.1930739206017196e+00
        3.0952368342665559e-01 9.7286233247055032e-01
        9.7323620811127509e-01 3.2097362409250907e-01
        1.0149389707406797e+00 1.7583901768865502e+00
        1.7517197780304123e+00 4.3197984559931353e-02
        1.4752825427452843e+00 1.5476055991524726e+00
        1.8453885898687747e+00 -3.6815068493150687e+00
        -3.6815068493150687e+00 -3.6815068493150687e+00
        -3.6815068493150687e+00 -3.6815068493150687e+00
        -3.6815068493150687e+00 -3.6815068493150687e+00
        -3.6815068493150687e+00 -3.6815068493150687e+00
        -3.6815068493150687e+00 -3.6815068493150687e+00
        -3.6815068493150687e+00 -3.6815068493150687e+00
        -3.6815068493150687e+00 -3.6815068493150687e+00
        -3.6815068493150687e+00 -3.6815068493150687e+00
        -3.6815068493150687e+00 -3.6815068493150687e+00
        -3.6815068493150687e+00 -3.6815068493150687e+00
        -3.6815068493150687e+00 -7.7497414005856124e-01
        -3.6815068493150687e+00 -3.6815068493150687e+00
        -3.6815068493150687e+00 -3.6815068493150687e+00
        -3.6815068493150687e+00 -3.6815068493150687e+00
        -3.6815068493150687e+00 -3.6815068493150687e+00
        -3.6815068493150687e+00 -3.6815068493150687e+00
        -3.6815068493150687e+00 -3.6815068493150687e+00
        -3.6815068493150687e+00 -3.6815068493150687e+00
        -3.6815068493150687e+00 -3.6815068493150687e+00
        -3.6815068493150687e+00 -3.6815068493150687e+00</alpha>
      <index>
        167 166 165 41 42 43 44 45 46 47 48 49 50 51 52 53 54 55 56 57
        58 59 60 61 62 63 64 65 66 67 68 69 70 71 72 73 74 75 76 77 78
        79 80 81 82 83 84 85 86 87 88 89 90 91 92 93 94 95 96 97 98 99
        100 101 102 103 104 105 106 107 108 109 110 111 112 113 114 115
        116 117 118 119 120 121 122 123 124 125 126 127 128 129 130 131
        132 133 134 135 136 137 138 139 140 141 142 143 144 145 146 147
        148 149 150 151 152 153 154 155 156 157 158 159 160 161 162 163
        164 40 39 38 37 36 35 34 33 32 31 30 29 28 27 26 25 24 23 22 21
        20 19 18 17 16 15 14 13 12 11 10 9 8 7 6 5 4 3 2 1 0</index></_></decision_functions></opencv_ml_svm>
</opencv_storage>
