<?xml version="1.0"?>
<opencv_storage>
<opencv_ml_svm>
  <format>3</format>
  <svmType>C_SVC</svmType>
  <kernel>
    <type>LINEAR</type></kernel>
  <C>1.0000000000000000e-02</C>
  <term_criteria><epsilon>1.1920928955078125e-07</epsilon>
    <iterations>1000</iterations></term_criteria>
  <var_count>8</var_count>
  <class_count>2</class_count>
  <class_labels type_id="opencv-matrix">
    <rows>2</rows>
    <cols>1</cols>
    <dt>i</dt>
    <data>
      0 1</data></class_labels>
  <class_weights type_id="opencv-matrix">
    <rows>2</rows>
    <cols>1</cols>
    <dt>d</dt>
    <data>
      9.6318493150684936e-01 3.6815068493150686e-02</data></class_weights>
  <sv_total>1</sv_total>
  <support_vectors>
    <_>
      -1.80635098e-07 1.42844119e-08 8.10704705e-07 -4.40122136e-07
      -1.24173397e-07 5.30810496e-07 1.51411155e-06 1.88074310e-07</_></support_vectors>
  <uncompressed_sv_total>110</uncompressed_sv_total>
  <uncompressed_support_vectors>
    <_>
      1.03707069e+02 5.70735703e+01 1.41336288e+02 1.03318680e+02
      1.40765869e+02 1.16014206e+02 1.25268867e+02 8.84622650e+01</_>
    <_>
      5.70370674e+01 3.51105003e+01 7.34426727e+01 3.14824829e+01
      5.09593582e+01 5.06361694e+01 6.62113037e+01 3.73397903e+01</_>
    <_>
      4.61081429e+01 3.04170361e+01 6.08731995e+01 3.41895409e+01
      6.55953064e+01 5.00036774e+01 4.91673660e+01 2.57105255e+01</_>
    <_>
      2.58923721e+01 5.65635338e+01 1.07139374e+02 1.08537720e+02
      1.19449730e+02 1.04666473e+02 1.10938263e+02 1.05547287e+02</_>
    <_>
      5.85662422e+01 1.46372650e+02 8.76222000e+01 1.97723145e+02
      1.39298325e+02 1.23373276e+02 8.75007935e+01 1.98964462e+02</_>
    <_>
      1.94976616e+01 2.28781948e+01 2.03512707e+01 2.45584888e+01
      2.70016441e+01 1.97717876e+01 1.78703747e+01 2.48097210e+01</_>
    <_>
      1.19034782e+02 1.66571640e+02 1.56492584e+02 1.79926086e+02
      1.96206894e+02 1.65466110e+02 1.52859070e+02 1.64875366e+02</_>
    <_>
      5.03890152e+01 9.42094040e+01 2.97939205e+01 1.57014633e+02
      1.13084511e+02 6.53278351e+01 6.93183613e+00 1.07903824e+02</_>
    <_>
      1.29958847e+02 1.25298752e+02 1.48163437e+02 1.74130737e+02
      1.48126144e+02 1.51997955e+02 1.41352524e+02 1.89649658e+02</_>
    <_>
      1.32493866e+02 5.02683983e+01 1.93384766e+02 1.35147598e+02
      1.97637833e+02 1.56945770e+02 1.95058319e+02 1.30993652e+02</_>
    <_>
      2.22579300e+02 2.36618805e+02 2.29855621e+02 2.38121704e+02
      2.36098831e+02 2.28892624e+02 2.30388626e+02 2.32495239e+02</_>
    <_>
      4.16298409e+01 2.93683949e+01 7.26597824e+01 1.11461731e+02
      1.54517639e+02 9.60790100e+01 7.55180054e+01 1.72940567e+02</_>
    <_>
      1.07566048e+02 1.84906570e+02 1.54909271e+02 1.74973495e+02
      1.72273254e+02 1.24593170e+02 1.02046692e+02 1.50150131e+02</_>
    <_>
      9.36003036e+01 5.53091240e+01 1.25916061e+02 8.63551178e+01
      1.37667877e+02 8.97056961e+01 1.07339478e+02 6.81157761e+01</_>
    <_>
      8.56630554e+01 8.42966003e+01 1.06900925e+02 1.03221916e+02
      1.13451134e+02 8.91768646e+01 1.11229965e+02 1.00470413e+02</_>
    <_>
      1.06635849e+02 1.19202843e+02 1.37816833e+02 1.48697647e+02
      1.40496964e+02 1.22192383e+02 1.30721405e+02 1.38920334e+02</_>
    <_>
      1.52803757e+02 1.30525452e+02 2.14320831e+02 1.69261673e+02
      1.65443665e+02 1.42343384e+02 1.36494202e+02 1.57547119e+02</_>
    <_>
      1.00623962e+02 1.26531387e+02 1.38094147e+02 1.52734894e+02
      1.58411377e+02 1.41718475e+02 1.27478111e+02 1.63304642e+02</_>
    <_>
      9.67429886e+01 7.75396576e+01 1.00052261e+02 8.51671982e+01
      1.04966370e+02 9.39844894e+01 9.56305618e+01 7.97665100e+01</_>
    <_>
      1.72463627e+01 1.97014637e+01 2.97499580e+01 4.37138214e+01
      5.19322205e+01 1.19801636e+01 1.20930119e+01 1.10284433e+01</_>
    <_>
      1.27797348e+02 1.12273155e+02 1.87472015e+02 1.68377045e+02
      2.10229584e+02 1.76212463e+02 1.73109604e+02 1.93602066e+02</_>
    <_>
      6.23271294e+01 7.66670914e+01 9.46339188e+01 1.19426170e+02
      1.47885178e+02 9.69488831e+01 6.84100266e+01 7.31056824e+01</_>
    <_>
      9.62368622e+01 1.02922997e+02 1.33671127e+02 1.29197922e+02
      1.57981857e+02 1.22444954e+02 1.76637878e+02 1.85556335e+02</_>
    <_>
      1.94976616e+01 2.28781948e+01 2.03512707e+01 2.45584888e+01
      2.70016441e+01 1.97717876e+01 1.78703747e+01 2.48097210e+01</_>
    <_>
      1.10773697e+02 9.46448135e+01 1.73685028e+02 1.76881989e+02
      1.87282242e+02 1.67342545e+02 1.92029907e+02 1.76690475e+02</_>
    <_>
      5.39160881e+01 9.15046310e+01 1.48850662e+02 2.03227448e+02
      2.09781891e+02 1.92672974e+02 1.92482132e+02 2.27808578e+02</_>
    <_>
      1.26098015e+02 6.20741997e+01 1.68470825e+02 1.07922684e+02
      1.64372253e+02 1.20345566e+02 1.65402710e+02 1.31041290e+02</_>
    <_>
      1.58841553e+02 1.46392105e+02 1.86456863e+02 1.68459717e+02
      1.92333923e+02 1.45368042e+02 1.73564743e+02 1.60060654e+02</_>
    <_>
      4.29033585e+01 5.23738937e+01 6.57764053e+01 8.37538910e+01
      1.52914719e+02 6.72678757e+01 9.28013458e+01 7.53383484e+01</_>
    <_>
      1.52078430e+02 1.55207291e+02 1.35644730e+02 1.48720947e+02
      1.56693588e+02 1.37684982e+02 1.10860741e+02 1.15310646e+02</_>
    <_>
      9.06852951e+01 1.01087997e+02 7.65299530e+01 7.84567337e+01
      9.07874756e+01 8.43653564e+01 6.05946045e+01 6.80708160e+01</_>
    <_>
      1.23756035e+02 1.36596695e+02 1.75613846e+02 1.76488541e+02
      2.02183151e+02 1.82035522e+02 1.65718536e+02 1.69491882e+02</_>
    <_>
      2.98236523e+01 3.56514359e+01 3.69391823e+01 4.56249123e+01
      5.03713570e+01 4.34132729e+01 3.74226379e+01 4.33583908e+01</_>
    <_>
      1.03077942e+02 1.12161201e+02 1.42919510e+02 1.52557053e+02
      1.49927872e+02 1.23951607e+02 1.29322083e+02 1.37291245e+02</_>
    <_>
      2.77777596e+01 3.61954384e+01 2.75927982e+01 4.57463112e+01
      3.37783928e+01 3.03143883e+01 2.57115726e+01 3.84148598e+01</_>
    <_>
      1.77831390e+02 1.53577332e+02 2.34429810e+02 2.08558044e+02
      2.35946930e+02 2.00285507e+02 2.12692978e+02 1.87638824e+02</_>
    <_>
      8.59131393e+01 1.09412193e+02 1.30811905e+02 1.48389023e+02
      1.61988464e+02 1.33818237e+02 1.44423737e+02 1.48367874e+02</_>
    <_>
      3.74145966e+01 8.18681641e+01 6.27291985e+01 1.64057663e+02
      1.33268997e+02 7.81452103e+01 5.91810951e+01 1.53989182e+02</_>
    <_>
      3.37840805e+01 1.04379166e+02 4.53049011e+01 1.38968689e+02
      9.04733658e+01 6.45206375e+01 4.60359116e+01 1.27844940e+02</_>
    <_>
      1.16949188e+02 4.19239044e+01 1.55481628e+02 3.93986626e+01
      1.39083725e+02 7.07692642e+01 1.31799866e+02 6.08020744e+01</_>
    <_>
      1.06479050e+02 1.26734467e+02 1.26012177e+02 1.66952988e+02
      1.53709061e+02 1.19385101e+02 1.31351776e+02 1.55174500e+02</_>
    <_>
      1.64114838e+02 1.62315781e+02 2.28687683e+02 2.21197830e+02
      2.41485489e+02 2.29331604e+02 2.42069717e+02 2.38198868e+02</_>
    <_>
      2.67755642e+01 3.24616699e+01 4.53892784e+01 5.51623077e+01
      4.21642952e+01 3.75724678e+01 4.30468140e+01 4.86974716e+01</_>
    <_>
      1.37391037e+02 1.07204185e+02 1.60269196e+02 1.08969566e+02
      1.91424072e+02 1.43253738e+02 1.65246338e+02 1.34724197e+02</_>
    <_>
      1.31758451e+01 5.10303421e+01 2.00909100e+01 7.26153412e+01
      6.44841690e+01 5.01323471e+01 1.64907284e+01 4.84937019e+01</_>
    <_>
      4.04000168e+01 2.97489872e+01 9.96795502e+01 3.27485657e+01
      9.32478790e+01 6.55662842e+01 1.17461601e+02 4.00522957e+01</_>
    <_>
      2.45679413e+02 1.23594772e+02 2.41572586e+02 1.47150040e+02
      1.59306702e+02 1.94915924e+02 2.35312119e+02 1.71813278e+02</_>
    <_>
      5.82350464e+01 6.59195404e+01 9.29228668e+01 1.20618584e+02
      1.87921463e+02 1.12808090e+02 1.30188095e+02 1.32070251e+02</_>
    <_>
      1.87248516e+01 3.49291649e+01 5.51478004e+01 5.11047974e+01
      9.25245895e+01 7.07550735e+01 8.85397797e+01 6.03253975e+01</_>
    <_>
      1.81323700e+02 1.67353516e+02 2.19560532e+02 1.96220230e+02
      2.33255005e+02 2.19076233e+02 2.21848312e+02 2.18897079e+02</_>
    <_>
      3.00416660e+01 3.65478973e+01 7.05644608e+01 8.34390564e+01
      1.48113693e+02 1.34664597e+02 9.19259567e+01 1.02372894e+02</_>
    <_>
      7.52981720e+01 1.75376755e+02 1.56960037e+02 2.10366821e+02
      2.31072037e+02 2.24442993e+02 2.11641342e+02 2.10167816e+02</_>
    <_>
      1.22937851e+02 4.63883057e+01 1.34162857e+02 4.08284645e+01
      8.79747772e+01 6.32016792e+01 7.35575562e+01 3.96706848e+01</_>
    <_>
      4.02700195e+01 3.34336586e+01 3.57792854e+01 5.48310013e+01
      3.80453682e+01 2.32577534e+01 3.29210167e+01 6.81311340e+01</_>
    <_>
      4.12791939e+01 2.25593357e+01 8.15143585e+01 7.98467941e+01
      1.09873062e+02 8.26290207e+01 5.00499535e+01 5.98333321e+01</_>
    <_>
      6.74832458e+01 1.30304245e+02 1.31004822e+02 1.37399719e+02
      1.73843979e+02 1.14878357e+02 1.03596527e+02 1.63696915e+02</_>
    <_>
      1.82934647e+02 1.16784401e+02 1.76794022e+02 1.65197830e+02
      1.93927078e+02 1.51409790e+02 1.74078873e+02 1.34195709e+02</_>
    <_>
      1.12073509e+02 1.30846558e+02 1.92486221e+02 2.35580795e+02
      1.92829620e+02 1.76177643e+02 1.85007080e+02 2.16756989e+02</_>
    <_>
      3.28340950e+01 4.03906670e+01 5.32090263e+01 5.57423782e+01
      5.93041115e+01 3.85229721e+01 6.02112389e+01 6.15927467e+01</_>
    <_>
      1.89599670e+02 1.97779007e+02 1.84111542e+02 2.27449387e+02
      2.27574997e+02 2.14631851e+02 1.88427429e+02 2.18526077e+02</_>
    <_>
      9.75790863e+01 3.44819603e+01 1.54448593e+02 3.52570953e+01
      9.88705215e+01 9.76623611e+01 1.55070190e+02 4.71581726e+01</_>
    <_>
      5.61142082e+01 9.58314896e+01 7.98967438e+01 1.43769119e+02
      1.72645935e+02 9.77808838e+01 7.56356812e+01 1.56443512e+02</_>
    <_>
      1.56225119e+01 1.58289902e+02 1.95173092e+01 2.08663010e+02
      1.69819504e+02 1.11058365e+02 4.22229881e+01 1.93925308e+02</_>
    <_>
      6.86656570e+01 4.45837440e+01 1.73075012e+02 1.93444565e+02
      1.75738708e+02 1.33800568e+02 8.64259872e+01 1.54751419e+02</_>
    <_>
      4.52890635e+00 3.24874535e+01 6.15402336e+01 1.28624496e+02
      1.52859009e+02 1.38476654e+02 1.10054176e+02 1.79018051e+02</_>
    <_>
      5.12954216e+01 9.70759048e+01 1.75734619e+02 1.38239441e+02
      1.94410858e+02 1.57102249e+02 2.04058487e+02 1.69698914e+02</_>
    <_>
      6.19500008e+01 2.07756100e+01 9.28111267e+01 3.76475983e+01
      6.86622772e+01 2.84828262e+01 6.99851990e+01 4.09175415e+01</_>
    <_>
      2.16877258e+02 1.84430115e+02 2.17764954e+02 1.90491745e+02
      2.16147461e+02 2.12775726e+02 2.22497726e+02 2.26613815e+02</_>
    <_>
      9.17465897e+01 1.47366013e+02 2.12054520e+02 2.01250366e+02
      2.08027023e+02 1.77424561e+02 2.14900940e+02 2.01606369e+02</_>
    <_>
      1.41514435e+02 1.09247192e+02 1.63722763e+02 1.34121307e+02
      1.81202927e+02 1.77089233e+02 1.57703995e+02 1.89292862e+02</_>
    <_>
      9.59561234e+01 1.30119751e+02 1.36037857e+02 1.78624329e+02
      2.03557053e+02 8.90063095e+01 8.79482193e+01 1.38482452e+02</_>
    <_>
      1.12159149e+02 1.06567749e+02 1.37786102e+02 1.22580994e+02
      1.57180542e+02 1.23079086e+02 6.92589035e+01 6.03437195e+01</_>
    <_>
      5.72147560e+01 2.27457619e+01 9.61752853e+01 3.67467918e+01
      6.66063995e+01 2.85414009e+01 6.08734741e+01 4.83361855e+01</_>
    <_>
      2.75161877e+01 7.47508698e+01 3.37791405e+01 1.71786545e+02
      1.53523422e+02 7.41071243e+01 3.16201859e+01 1.39469650e+02</_>
    <_>
      1.27329277e+02 9.29812546e+01 1.66701279e+02 8.66386261e+01
      1.07047676e+02 1.37790817e+02 1.71703842e+02 9.84701614e+01</_>
    <_>
      1.71800293e+02 1.21940895e+02 1.88241684e+02 1.37168350e+02
      1.86938553e+02 1.60498169e+02 1.51587494e+02 1.69073792e+02</_>
    <_>
      1.30581680e+02 1.08650963e+02 1.95190857e+02 1.63502045e+02
      1.75983932e+02 9.40042953e+01 2.25454834e+02 1.95092651e+02</_>
    <_>
      1.65309235e+02 1.55596100e+02 1.92372025e+02 1.82319809e+02
      1.92347824e+02 1.40193527e+02 1.89746536e+02 1.80494110e+02</_>
    <_>
      1.02662720e+02 9.46593094e+01 1.32033447e+02 1.47611435e+02
      1.50009674e+02 7.18526993e+01 5.47720337e+01 6.08977661e+01</_>
    <_>
      7.98582993e+01 1.00794365e+02 1.60043076e+02 1.61515350e+02
      2.03655029e+02 9.22933273e+01 1.63098267e+02 1.68399994e+02</_>
    <_>
      1.83597321e+02 1.54274094e+02 1.76693390e+02 1.61850845e+02
      1.79082611e+02 1.65876602e+02 1.88901962e+02 1.56485825e+02</_>
    <_>
      5.87138901e+01 9.92221069e+01 1.09874893e+02 1.58196274e+02
      1.96903091e+02 1.26061554e+02 8.21831970e+01 1.70701035e+02</_>
    <_>
      3.91565781e+01 2.05607681e+01 1.39707962e+02 1.58729263e+02
      1.74345718e+02 1.52384186e+02 1.38816956e+02 1.70433380e+02</_>
    <_>
      1.43989517e+02 1.74877884e+02 2.03786423e+02 2.01996628e+02
      2.05073563e+02 1.85521851e+02 2.03775421e+02 1.95376709e+02</_>
    <_>
      1.42592102e+02 1.73541107e+02 1.68046799e+02 2.01239456e+02
      1.72357895e+02 1.47957489e+02 1.34427353e+02 1.57229034e+02</_>
    <_>
      3.24023895e+01 2.88750000e+01 1.69326416e+02 1.34280273e+02
      1.19172226e+02 1.05927338e+02 1.29173584e+02 1.65305222e+02</_>
    <_>
      1.85072632e+02 1.45678513e+02 2.25548080e+02 1.99096893e+02
      2.28208466e+02 1.97631332e+02 2.11544479e+02 1.79603470e+02</_>
    <_>
      6.99135971e+01 9.92454376e+01 1.94895660e+02 1.87997910e+02
      1.75584137e+02 1.37709564e+02 1.58184845e+02 1.49917389e+02</_>
    <_>
      5.56623001e+01 2.01882553e+01 8.55888138e+01 1.74082012e+01
      7.46012650e+01 5.38810387e+01 9.04081497e+01 1.84408092e+01</_>
    <_>
      1.09638138e+02 1.37566528e+02 1.86874527e+02 1.79929367e+02
      2.13236328e+02 1.53795975e+02 1.78246475e+02 1.88107315e+02</_>
    <_>
      2.26118103e+02 2.11909225e+02 2.35749680e+02 2.27381546e+02
      2.33718231e+02 2.17299286e+02 2.34560654e+02 2.33785889e+02</_>
    <_>
      1.24074287e+02 3.43374100e+01 1.87252274e+02 1.05899635e+02
      1.94709427e+02 1.46898636e+02 1.90464996e+02 1.15154076e+02</_>
    <_>
      2.40817356e+01 2.15930729e+01 1.41471436e+02 1.15254433e+02
      1.17116920e+02 1.11940323e+02 1.50999359e+02 1.59286026e+02</_>
    <_>
      1.37625519e+02 1.95904144e+02 1.33458649e+02 2.15566940e+02
      1.85118820e+02 1.31178680e+02 1.00165550e+02 1.73126266e+02</_>
    <_>
      4.71759377e+01 3.97440262e+01 9.78082657e+01 3.13203983e+01
      8.52167664e+01 8.63585434e+01 5.30178185e+01 2.56255436e+01</_>
    <_>
      4.61856384e+01 5.21739311e+01 1.21620522e+02 1.24594894e+02
      1.61867340e+02 7.42398758e+01 8.59747543e+01 6.87825851e+01</_>
    <_>
      6.10799713e+01 3.88485374e+01 9.97233200e+01 6.20637169e+01
      1.36080032e+02 6.19002914e+01 1.07854218e+02 1.11035713e+02</_>
    <_>
      7.98700104e+01 7.40620728e+01 1.50725677e+02 7.05846100e+01
      1.36561905e+02 8.54251404e+01 9.95357895e+01 1.09109695e+02</_>
    <_>
      1.46779068e+02 4.30696754e+01 2.08638443e+02 6.01883316e+01
      1.57281860e+02 8.95059814e+01 1.65929504e+02 4.60127335e+01</_>
    <_>
      1.02304344e+02 1.76692581e+02 1.87969391e+02 2.16181076e+02
      2.20548859e+02 1.98588150e+02 1.98655029e+02 2.24782669e+02</_>
    <_>
      1.61358948e+02 9.02487564e+01 1.53968781e+02 8.42721558e+01
      1.35380173e+02 8.57533340e+01 1.49125092e+02 5.45473671e+01</_>
    <_>
      4.22339363e+01 4.49947319e+01 6.28130569e+01 7.69118652e+01
      1.04669823e+02 6.03084106e+01 4.76262169e+01 5.83537750e+01</_>
    <_>
      1.04077858e+02 3.62849541e+01 1.60443344e+02 4.85740166e+01
      1.47536957e+02 6.40918732e+01 1.32186981e+02 5.32946510e+01</_>
    <_>
      5.67652016e+01 4.90897636e+01 6.26616898e+01 5.37332878e+01
      5.37292938e+01 3.86879311e+01 4.74508018e+01 3.65679665e+01</_>
    <_>
      9.01819763e+01 8.63047314e+00 1.43839142e+02 2.59860897e+01
      9.95584717e+01 5.57931023e+01 1.30431839e+02 2.77292137e+01</_>
    <_>
      3.00780296e+01 4.35014038e+01 5.52886200e+01 5.03909645e+01
      1.11770988e+02 6.77957382e+01 1.01741562e+02 2.51229115e+01</_>
    <_>
      7.45600281e+01 8.69824677e+01 9.99844666e+01 1.29467636e+02
      1.30867554e+02 9.52669296e+01 4.95030174e+01 1.51117935e+02</_>
    <_>
      1.42554611e+02 1.21799957e+02 2.05947586e+02 2.13879639e+02
      2.40293381e+02 2.19459427e+02 2.01387482e+02 2.28707626e+02</_>
    <_>
      1.64431152e+02 1.65944962e+02 1.88451096e+02 2.12981796e+02
      2.11358810e+02 1.93445709e+02 1.96813599e+02 2.29328598e+02</_>
    <_>
      3.37089767e+01 1.42565323e+02 6.94944687e+01 2.03078232e+02
      1.31324478e+02 1.06731926e+02 7.09663391e+01 1.85861526e+02</_></uncompressed_support_vectors>
  <decision_functions>
    <_>
      <sv_count>1</sv_count>
      <rho>-9.9970977849074361e-01</rho>
      <alpha>
        1.</alpha>
      <index>
        0</index></_></decision_functions></opencv_ml_svm>
</opencv_storage>
